<?xml version="1.0"?>
<opencv_storage>
<cascade>
  <stageType>BOOST</stageType>
  <featureType>LBP</featureType>
  <height>20</height>
  <width>20</width>
  <stageParams>
    <boostType>GAB</boostType>
    <minHitRate>9.9900001287460327e-01</minHitRate>
    <maxFalseAlarm>5.0000000000000000e-01</maxFalseAlarm>
    <weightTrimRate>9.4999999999999996e-01</weightTrimRate>
    <maxDepth>1</maxDepth>
    <maxWeakCount>100</maxWeakCount></stageParams>
  <featureParams>
    <maxCatCount>256</maxCatCount>
    <featSize>1</featSize></featureParams>
  <stageNum>19</stageNum>
  <stages>
    <!-- stage 0 -->
    <_>
      <maxWeakCount>5</maxWeakCount>
      <stageThreshold>-2.3029775619506836e+00</stageThreshold>
      <weakClassifiers>
        <_>
          <internalNodes>
            0 -1 145 -1 -8438273 -1176510497 1073709055 -71828481
            1073723903 1069543423 1065320447</internalNodes>
          <leafValues>
            -8.9706337451934814e-01 5.1104813814163208e-01</leafValues></_>
        <_>
          <internalNodes>
            0 -1 77 -67112961 -52709 1975508919 1605850491 1794374655
            197074415 2139093999 260009855</internalNodes>
          <leafValues>
            -7.5643199682235718e-01 3.0109703540802002e-01</leafValues></_>
        <_>
          <internalNodes>
            0 -1 273 898635253 1006581727 1073508605 1073725439
            1066753397 -805356801 2143289343 -1</internalNodes>
          <leafValues>
            -6.8198013305664062e-01 2.8701448440551758e-01</leafValues></_>
        <_>
          <internalNodes>
            0 -1 52 -872438257 -890525089 -495048022 -791224150
            1800863766 1166008893 -142644922 -201591169</internalNodes>
          <leafValues>
            -4.8433396220207214e-01 4.3442872166633606e-01</leafValues></_>
        <_>
          <internalNodes>
            0 -1 231 -1892673419 -125712 394497503 -35791491 -1584555204
            -67546723 730248185 -1613233936</internalNodes>
          <leafValues>
            -4.5216277241706848e-01 3.9972966909408569e-01</leafValues></_></weakClassifiers></_>
    <!-- stage 1 -->
    <_>
      <maxWeakCount>8</maxWeakCount>
      <stageThreshold>-1.9050508737564087e+00</stageThreshold>
      <weakClassifiers>
        <_>
          <internalNodes>
            0 -1 176 -1 -19457 -573311745 -57889 -69346305 -2623841
            -1025 1073692671</internalNodes>
          <leafValues>
            -8.5554826259613037e-01 3.1013306975364685e-01</leafValues></_>
        <_>
          <internalNodes>
            0 -1 98 -556007425 2146371519 -11272193 2113370587
            1803022335 -1426473033 1872494591 796360703</internalNodes>
          <leafValues>
            -6.7337059974670410e-01 2.4456784129142761e-01</leafValues></_>
        <_>
          <internalNodes>
            0 -1 17 -353720594 -634476814 1267351786 -1060470710
            589496499 -2147024125 386561659 -68459501</internalNodes>
          <leafValues>
            -4.7516417503356934e-01 3.8451024889945984e-01</leafValues></_>
        <_>
          <internalNodes>
            0 -1 0 -534207358 -43130709 2012671731 -248140033 -146954501
            -755173527 -172251917 -136878253</internalNodes>
          <leafValues>
            -3.4236001968383789e-01 4.5813092589378357e-01</leafValues></_>
        <_>
          <internalNodes>
            0 -1 246 304628149 1068980191 665534303 201265759 185079960
            -1073807686 968502527 -280913</internalNodes>
          <leafValues>
            -5.1123160123825073e-01 3.1455966830253601e-01</leafValues></_>
        <_>
          <internalNodes>
            0 -1 327 9451668 -1941943842 358053375 -1651768868 960175037
            -1087662417 249454335 -1413848872</internalNodes>
          <leafValues>
            -5.0873231887817383e-01 2.9604244232177734e-01</leafValues></_>
        <_>
          <internalNodes>
            0 -1 46 -275798110 -1030307388 -1500536314 -997325168
            -884012272 148066 -1048116480 -671362110</internalNodes>
          <leafValues>
            -4.7590374946594238e-01 3.1335559487342834e-01</leafValues></_>
        <_>
          <internalNodes>
            0 -1 185 -493098484 -138678657 -676205217 -15735877
            661628811 -1860522149 727436191 1606354195</internalNodes>
          <leafValues>
            -4.5726525783538818e-01 3.1786015629768372e-01</leafValues></_></weakClassifiers></_>
    <!-- stage 2 -->
    <_>
      <maxWeakCount>11</maxWeakCount>
      <stageThreshold>-1.8348557949066162e+00</stageThreshold>
      <weakClassifiers>
        <_>
          <internalNodes>
            0 -1 97 -513 -2114305 -33693729 -1 -1 -17153 2147483647
            2147450879</internalNodes>
          <leafValues>
            -7.5731527805328369e-01 1.4705137908458710e-01</leafValues></_>
        <_>
          <internalNodes>
            0 -1 56 -355483058 -1024521174 -2012648954 -529889554
            -213950191 1090718065 -145759245 -134486017</internalNodes>
          <leafValues>
            -4.8147520422935486e-01 3.5655236244201660e-01</leafValues></_>
        <_>
          <internalNodes>
            0 -1 240 338699709 213811069 1976515071 -32773 1069506031
            2147442155 -160437249 -8709</internalNodes>
          <leafValues>
            -6.4728456735610962e-01 2.6590245962142944e-01</leafValues></_>
        <_>
          <internalNodes>
            0 -1 43 -1977373182 -857046134 -1532950016 -766890976
            -2094010576 1107544228 1397179648 -145280448</internalNodes>
          <leafValues>
            -5.7884299755096436e-01 2.8836792707443237e-01</leafValues></_>
        <_>
          <internalNodes>
            0 -1 262 -82771987 -67611395 -347253249 -14876780 -67583752
            -1144340594 -84226049 -1977089576</internalNodes>
          <leafValues>
            -4.9113661050796509e-01 2.7807921171188354e-01</leafValues></_>
        <_>
          <internalNodes>
            0 -1 37 -1482955998 -427130742 1150493188 -892303520 6005924
            11747539 391639522 -134229258</internalNodes>
          <leafValues>
            -3.9544621109962463e-01 3.3491820096969604e-01</leafValues></_>
        <_>
          <internalNodes>
            0 -1 289 537395513 178661714 -551125505 927955613 782766782
            -1156965797 262042559 -1682306979</internalNodes>
          <leafValues>
            -4.3828317523002625e-01 2.9093211889266968e-01</leafValues></_>
        <_>
          <internalNodes>
            0 -1 396 -153219926 -119657349 1435121739 419316935
            -122949044 -631495890 -1294230870 -1732591942</internalNodes>
          <leafValues>
            -3.5079240798950195e-01 3.5057291388511658e-01</leafValues></_>
        <_>
          <internalNodes>
            0 -1 12 -2013222720 -1098335196 -916516865 2143369359
            729218489 -1607951536 2040918431 1209349125</internalNodes>
          <leafValues>
            -4.6471765637397766e-01 2.5705769658088684e-01</leafValues></_>
        <_>
          <internalNodes>
            0 -1 223 372557519 1944365821 -1391642728 905845143
            212204951 512959949 574304191 691212263</internalNodes>
          <leafValues>
            -6.5967524051666260e-01 1.7813725769519806e-01</leafValues></_>
        <_>
          <internalNodes>
            0 -1 260 -1156576039 -75604555 805092345 -575070987
            -1371996684 -1073746147 -1619265847 -1344594740</internalNodes>
          <leafValues>
            -3.2526290416717529e-01 3.8154760003089905e-01</leafValues></_></weakClassifiers></_>
    <!-- stage 3 -->
    <_>
      <maxWeakCount>14</maxWeakCount>
      <stageThreshold>-1.7785526514053345e+00</stageThreshold>
      <weakClassifiers>
        <_>
          <internalNodes>
            0 -1 148 -1 -8390761 -202116385 -131105 -4129 -398369 -1089
            2147483647</internalNodes>
          <leafValues>
            -6.6592562198638916e-01 1.5155240893363953e-01</leafValues></_>
        <_>
          <internalNodes>
            0 -1 104 -341835789 -1116190 -570950158 -10380 789289963
            -6358104 1331131861 -8432363</internalNodes>
          <leafValues>
            -4.2048147320747375e-01 3.4280347824096680e-01</leafValues></_>
        <_>
          <internalNodes>
            0 -1 58 -487602393 -389623825 -289479137 -524669330
            1446470917 1971262486 -143658001 -201330705</internalNodes>
          <leafValues>
            -3.2918563485145569e-01 4.1114717721939087e-01</leafValues></_>
        <_>
          <internalNodes>
            0 -1 226 -208178313 -1142011129 -603324449 2144288175
            -1378624001 -3976201 -1227358211 801048379</internalNodes>
          <leafValues>
            -6.1177235841751099e-01 2.2237941622734070e-01</leafValues></_>
        <_>
          <internalNodes>
            0 -1 31 -2056781981 -298916117 -992235840 -319902012
            -403240172 1188751353 1660383255 -134261771</internalNodes>
          <leafValues>
            -3.8544428348541260e-01 3.1572675704956055e-01</leafValues></_>
        <_>
          <internalNodes>
            0 -1 254 36326739 212749950 -16938529 1056864254 1802702047
            -1683235849 796661743 -1084603137</internalNodes>
          <leafValues>
            -3.7069284915924072e-01 3.0672028660774231e-01</leafValues></_>
        <_>
          <internalNodes>
            0 -1 389 -319290241 -553902209 1073581935 -85299521
            -285810801 -50364572 -553722662 -1162199362</internalNodes>
          <leafValues>
            -3.0769148468971252e-01 3.3969429135322571e-01</leafValues></_>
        <_>
          <internalNodes>
            0 -1 362 -1968654347 -1258803972 1004887733 -1076618551
            1004209653 -108057397 1006111101 -1073801796</internalNodes>
          <leafValues>
            -4.1072592139244080e-01 2.4933010339736938e-01</leafValues></_>
        <_>
          <internalNodes>
            0 -1 51 -282935196 804479709 739788101 1842999743 1321861124
            1334012057 -337458599 -18678849</internalNodes>
          <leafValues>
            -4.2684176564216614e-01 2.4272441864013672e-01</leafValues></_>
        <_>
          <internalNodes>
            0 -1 206 -1438937341 -8454275 -541852049 -235667483
            -145376305 -1207988490 -1650723393 -1677752875</internalNodes>
          <leafValues>
            -2.6518708467483521e-01 4.0775072574615479e-01</leafValues></_>
        <_>
          <internalNodes>
            0 -1 336 -823148026 1107878031 -325326110 1085786879
            -137494551 127883839 -18874465 317389759</internalNodes>
          <leafValues>
            -5.2181565761566162e-01 2.0646324753761292e-01</leafValues></_>
        <_>
          <internalNodes>
            0 -1 73 -1364480206 -1968635920 -2128613966 -138659278
            59300343 210930108 288166647 -537963051</internalNodes>
          <leafValues>
            -3.9175218343734741e-01 2.6309868693351746e-01</leafValues></_>
        <_>
          <internalNodes>
            0 -1 318 -566486983 -557969932 -1188048037 -6549579
            -72178375 -4335201 -342359137 -1413866339</internalNodes>
          <leafValues>
            -3.2586842775344849e-01 3.1524232029914856e-01</leafValues></_>
        <_>
          <internalNodes>
            0 -1 4 778748582 -390400646 -1262028551 -709233671
            1130332656 -1280992907 -2021271579 2012692753</internalNodes>
          <leafValues>
            -4.8078858852386475e-01 2.0546497404575348e-01</leafValues></_></weakClassifiers></_>
    <!-- stage 4 -->
    <_>
      <maxWeakCount>17</maxWeakCount>
      <stageThreshold>-1.8830811977386475e+00</stageThreshold>
      <weakClassifiers>
        <_>
          <internalNodes>
            0 -1 229 -69211169 -606500129 -125706753 -538443875
            -308301825 -68419861 -68173825 2147434239</internalNodes>
          <leafValues>
            -7.4533915519714355e-01 -4.8810005187988281e-02</leafValues></_>
        <_>
          <internalNodes>
            0 -1 181 -1090455631 -202720328 -1623859201 -11808
            -1648627201 -877671972 -1760303137 -1092428</internalNodes>
          <leafValues>
            -3.5661134123802185e-01 3.0062729120254517e-01</leafValues></_>
        <_>
          <internalNodes>
            0 -1 314 -588723027 -184768263 -784665498 1575000575
            -119474001 -56827535 -321328500 8945871</internalNodes>
          <leafValues>
            -5.2091968059539795e-01 1.9511972367763519e-01</leafValues></_>
        <_>
          <internalNodes>
            0 -1 48 -357594070 -892698204 -362410496 -1033378078
            -313045756 122391362 -1014292730 -134224946</internalNodes>
          <leafValues>
            -3.9081215858459473e-01 3.0947926640510559e-01</leafValues></_>
        <_>
          <internalNodes>
            0 -1 0 -362617718 -8654165 -218628423 -156161 -541203474
            1928181601 -675301389 -134777357</internalNodes>
          <leafValues>
            -2.8545033931732178e-01 3.5359433293342590e-01</leafValues></_>
        <_>
          <internalNodes>
            0 -1 276 431430648 458063295 792669818 -1699520401
            2077718493 1055594947 -69435414 -3145773</internalNodes>
          <leafValues>
            -4.7356763482093811e-01 2.2141765058040619e-01</leafValues></_>
        <_>
          <internalNodes>
            0 -1 326 488693264 1066048488 1073559997 530324604
            -1079328837 -1079574793 602541100 -1342203295</internalNodes>
          <leafValues>
            -3.9018154144287109e-01 2.4540950357913971e-01</leafValues></_>
        <_>
          <internalNodes>
            0 -1 185 1752230656 -192692673 -107483137 -9192609 556770947
            2000603199 777251759 1270809875</internalNodes>
          <leafValues>
            -4.2233440279960632e-01 2.2524110972881317e-01</leafValues></_>
        <_>
          <internalNodes>
            0 -1 399 -555088804 1551110102 -1690113094 841373079
            -108085992 -1337108279 -221709570 -96813073</internalNodes>
          <leafValues>
            -3.4188055992126465e-01 2.7961897850036621e-01</leafValues></_>
        <_>
          <internalNodes>
            0 -1 63 -706287478 -730947552 256355022 1123698158
            2097893700 269777523 -183038484 1735854011</internalNodes>
          <leafValues>
            -3.6993795633316040e-01 2.6004689931869507e-01</leafValues></_>
        <_>
          <internalNodes>
            0 -1 329 -2010113032 -572774772 -707660321 1609055384
            -1145438210 -34199059 2138963966 -1358296856</internalNodes>
          <leafValues>
            -3.6316144466400146e-01 2.4209381639957428e-01</leafValues></_>
        <_>
          <internalNodes>
            0 -1 301 1565825698 87993861 -849489767 530169625 472422586
            2145247442 -1001662133 1566281375</internalNodes>
          <leafValues>
            -3.7301939725875854e-01 2.4466370046138763e-01</leafValues></_>
        <_>
          <internalNodes>
            0 -1 288 681580849 718166516 789400023 1795111321
            -1993861355 -40821 1002468091 -1412816880</internalNodes>
          <leafValues>
            -5.2696532011032104e-01 1.5912018716335297e-01</leafValues></_>
        <_>
          <internalNodes>
            0 -1 242 -389924 954073111 -2075781356 973495049 516499112
            -1114281895 1072414346 -140518982</internalNodes>
          <leafValues>
            -3.7141054868698120e-01 2.3417192697525024e-01</leafValues></_>
        <_>
          <internalNodes>
            0 -1 152 -1473647103 -1872039440 1607946995 -69475847
            -1382435180 -812990247 -1843167082 -1645275951</internalNodes>
          <leafValues>
            -3.1406578421592712e-01 3.0093550682067871e-01</leafValues></_>
        <_>
          <internalNodes>
            0 -1 137 -529596408 -698457483 -1607349540 1914331545
            -953613876 -100504902 -56636471 -72729910</internalNodes>
          <leafValues>
            -3.3479887247085571e-01 2.7575290203094482e-01</leafValues></_>
        <_>
          <internalNodes>
            0 -1 52 -387267028 -431542669 -2071573126 -255401446
            1060597784 17973285 -1026568308 -202709897</internalNodes>
          <leafValues>
            -3.6167019605636597e-01 2.5461062788963318e-01</leafValues></_></weakClassifiers></_>
    <!-- stage 5 -->
    <_>
      <maxWeakCount>18</maxWeakCount>
      <stageThreshold>-1.9151430130004883e+00</stageThreshold>
      <weakClassifiers>
        <_>
          <internalNodes>
            0 -1 106 -67371009 465559541 -149830945 -203711543 222853631
            532635615 -91690294 -69482245</internalNodes>
          <leafValues>
            -6.3836532831192017e-01 -4.3196003884077072e-02</leafValues></_>
        <_>
          <internalNodes>
            0 -1 182 -375390427 -158803 -976290817 -11435 718782383
            -338699345 66576351 459998469</internalNodes>
          <leafValues>
            -4.7557279467582703e-01 1.7546756565570831e-01</leafValues></_>
        <_>
          <internalNodes>
            0 -1 228 -1408204847 -1075694084 -4761381 -8622220
            -1423446344 -16855570 -1347093827 -1950609392</internalNodes>
          <leafValues>
            -4.1496822237968445e-01 2.0892740786075592e-01</leafValues></_>
        <_>
          <internalNodes>
            0 -1 22 -290797338 -71662938 1874726601 1692831394 590558355
            -163697546 -147176870 -81531285</internalNodes>
          <leafValues>
            -2.3525823652744293e-01 3.7752196192741394e-01</leafValues></_>
        <_>
          <internalNodes>
            0 -1 305 174739953 514481972 969233685 -1107346452 180895743
            -1376014613 1268726250 -1077937153</internalNodes>
          <leafValues>
            -4.1688281297683716e-01 2.1822632849216461e-01</leafValues></_>
        <_>
          <internalNodes>
            0 -1 267 -352604497 303892615 -2078968483 502789149
            -1329541447 734897966 -189071427 9095151</internalNodes>
          <leafValues>
            -4.2560577392578125e-01 2.0012372732162476e-01</leafValues></_>
        <_>
          <internalNodes>
            0 -1 345 746592732 -172353192 -704979467 -1107546404
            -1127305473 -1141348215 -348520451 -1917317656</internalNodes>
          <leafValues>
            -3.9964595437049866e-01 2.1014095842838287e-01</leafValues></_>
        <_>
          <internalNodes>
            0 -1 99 -1557397551 -293022986 -1188569212 -175179600
            236251063 -1753318926 1369109399 -538501648</internalNodes>
          <leafValues>
            -3.0325105786323547e-01 2.8283351659774780e-01</leafValues></_>
        <_>
          <internalNodes>
            0 -1 54 -414252509 1791870767 585761384 1623859842
            1685526020 386132779 1204961450 1447551927</internalNodes>
          <leafValues>
            -4.3668782711029053e-01 1.8140016496181488e-01</leafValues></_>
        <_>
          <internalNodes>
            0 -1 307 405338513 -1146208088 121461005 464502206 973241789
            -1414598067 534478090 -1896976984</internalNodes>
          <leafValues>
            -3.2527762651443481e-01 2.6734605431556702e-01</leafValues></_>
        <_>
          <internalNodes>
            0 -1 275 1652282146 449523543 1713781886 1071381599
            1935118839 1754030162 -477108259 1874421710</internalNodes>
          <leafValues>
            -3.7097293138504028e-01 2.2723494470119476e-01</leafValues></_>
        <_>
          <internalNodes>
            0 -1 130 -487657782 718631174 1243150182 1377498832
            103798402 47706192 1155471170 1451095383</internalNodes>
          <leafValues>
            -4.4623291492462158e-01 1.8310585618019104e-01</leafValues></_>
        <_>
          <internalNodes>
            0 -1 264 -657530255 521929704 1294834583 -8245827 788105676
            -68244260 -304577092 689064284</internalNodes>
          <leafValues>
            -4.8109737038612366e-01 1.6365610063076019e-01</leafValues></_>
        <_>
          <internalNodes>
            0 -1 89 -524106999 -253015718 -486672547 -227909639
            -55966440 -648845705 -524902 -7721333</internalNodes>
          <leafValues>
            -2.5671428442001343e-01 3.2050886750221252e-01</leafValues></_>
        <_>
          <internalNodes>
            0 -1 356 -1191570323 -616640937 -287015341 293318111
            -186855288 -142930578 -355288342 -1702167109</internalNodes>
          <leafValues>
            -2.4568143486976624e-01 3.6040166020393372e-01</leafValues></_>
        <_>
          <internalNodes>
            0 -1 405 -1977446624 -1994385680 -611463246 796650724
            48276000 -2062175985 -1187515644 1674417337</internalNodes>
          <leafValues>
            -4.3787738680839539e-01 1.8585206568241119e-01</leafValues></_>
        <_>
          <internalNodes>
            0 -1 366 -1361164105 989209693 2054832127 912207935
            -1182181372 -484563748 -1628521812 -1204932645</internalNodes>
          <leafValues>
            -3.1210869550704956e-01 2.5903001427650452e-01</leafValues></_>
        <_>
          <internalNodes>
            0 -1 128 -1464602823 -309406544 -1150058508 -421611788
            791666679 -878772259 -1759324761 -547401219</internalNodes>
          <leafValues>
            -2.6129308342933655e-01 3.0771842598915100e-01</leafValues></_></weakClassifiers></_>
    <!-- stage 6 -->
    <_>
      <maxWeakCount>18</maxWeakCount>
      <stageThreshold>-1.6286604404449463e+00</stageThreshold>
      <weakClassifiers>
        <_>
          <internalNodes>
            0 -1 132 -135272722 -144905481 1532047987 -134488937
            132055152 2147481279 -4202565 -4097</internalNodes>
          <leafValues>
            -6.5417343378067017e-01 -8.6441814899444580e-02</leafValues></_>
        <_>
          <internalNodes>
            0 -1 349 -1415934288 -1953848168 -1914563536 2099187056
            119488884 268388975 401539541 -12289</internalNodes>
          <leafValues>
            -4.4638678431510925e-01 2.1313178539276123e-01</leafValues></_>
        <_>
          <internalNodes>
            0 -1 378 135412247 -1392066575 -1635778625 -1142366466
            -1083197505 -1145447937 -1111640577 -1140868935</internalNodes>
          <leafValues>
            -3.4605592489242554e-01 2.9664665460586548e-01</leafValues></_>
        <_>
          <internalNodes>
            0 -1 149 -1145309807 -1379176 938868575 -1639596 -1887070785
            -808859147 1303827955 -1611852427</internalNodes>
          <leafValues>
            -3.1799247860908508e-01 2.9073545336723328e-01</leafValues></_>
        <_>
          <internalNodes>
            0 -1 118 -1057013759 -237535475 -2031515941 -218465665
            -31521231 1937391447 2055006142 -67487041</internalNodes>
          <leafValues>
            -2.3856510221958160e-01 3.6062631011009216e-01</leafValues></_>
        <_>
          <internalNodes>
            0 -1 383 -788657085 1532956541 2026633431 1486503261
            -621906743 -86082187 -289737026 -1440051337</internalNodes>
          <leafValues>
            -2.9406836628913879e-01 2.9165798425674438e-01</leafValues></_>
        <_>
          <internalNodes>
            0 -1 40 -1903187198 -1026913074 1290710058 -390035328
            347550580 57564066 1610503376 -771754378</internalNodes>
          <leafValues>
            -4.2170149087905884e-01 2.0853191614151001e-01</leafValues></_>
        <_>
          <internalNodes>
            0 -1 297 -363429631 -763649187 -34349095 -78025059
            -1434940482 -119938 -1881665585 -1691216503</internalNodes>
          <leafValues>
            -3.0248290300369263e-01 2.9126876592636108e-01</leafValues></_>
        <_>
          <internalNodes>
            0 -1 157 -88150914 1002139005 1039280921 1001471795
            2080181433 226193407 -1216889093 -262401</internalNodes>
          <leafValues>
            -2.5524342060089111e-01 3.3868709206581116e-01</leafValues></_>
        <_>
          <internalNodes>
            0 -1 313 749096343 -128959776 1087871455 -1707579564
            -1113324932 -1346727660 -1449074696 -1953972143</internalNodes>
          <leafValues>
            -3.8821300864219666e-01 2.1406878530979156e-01</leafValues></_>
        <_>
          <internalNodes>
            0 -1 136 -905821099 1982758806 -1947516937 732822810
            -1905373800 -547815940 -823495173 -1347682449</internalNodes>
          <leafValues>
            -2.6364114880561829e-01 3.1501775979995728e-01</leafValues></_>
        <_>
          <internalNodes>
            0 -1 10 581632 -2057414531 2006943485 1600642783 40010160
            -1164816343 1134519713 1460753413</internalNodes>
          <leafValues>
            -4.4150447845458984e-01 1.8555401265621185e-01</leafValues></_>
        <_>
          <internalNodes>
            0 -1 44 -16798153 -269832342 -352384033 -117764566
            1692798446 610932020 -402700626 -202454906</internalNodes>
          <leafValues>
            -2.2935320436954498e-01 3.5258412361145020e-01</leafValues></_>
        <_>
          <internalNodes>
            0 -1 113 1493497800 624955504 -645547745 1063399829
            353441948 -990951743 -265332018 -1078657083</internalNodes>
          <leafValues>
            -3.5119858384132385e-01 2.2836276888847351e-01</leafValues></_>
        <_>
          <internalNodes>
            0 -1 261 -2004472199 721814546 -217558561 -1638637264
            -1956453872 -1343406320 445653822 -1977080484</internalNodes>
          <leafValues>
            -4.0331363677978516e-01 1.9982217252254486e-01</leafValues></_>
        <_>
          <internalNodes>
            0 -1 151 -229397886 -656608465 -92153875 -1252656164
            589802924 1511767855 1743363451 -538508025</internalNodes>
          <leafValues>
            -2.9902234673500061e-01 2.6188188791275024e-01</leafValues></_>
        <_>
          <internalNodes>
            0 -1 372 1257234946 1111967342 -554279790 274984638
            1116456001 1199073994 -357369862 -1608325441</internalNodes>
          <leafValues>
            -4.2920127511024475e-01 1.8451467156410217e-01</leafValues></_>
        <_>
          <internalNodes>
            0 -1 63 -874282268 -949088948 -1157394225 -785831866
            1969622278 287006791 2036702298 -343954690</internalNodes>
          <leafValues>
            -2.8089058399200439e-01 2.8115284442901611e-01</leafValues></_></weakClassifiers></_>
    <!-- stage 7 -->
    <_>
      <maxWeakCount>21</maxWeakCount>
      <stageThreshold>-1.9245648384094238e+00</stageThreshold>
      <weakClassifiers>
        <_>
          <internalNodes>
            0 -1 217 181405181 -1073774593 -1081115681 -44075777
            -1613792833 -1343569 -426049 -1140900881</internalNodes>
          <leafValues>
            -6.2508428096771240e-01 -7.1779742836952209e-02</leafValues></_>
        <_>
          <internalNodes>
            0 -1 265 -21116193 1776092837 -186255911 2113748959
            -1109613587 1071508701 -8942603 1002383279</internalNodes>
          <leafValues>
            -5.2099984884262085e-01 1.4255824685096741e-01</leafValues></_>
        <_>
          <internalNodes>
            0 -1 344 524531 -1381089537 -80413217 -1678010467 402005951
            -1614700547 -109077505 -1345667427</internalNodes>
          <leafValues>
            -3.5487851500511169e-01 2.3910120129585266e-01</leafValues></_>
        <_>
          <internalNodes>
            0 -1 210 304365648 1063222902 723402701 173619867 790628448
            2145267579 -1346490770 -1351630881</internalNodes>
          <leafValues>
            -5.5753999948501587e-01 1.7451834678649902e-01</leafValues></_>
        <_>
          <internalNodes>
            0 -1 82 -66097375 -275876888 -1381427370 -226593312
            -837850318 1471116368 1174631440 -33599168</internalNodes>
          <leafValues>
            -4.0882778167724609e-01 1.9225119054317474e-01</leafValues></_>
        <_>
          <internalNodes>
            0 -1 172 72619377 -243321603 -1179041857 -576885579
            -1401116675 -1615284887 -138451521 -1894890211</internalNodes>
          <leafValues>
            -2.5627073645591736e-01 3.1370913982391357e-01</leafValues></_>
        <_>
          <internalNodes>
            0 -1 208 -495055864 707396181 -1536032230 978991964
            -1743572908 267556649 -1413717304 -1163215905</internalNodes>
          <leafValues>
            -4.0353089570999146e-01 1.8837320804595947e-01</leafValues></_>
        <_>
          <internalNodes>
            0 -1 43 -913838261 -842100758 -1497159630 -228028920
            235929495 1109123496 1710748628 -671103325</internalNodes>
          <leafValues>
            -2.7921235561370850e-01 2.7657812833786011e-01</leafValues></_>
        <_>
          <internalNodes>
            0 -1 146 -1350471311 -1429144596 -169363971 -271888 91111412
            -1358972940 -1207986755 -1610677008</internalNodes>
          <leafValues>
            -2.9638388752937317e-01 2.5842797756195068e-01</leafValues></_>
        <_>
          <internalNodes>
            0 -1 381 -1731591950 -121238914 -1891051233 1928864508
            -623345072 -91357060 -494076680 -1164434502</internalNodes>
          <leafValues>
            -3.5716158151626587e-01 2.1786855161190033e-01</leafValues></_>
        <_>
          <internalNodes>
            0 -1 144 -56990539 -117258576 -1892913165 1301062769
            -1104546192 -5588958 -836186562 202070047</internalNodes>
          <leafValues>
            -2.5856798887252808e-01 2.8231739997863770e-01</leafValues></_>
        <_>
          <internalNodes>
            0 -1 268 -1435978703 -201838618 -134217763 -536871556
            -1143113 -475334785 -1888309841 -878575351</internalNodes>
          <leafValues>
            -2.5420477986335754e-01 2.8314253687858582e-01</leafValues></_>
        <_>
          <internalNodes>
            0 -1 62 -933248470 -429703154 1511931919 -1024579554
            1110265856 1348888833 -303579800 1669008086</internalNodes>
          <leafValues>
            -4.0544810891151428e-01 1.8113568425178528e-01</leafValues></_>
        <_>
          <internalNodes>
            0 -1 19 251797276 234308303 771956047 195888775 -1459255818
            -1514780891 234691383 238749007</internalNodes>
          <leafValues>
            -6.6012203693389893e-01 1.1085774004459381e-01</leafValues></_>
        <_>
          <internalNodes>
            0 -1 341 -1860119808 1965065884 775044885 -1482742316
            736082239 -1399071749 668931656 -1897165710</internalNodes>
          <leafValues>
            -3.3273532986640930e-01 2.1421100199222565e-01</leafValues></_>
        <_>
          <internalNodes>
            0 -1 394 1079824512 -789282913 859610493 -260321285
            -2066761394 -630678924 2078325743 -761624870</internalNodes>
          <leafValues>
            -2.7813243865966797e-01 2.6792871952056885e-01</leafValues></_>
        <_>
          <internalNodes>
            0 -1 153 -2137029118 572464903 -1077286563 2001274206
            671027797 192094579 1475765689 390231419</internalNodes>
          <leafValues>
            -5.4956167936325073e-01 1.3505113124847412e-01</leafValues></_>
        <_>
          <internalNodes>
            0 -1 238 1648398080 -593563568 -175130147 -4326471
            -1281312587 -50586946 -443933285 -1109917691</internalNodes>
          <leafValues>
            -3.4566286206245422e-01 2.0983143150806427e-01</leafValues></_>
        <_>
          <internalNodes>
            0 -1 86 -1057488141 -1068036273 -267270149 1887314427
            -179042300 1951163141 -455818902 -142763010</internalNodes>
          <leafValues>
            -2.8624498844146729e-01 2.5892731547355652e-01</leafValues></_>
        <_>
          <internalNodes>
            0 -1 112 -206646251 -1616023490 68771901 535134201
            -257145464 2130608103 717118748 -538263556</internalNodes>
          <leafValues>
            -2.5014707446098328e-01 3.0505815148353577e-01</leafValues></_>
        <_>
          <internalNodes>
            0 -1 332 -933190524 -1137924574 -802889292 877137333
            -520955226 2024923899 -892289024 537429199</internalNodes>
          <leafValues>
            -5.6279432773590088e-01 1.4412093162536621e-01</leafValues></_></weakClassifiers></_>
    <!-- stage 8 -->
    <_>
      <maxWeakCount>24</maxWeakCount>
      <stageThreshold>-1.6340256929397583e+00</stageThreshold>
      <weakClassifiers>
        <_>
          <internalNodes>
            0 -1 168 -602670637 1596778202 994762171 422552207 993124250
            -582222957 2066964351 -4202613</internalNodes>
          <leafValues>
            -5.2492821216583252e-01 9.4097517430782318e-03</leafValues></_>
        <_>
          <internalNodes>
            0 -1 101 -238289450 -612501721 -104267789 -538517641
            -1986415705 -369553745 1539930111 -820568301</internalNodes>
          <leafValues>
            -2.9390752315521240e-01 2.3116518557071686e-01</leafValues></_>
        <_>
          <internalNodes>
            0 -1 287 -1465820075 -1431556868 804499431 174987257
            -1944074282 -1342178597 461796775 -1355936492</internalNodes>
          <leafValues>
            -3.1171229481697083e-01 2.0646731555461884e-01</leafValues></_>
        <_>
          <internalNodes>
            0 -1 33 -526728686 1464511106 -901886420 1619140726
            246555171 1745814023 1820459261 -503127893</internalNodes>
          <leafValues>
            -2.7834990620613098e-01 2.3091858625411987e-01</leafValues></_>
        <_>
          <internalNodes>
            0 -1 141 361980209 1760626686 -1875764037 901191133
            549391236 -1734073449 1046428631 171908971</internalNodes>
          <leafValues>
            -6.5338027477264404e-01 1.3073752820491791e-01</leafValues></_>
        <_>
          <internalNodes>
            0 -1 152 -1607291263 -95764256 1363670386 -779102636
            -1357203224 -1624060444 244389015 497487984</internalNodes>
          <leafValues>
            -3.9889618754386902e-01 1.4788472652435303e-01</leafValues></_>
        <_>
          <internalNodes>
            0 -1 402 -2013220592 790156032 -2128701057 554205969
            839890721 237655303 205910325 3047696</internalNodes>
          <leafValues>
            -4.6920007467269897e-01 1.5701356530189514e-01</leafValues></_>
        <_>
          <internalNodes>
            0 -1 390 -84145057 -17294293 -553845729 1059700702 -26569080
            -17362956 -424493382 -1145926469</internalNodes>
          <leafValues>
            -2.2966063022613525e-01 2.8643551468849182e-01</leafValues></_>
        <_>
          <internalNodes>
            0 -1 13 -43269120 -680985466 -291050496 -1535333168
            -378570831 -528084980 1914762194 2011403505</internalNodes>
          <leafValues>
            -3.3406338095664978e-01 1.9718599319458008e-01</leafValues></_>
        <_>
          <internalNodes>
            0 -1 156 -8396050 2115333735 -209813962 997916207 -276846898
            773160803 -1256747842 -4726785</internalNodes>
          <leafValues>
            -1.8148563802242279e-01 3.5705521702766418e-01</leafValues></_>
        <_>
          <internalNodes>
            0 -1 299 -354451424 1456322085 1879800983 -33555105
            248161937 197983942 -1396627468 801027770</internalNodes>
          <leafValues>
            -3.6947277188301086e-01 1.9080655276775360e-01</leafValues></_>
        <_>
          <internalNodes>
            0 -1 214 137889045 1592007931 624366587 469711743 530191780
            -337907589 110783799 -1088786363</internalNodes>
          <leafValues>
            -4.4765934348106384e-01 1.5123507380485535e-01</leafValues></_>
        <_>
          <internalNodes>
            0 -1 72 758116273 -993212442 -1073774857 -1077614928
            -1627917065 66496506 1744430299 -671137345</internalNodes>
          <leafValues>
            -1.9996337592601776e-01 3.4215259552001953e-01</leafValues></_>
        <_>
          <internalNodes>
            0 -1 360 -1430594148 -14634224 -1481074994 94350526
            456545593 171672418 1067407371 248961981</internalNodes>
          <leafValues>
            -3.1263870000839233e-01 2.1599124372005463e-01</leafValues></_>
        <_>
          <internalNodes>
            0 -1 163 -628075451 1071599763 -1099169797 1004042805
            -1957804970 -348168230 -1411507553 -1412873946</internalNodes>
          <leafValues>
            -3.0132144689559937e-01 2.2339534759521484e-01</leafValues></_>
        <_>
          <internalNodes>
            0 -1 256 -1903673648 -2109209348 1530712527 -574080036
            -1915948432 -609703259 -1090207747 -1622471176</internalNodes>
          <leafValues>
            -3.1124666333198547e-01 2.1681670844554901e-01</leafValues></_>
        <_>
          <internalNodes>
            0 -1 160 -68365963 503279103 975708009 775061375 -1616001456
            1050619903 -1222471686 -134807557</internalNodes>
          <leafValues>
            -2.0114888250827789e-01 3.3112490177154541e-01</leafValues></_>
        <_>
          <internalNodes>
            0 -1 321 -405289844 1318037135 -297575539 2098167753
            -373253959 1644396752 1652592601 145339562</internalNodes>
          <leafValues>
            -3.3818665146827698e-01 1.9289213418960571e-01</leafValues></_>
        <_>
          <internalNodes>
            0 -1 90 -1027176448 -531792149 -1071844193 1356692258
            1963274240 2053177355 -1109937172 1399470778</internalNodes>
          <leafValues>
            -3.6480250954627991e-01 1.8683789670467377e-01</leafValues></_>
        <_>
          <internalNodes>
            0 -1 398 -855765922 2054556792 175657053 543096427 -24659172
            282257169 -1635482928 -1866814530</internalNodes>
          <leafValues>
            -3.5090154409408569e-01 1.8354393541812897e-01</leafValues></_>
        <_>
          <internalNodes>
            0 -1 235 -1289712384 -17284716 1619515881 -279422244
            -1439902799 -121192215 145029115 212338704</internalNodes>
          <leafValues>
            -5.4851305484771729e-01 1.1328485608100891e-01</leafValues></_>
        <_>
          <internalNodes>
            0 -1 116 -2105401270 -67484836 -2113519366 38945487
            -503279720 1496983650 -1412131896 1902755563</internalNodes>
          <leafValues>
            -3.3591064810752869e-01 1.9983556866645813e-01</leafValues></_>
        <_>
          <internalNodes>
            0 -1 32 -940591305 -470884370 -1931071950 -1259622869
            -1904232513 1124503158 87520752 -538454129</internalNodes>
          <leafValues>
            -1.7941334843635559e-01 3.8148933649063110e-01</leafValues></_>
        <_>
          <internalNodes>
            0 -1 241 707176960 -772616127 -38364900 2011168405 603630105
            730513744 281524431 165281865</internalNodes>
          <leafValues>
            -4.0131178498268127e-01 1.6785192489624023e-01</leafValues></_></weakClassifiers></_>
    <!-- stage 9 -->
    <_>
      <maxWeakCount>25</maxWeakCount>
      <stageThreshold>-1.5620311498641968e+00</stageThreshold>
      <weakClassifiers>
        <_>
          <internalNodes>
            0 -1 47 -469784913 -606953374 -1432205589 1646404642
            -233873262 1208415010 -580956454 -135535014</internalNodes>
          <leafValues>
            -5.7811510562896729e-01 -9.3579977750778198e-02</leafValues></_>
        <_>
          <internalNodes>
            0 -1 0 -361830742 -609105 -139010378 -785662729 -8526918
            -470993041 -675552335 -143157421</internalNodes>
          <leafValues>
            -2.9294809699058533e-01 2.3717284202575684e-01</leafValues></_>
        <_>
          <internalNodes>
            0 -1 325 204019903 -1366399750 1073577973 784214516
            536721406 -1345651201 663893935 -1411453560</internalNodes>
          <leafValues>
            -3.3160468935966492e-01 2.0362038910388947e-01</leafValues></_>
        <_>
          <internalNodes>
            0 -1 96 -1358680320 -421465628 1441724756 -422838208
            363076593 -890445860 670774432 -539033472</internalNodes>
          <leafValues>
            -3.7897989153862000e-01 1.6593469679355621e-01</leafValues></_>
        <_>
          <internalNodes>
            0 -1 207 2078214338 1242853046 947483962 -755914225
            1006443912 1072656173 -604171382 -3445793</internalNodes>
          <leafValues>
            -3.4613272547721863e-01 2.1119600534439087e-01</leafValues></_>
        <_>
          <internalNodes>
            0 -1 110 -285218233 44721171 -144410050 1938449498
            1140818832 71845924 867530579 2011689955</internalNodes>
          <leafValues>
            -3.5828354954719543e-01 1.8733058869838715e-01</leafValues></_>
        <_>
          <internalNodes>
            0 -1 382 -959053644 1601720669 -365499817 -753230083
            -158797580 -677986853 -357630306 -1577009762</internalNodes>
          <leafValues>
            -3.1114405393600464e-01 2.1781262755393982e-01</leafValues></_>
        <_>
          <internalNodes>
            0 -1 120 -957430644 -761453746 -897766657 1384587506
            1872134225 -367368874 -158469141 1669276891</internalNodes>
          <leafValues>
            -2.6092311739921570e-01 2.5503239035606384e-01</leafValues></_>
        <_>
          <internalNodes>
            0 -1 166 -687750699 2038455414 2080100223 530820381
            476697512 -1912612881 1799167615 -1410636307</internalNodes>
          <leafValues>
            -1.9767856597900391e-01 3.3655309677124023e-01</leafValues></_>
        <_>
          <internalNodes>
            0 -1 75 688827648 1877920154 22689586 -422698830 602416758
            172792717 119894688 1474250164</internalNodes>
          <leafValues>
            -4.5370596647262573e-01 1.4585496485233307e-01</leafValues></_>
        <_>
          <internalNodes>
            0 -1 374 -675285406 1196339046 -2070943496 1353682655
            1297724670 1235056019 408832503 -770965505</internalNodes>
          <leafValues>
            -2.6956611871719360e-01 2.3563370108604431e-01</leafValues></_>
        <_>
          <internalNodes>
            0 -1 316 -900061132 1380786655 -735506089 -438307364
            -1614477205 -599744055 -237198417 1069100979</internalNodes>
          <leafValues>
            -5.2582120895385742e-01 1.2686052918434143e-01</leafValues></_>
        <_>
          <internalNodes>
            0 -1 61 -465313056 -412753553 1244821067 1657676254
            -418684624 1429755958 -720584705 1677717162</internalNodes>
          <leafValues>
            -3.1381335854530334e-01 2.0155461132526398e-01</leafValues></_>
        <_>
          <internalNodes>
            0 -1 396 -1828844001 -186766342 1963643845 274101974
            -154417572 2030044236 -1127700296 -1598374149</internalNodes>
          <leafValues>
            -2.9785248637199402e-01 2.1846133470535278e-01</leafValues></_>
        <_>
          <internalNodes>
            0 -1 212 -1329603081 1903375609 434323194 616247167
            -1236891664 -67553315 -1956434758 -1140884034</internalNodes>
          <leafValues>
            -1.8522337079048157e-01 3.4711444377899170e-01</leafValues></_>
        <_>
          <internalNodes>
            0 -1 147 882063095 -435799040 -1824989227 -46116288
            -1461131152 -1127677226 750861629 -1929361985</internalNodes>
          <leafValues>
            -2.5936251878738403e-01 2.4746462702751160e-01</leafValues></_>
        <_>
          <internalNodes>
            0 -1 68 1174970376 1892118739 -305680417 -72929633
            -782896641 -1744680958 1015934905 352327712</internalNodes>
          <leafValues>
            -3.5636034607887268e-01 1.7947675287723541e-01</leafValues></_>
        <_>
          <internalNodes>
            0 -1 357 -460570364 1523933791 -1774913964 1931443028
            -208115940 -25538557 -605230218 -1423299829</internalNodes>
          <leafValues>
            -2.5951567292213440e-01 2.5289738178253174e-01</leafValues></_>
        <_>
          <internalNodes>
            0 -1 406 -137105365 -1030053520 -575753946 -713573925
            -1209291610 84377170 -1833264079 262912411</internalNodes>
          <leafValues>
            -2.1814167499542236e-01 2.9642900824546814e-01</leafValues></_>
        <_>
          <internalNodes>
            0 -1 350 -1166615175 -1145559558 28595605 -1081280043
            1032784757 -1549338272 -502848820 -134255394</internalNodes>
          <leafValues>
            -2.8006109595298767e-01 2.4228401482105255e-01</leafValues></_>
        <_>
          <internalNodes>
            0 -1 187 -1436621280 1918285393 1897690483 -715333029
            -1569208939 -1063107399 87234195 489899345</internalNodes>
          <leafValues>
            -3.4086659550666809e-01 1.9072163105010986e-01</leafValues></_>
        <_>
          <internalNodes>
            0 -1 164 -932576043 1590444927 1000806079 1032517951
            -1939186496 -369579945 -1372684485 -12950733</internalNodes>
          <leafValues>
            -2.8067663311958313e-01 2.4701207876205444e-01</leafValues></_>
        <_>
          <internalNodes>
            0 -1 105 -620239565 -508638566 -176065326 -103984104
            51077616 -500637640 1142351860 -5286475</internalNodes>
          <leafValues>
            -2.5364732742309570e-01 2.5410407781600952e-01</leafValues></_>
        <_>
          <internalNodes>
            0 -1 55 -59323298 1173049133 805257787 1161175651 -153752435
            1131904895 -1141459557 -204059677</internalNodes>
          <leafValues>
            -2.3186330497264862e-01 3.0487418174743652e-01</leafValues></_>
        <_>
          <internalNodes>
            0 -1 312 -1462212879 913602132 -761573397 1161838836
            -630964886 -14283493 1791936956 504894582</internalNodes>
          <leafValues>
            -3.2979461550712585e-01 1.9685322046279907e-01</leafValues></_></weakClassifiers></_>
    <!-- stage 10 -->
    <_>
      <maxWeakCount>30</maxWeakCount>
      <stageThreshold>-1.7595657110214233e+00</stageThreshold>
      <weakClassifiers>
        <_>
          <internalNodes>
            0 -1 1 -298866962 -405279809 -1524654081 -136861989
            -244318469 -605046336 -239618089 -134748173</internalNodes>
          <leafValues>
            -5.4100120067596436e-01 1.2161632068455219e-02</leafValues></_>
        <_>
          <internalNodes>
            0 -1 46 -426794206 -477182494 -1402753534 -118616416
            -2106898665 1078153029 1370448196 -675035678</internalNodes>
          <leafValues>
            -4.3342328071594238e-01 1.3347969949245453e-01</leafValues></_>
        <_>
          <internalNodes>
            0 -1 184 -1947549791 -605627976 -1615086595 -35867184
            -1967220289 -574436454 1060124663 -1083506671</internalNodes>
          <leafValues>
            -3.1082379817962646e-01 2.1273925900459290e-01</leafValues></_>
        <_>
          <internalNodes>
            0 -1 277 -224403422 394213581 -328868707 531364637
            -426903822 750328421 -316542009 2145382316</internalNodes>
          <leafValues>
            -2.6715356111526489e-01 2.5288230180740356e-01</leafValues></_>
        <_>
          <internalNodes>
            0 -1 173 1077961536 -609672238 -683597829 1932871022
            -836421749 -866631670 -1959543553 6308128</internalNodes>
          <leafValues>
            -3.4185296297073364e-01 1.9228588044643402e-01</leafValues></_>
        <_>
          <internalNodes>
            0 -1 209 -262779820 819084159 -1495630146 710033382
            -1151778572 -1962785179 -1978777922 -1079088449</internalNodes>
          <leafValues>
            -3.2192668318748474e-01 1.9823528826236725e-01</leafValues></_>
        <_>
          <internalNodes>
            0 -1 251 682249713 -1970780184 109401973 713311449 255480820
            -1928120230 524222816 -268469807</internalNodes>
          <leafValues>
            -3.4999161958694458e-01 1.8930771946907043e-01</leafValues></_>
        <_>
          <internalNodes>
            0 -1 392 -1558012413 1770137344 -1610816427 -5965569
            -1648824425 179747579 938721191 -1076105569</internalNodes>
          <leafValues>
            -2.3055139183998108e-01 2.8281992673873901e-01</leafValues></_>
        <_>
          <internalNodes>
            0 -1 49 -487137072 2136960777 -1361262977 1615014884
            1117873208 1199759439 2021909503 1644210894</internalNodes>
          <leafValues>
            -3.1072756648063660e-01 2.2115057706832886e-01</leafValues></_>
        <_>
          <internalNodes>
            0 -1 359 -1349852880 -1894906510 111104628 -1299232584
            88027409 663373825 119755473 -1074538638</internalNodes>
          <leafValues>
            -3.4247884154319763e-01 1.7808857560157776e-01</leafValues></_>
        <_>
          <internalNodes>
            0 -1 294 -1770906505 -837679860 -1767926817 -1890196648
            -1169375663 -341083367 -660931589 -1960177643</internalNodes>
          <leafValues>
            -2.6944318413734436e-01 2.3856776952743530e-01</leafValues></_>
        <_>
          <internalNodes>
            0 -1 5 -1566931782 -2046904594 180571837 431471312
            -1984069197 -841471882 897574833 1291142464</internalNodes>
          <leafValues>
            -3.8771429657936096e-01 1.6488499939441681e-01</leafValues></_>
        <_>
          <internalNodes>
            0 -1 42 859746222 -201328908 1190494810 -1275151176
            780136356 -329777682 1274398364 2147480783</internalNodes>
          <leafValues>
            -2.2338768839836121e-01 2.7166685461997986e-01</leafValues></_>
        <_>
          <internalNodes>
            0 -1 115 1650393093 -2084947973 -486746128 1915365067
            -287356643 -429197755 -101835032 -213958857</internalNodes>
          <leafValues>
            -3.0593112111091614e-01 2.1715757250785828e-01</leafValues></_>
        <_>
          <internalNodes>
            0 -1 171 1600327795 -16341468 2079227639 1455929269
            746373250 -1423235210 -620916789 -1345598293</internalNodes>
          <leafValues>
            -1.9377373158931732e-01 3.2715722918510437e-01</leafValues></_>
        <_>
          <internalNodes>
            0 -1 175 -227024909 -1414414 -49711 -176358864 662069606
            -877137960 1318976924 -819784359</internalNodes>
          <leafValues>
            -1.7614130675792694e-01 3.3146360516548157e-01</leafValues></_>
        <_>
          <internalNodes>
            0 -1 369 1859651668 1403651174 -464024872 143557515
            -891248518 -590383877 605840010 190503</internalNodes>
          <leafValues>
            -4.8345133662223816e-01 1.2394815683364868e-01</leafValues></_>
        <_>
          <internalNodes>
            0 -1 74 -420819085 -290830382 -26413343 -537618906
            -736133839 -296779967 1432168221 -704682657</internalNodes>
          <leafValues>
            -2.2463981807231903e-01 2.7414521574974060e-01</leafValues></_>
        <_>
          <internalNodes>
            0 -1 80 1529849619 -83695830 -1931743367 -2404672 1129272354
            -1147214646 1596945856 -536882160</internalNodes>
          <leafValues>
            -2.5275334715843201e-01 2.3694573342800140e-01</leafValues></_>
        <_>
          <internalNodes>
            0 -1 21 -808732001 -1516074051 -1376841802 -2131849588
            729068696 762066869 1398480610 1162036439</internalNodes>
          <leafValues>
            -2.4086238443851471e-01 2.7461537718772888e-01</leafValues></_>
        <_>
          <internalNodes>
            0 -1 38 -274741551 -42237063 788123199 -492690262 673718931
            -26528653 37127863 -987577654</internalNodes>
          <leafValues>
            -1.9420424103736877e-01 3.0365231633186340e-01</leafValues></_>
        <_>
          <internalNodes>
            0 -1 393 -969630942 -1215788396 -2087595437 999135946
            926397366 171284682 879206744 389002184</internalNodes>
          <leafValues>
            -2.8496217727661133e-01 2.2023507952690125e-01</leafValues></_>
        <_>
          <internalNodes>
            0 -1 193 274813440 2774034 398014423 683630303 118108244
            -1673856642 231430123 -75771921</internalNodes>
          <leafValues>
            -4.3644946813583374e-01 1.3861210644245148e-01</leafValues></_>
        <_>
          <internalNodes>
            0 -1 126 625557297 -1563797620 -1248723996 -556862508
            941416629 -202339920 -1220790319 -1894968016</internalNodes>
          <leafValues>
            -3.9386215806007385e-01 1.4885567128658295e-01</leafValues></_>
        <_>
          <internalNodes>
            0 -1 189 2101009020 745682469 571476534 -1113911027
            1060900400 1502293048 -1960891465 -526033</internalNodes>
          <leafValues>
            -2.9429107904434204e-01 2.1573579311370850e-01</leafValues></_>
        <_>
          <internalNodes>
            0 -1 236 -368645743 1893623924 -1937093291 254734700
            1770580640 -1681360387 1256102659 -888519507</internalNodes>
          <leafValues>
            -2.8150182962417603e-01 2.2812382876873016e-01</leafValues></_>
        <_>
          <internalNodes>
            0 -1 94 23146689 1574393765 37377383 298964839 -1307315773
            -782839674 236437383 7566999</internalNodes>
          <leafValues>
            -5.1392918825149536e-01 1.2871843576431274e-01</leafValues></_>
        <_>
          <internalNodes>
            0 -1 62 -824917440 -2094724733 -970782998 -1013505666
            1346981888 1885751617 -286282775 1701465082</internalNodes>
          <leafValues>
            -3.7225714325904846e-01 1.6821366548538208e-01</leafValues></_>
        <_>
          <internalNodes>
            0 -1 347 -465173492 1660833303 -41787427 2027703381
            -139579052 735653851 -632628365 184682769</internalNodes>
          <leafValues>
            -4.4453692436218262e-01 1.3107503950595856e-01</leafValues></_>
        <_>
          <internalNodes>
            0 -1 290 -1974854992 -154662666 357143373 -172382817
            -2021021349 -2111673892 -1112954373 -1147512582</internalNodes>
          <leafValues>
            -2.5168308615684509e-01 2.5393763184547424e-01</leafValues></_></weakClassifiers></_>
    <!-- stage 11 -->
    <_>
      <maxWeakCount>28</maxWeakCount>
      <stageThreshold>-1.6912490129470825e+00</stageThreshold>
      <weakClassifiers>
        <_>
          <internalNodes>
            0 -1 57 -421007409 -67155121 -975705123 1615194107
            -134778057 -97955763 -3146773 -10485857</internalNodes>
          <leafValues>
            -5.2027899026870728e-01 1.2400354258716106e-02</leafValues></_>
        <_>
          <internalNodes>
            0 -1 269 794106869 -1169218681 1774872603 -74660987
            1036664319 -394091902 -1146126387 -607271741</internalNodes>
          <leafValues>
            -4.9044841527938843e-01 9.7891964018344879e-02</leafValues></_>
        <_>
          <internalNodes>
            0 -1 23 -345505813 -902891650 -1359270190 -1901418782
            -413733967 50601157 1369412997 -704658249</internalNodes>
          <leafValues>
            -2.1176476776599884e-01 2.9770627617835999e-01</leafValues></_>
        <_>
          <internalNodes>
            0 -1 364 145758169 -1975763732 -109331457 -1611356496
            228267502 -1361093669 165417400 -1896082240</internalNodes>
          <leafValues>
            -4.2063641548156738e-01 1.4310616254806519e-01</leafValues></_>
        <_>
          <internalNodes>
            0 -1 337 -1716789630 -1666383128 -1111642724 -706339077
            917373301 -1778491399 259920117 -67136261</internalNodes>
          <leafValues>
            -2.1997849643230438e-01 2.6548540592193604e-01</leafValues></_>
        <_>
          <internalNodes>
            0 -1 138 -1033502207 -311266945 810255221 -755290445
            -144969984 -1686369188 -70346758 2076060399</internalNodes>
          <leafValues>
            -2.4584126472473145e-01 2.2659787535667419e-01</leafValues></_>
        <_>
          <internalNodes>
            0 -1 363 -1430325355 -140753036 700387711 -1564501956
            729164588 774625727 251608383 -1391083436</internalNodes>
          <leafValues>
            -2.5202143192291260e-01 2.2552753984928131e-01</leafValues></_>
        <_>
          <internalNodes>
            0 -1 11 1074192896 91497239 -47064739 -583484036 -1304906247
            -1355519478 -1989215238 1090990148</internalNodes>
          <leafValues>
            -3.1919285655021667e-01 1.8904979526996613e-01</leafValues></_>
        <_>
          <internalNodes>
            0 -1 244 -368951186 173153514 -1330499846 944962510
            -336461308 -215463207 -1380013174 -5774498</internalNodes>
          <leafValues>
            -3.0582487583160400e-01 1.9359104335308075e-01</leafValues></_>
        <_>
          <internalNodes>
            0 -1 180 -1003815435 -97081242 -872581641 -302066064
            -1380188364 -1369538732 1516553067 -899816173</internalNodes>
          <leafValues>
            -2.1815331280231476e-01 2.7708590030670166e-01</leafValues></_>
        <_>
          <internalNodes>
            0 -1 35 -604076559 -1778415717 -1359534317 1798834490
            -2106088302 -536916489 49793738 -940064598</internalNodes>
          <leafValues>
            -1.9125162065029144e-01 3.1963369250297546e-01</leafValues></_>
        <_>
          <internalNodes>
            0 -1 161 -117553579 1073679213 -1090519425 396508231
            2143286525 -1660977153 -1621135380 -273733817</internalNodes>
          <leafValues>
            -2.3081518709659576e-01 2.4542219936847687e-01</leafValues></_>
        <_>
          <internalNodes>
            0 -1 108 -414451166 1799476679 -778436830 -37701616
            118017955 1918930016 1732375511 -44637378</internalNodes>
          <leafValues>
            -2.4590435624122620e-01 2.2969329357147217e-01</leafValues></_>
        <_>
          <internalNodes>
            0 -1 298 -353410461 2055088937 -687865859 -68234123
            -1422030972 -1421971524 -805384308 -880245603</internalNodes>
          <leafValues>
            -2.2145037353038788e-01 2.6819857954978943e-01</leafValues></_>
        <_>
          <internalNodes>
            0 -1 353 11162161 -256202694 -1185617427 -42145588
            -1179002957 -269176835 875596172 -1079290407</internalNodes>
          <leafValues>
            -2.2758086025714874e-01 2.5769418478012085e-01</leafValues></_>
        <_>
          <internalNodes>
            0 -1 24 -1497202142 -472938496 -821624642 -1031763326
            560163377 990821122 -1436057375 1361199202</internalNodes>
          <leafValues>
            -4.0708899497985840e-01 1.4581641554832458e-01</leafValues></_>
        <_>
          <internalNodes>
            0 -1 397 -319909329 1550662030 -255656836 1423187567
            -1097745764 32932440 -153832884 -1341457445</internalNodes>
          <leafValues>
            -2.5909373164176941e-01 2.2719517350196838e-01</leafValues></_>
        <_>
          <internalNodes>
            0 -1 259 -1963389228 -63685427 -810703500 1863654111
            -1197789473 -1170256804 -1095385877 -1993665857</internalNodes>
          <leafValues>
            -2.1931168437004089e-01 2.8927424550056458e-01</leafValues></_>
        <_>
          <internalNodes>
            0 -1 60 -264120594 304397018 1963750214 358812366 1145062560
            -1652802944 2067352344 204792399</internalNodes>
          <leafValues>
            -3.1127721071243286e-01 1.8781837821006775e-01</leafValues></_>
        <_>
          <internalNodes>
            0 -1 83 -1141948413 2102330752 2064743958 -1225809768
            -1455338955 723746116 454760016 -135564864</internalNodes>
          <leafValues>
            -3.3249297738075256e-01 1.7727355659008026e-01</leafValues></_>
        <_>
          <internalNodes>
            0 -1 28 -178538539 -1385320613 1039941591 -2090365252
            1290059700 1198436150 1039758793 -952254234</internalNodes>
          <leafValues>
            -1.9935430586338043e-01 3.1482908129692078e-01</leafValues></_>
        <_>
          <internalNodes>
            0 -1 370 -85063636 1405749597 2030017567 1380261183
            -869633412 2138017648 -1492616238 -1425929433</internalNodes>
          <leafValues>
            -2.6240178942680359e-01 2.2184632718563080e-01</leafValues></_>
        <_>
          <internalNodes>
            0 -1 281 -566493703 1972675 81461334 263095503 505026032
            -912592136 721621152 -539003957</internalNodes>
          <leafValues>
            -2.3269638419151306e-01 2.5682336091995239e-01</leafValues></_>
        <_>
          <internalNodes>
            0 -1 303 47947782 376321814 -23986961 1983020913 196947132
            721368354 -303510388 78124168</internalNodes>
          <leafValues>
            -4.8384752869606018e-01 1.2431023269891739e-01</leafValues></_>
        <_>
          <internalNodes>
            0 -1 1 -359749982 -782785059 -1604914214 -1687875336
            1630003609 1599479300 -169871981 1471500482</internalNodes>
          <leafValues>
            -2.8559231758117676e-01 2.1894156932830811e-01</leafValues></_>
        <_>
          <internalNodes>
            0 -1 271 -1482808288 1787507719 415357909 -690540033
            701742981 -2032263492 -73943333 771169555</internalNodes>
          <leafValues>
            -3.4408476948738098e-01 1.8006755411624908e-01</leafValues></_>
        <_>
          <internalNodes>
            0 -1 200 -1497149473 1629631329 -322054987 421952850
            -1715472048 -1464817292 759010804 218781177</internalNodes>
          <leafValues>
            -2.9182893037796021e-01 2.0068450272083282e-01</leafValues></_>
        <_>
          <internalNodes>
            0 -1 131 -523279770 1884345095 -231587984 -104736133
            1936130112 2001277550 2137982929 -278172641</internalNodes>
          <leafValues>
            -4.2958545684814453e-01 1.4390906691551208e-01</leafValues></_></weakClassifiers></_>
    <!-- stage 12 -->
    <_>
      <maxWeakCount>30</maxWeakCount>
      <stageThreshold>-1.6839363574981689e+00</stageThreshold>
      <weakClassifiers>
        <_>
          <internalNodes>
            0 -1 4 -299178770 -2132481 2144859869 -575988769 -1011111429
            -1050177 -1281360901 -535213</internalNodes>
          <leafValues>
            -5.3776133060455322e-01 -7.3762208223342896e-02</leafValues></_>
        <_>
          <internalNodes>
            0 -1 218 473504117 180779711 -1177206913 924614429
            1055791320 -427265 -1096385545 -385539</internalNodes>
          <leafValues>
            -3.2643908262252808e-01 1.7134875059127808e-01</leafValues></_>
        <_>
          <internalNodes>
            0 -1 227 -123666543 -140885948 -582240779 -8366091
            -1249788448 -84228168 -347029512 4347221</internalNodes>
          <leafValues>
            -4.6647527813911438e-01 1.1515440791845322e-01</leafValues></_>
        <_>
          <internalNodes>
            0 -1 3 -1404393238 -145579793 541098202 1340834946 612599250
            -1560119213 2141443698 1663295603</internalNodes>
          <leafValues>
            -2.1571417152881622e-01 2.5957673788070679e-01</leafValues></_>
        <_>
          <internalNodes>
            0 -1 102 -1104412879 -268697688 -677906727 -86588332
            305131749 -834041160 19362293 -141617804</internalNodes>
          <leafValues>
            -2.9369613528251648e-01 1.9250838458538055e-01</leafValues></_>
        <_>
          <internalNodes>
            0 -1 391 -796769263 -735638402 -267060001 2017591966
            -358688066 -549256432 -84221838 -1441648753</internalNodes>
          <leafValues>
            -2.5741657614707947e-01 2.1727177500724792e-01</leafValues></_>
        <_>
          <internalNodes>
            0 -1 63 -454107030 -714675037 2079276495 1908281070
            1969715020 1360019001 -284181202 -204495702</internalNodes>
          <leafValues>
            -2.1787421405315399e-01 2.5348934531211853e-01</leafValues></_>
        <_>
          <internalNodes>
            0 -1 246 2118773 1066811380 889399578 667365452 321402932
            -1094767736 -1154086805 -85311793</internalNodes>
          <leafValues>
            -4.5308718085289001e-01 1.2325771152973175e-01</leafValues></_>
        <_>
          <internalNodes>
            0 -1 333 1745405953 -96148349 1908719792 2146719325
            -166402359 -1099939183 681372296 597798655</internalNodes>
          <leafValues>
            -3.3563491702079773e-01 1.6975262761116028e-01</leafValues></_>
        <_>
          <internalNodes>
            0 -1 375 -537927754 -676399518 -1694523276 305860824
            243209575 234110975 1190450584 -1057030661</internalNodes>
          <leafValues>
            -2.0296508073806763e-01 2.7179864048957825e-01</leafValues></_>
        <_>
          <internalNodes>
            0 -1 48 -335565753 -624254296 2024737856 -228495162
            1087579416 156172818 1430603146 -3150138</internalNodes>
          <leafValues>
            -2.4079337716102600e-01 2.3425869643688202e-01</leafValues></_>
        <_>
          <internalNodes>
            0 -1 279 2079576250 1003649755 252265074 2130670330
            924193456 1440374796 2119006900 -35437845</internalNodes>
          <leafValues>
            -2.8286284208297729e-01 2.0182323455810547e-01</leafValues></_>
        <_>
          <internalNodes>
            0 -1 249 -88091725 -669106506 1811919355 -1430258000
            -1411400196 -1983742599 1040150681 -1442873349</internalNodes>
          <leafValues>
            -1.4425413310527802e-01 3.8872334361076355e-01</leafValues></_>
        <_>
          <internalNodes>
            0 -1 339 842693235 716864696 1677161264 1494053568 631224812
            -1879415155 265486940 -1379973963</internalNodes>
          <leafValues>
            -3.1588736176490784e-01 1.7048458755016327e-01</leafValues></_>
        <_>
          <internalNodes>
            0 -1 174 -1407553743 -1047782144 -151519395 -479363
            559789936 -372449413 263641341 -1879110293</internalNodes>
          <leafValues>
            -2.1752263605594635e-01 2.5991219282150269e-01</leafValues></_>
        <_>
          <internalNodes>
            0 -1 348 -486595801 1164930927 -16818371 -646074633
            -272162904 -279184044 -270340186 -341660406</internalNodes>
          <leafValues>
            -1.9183301925659180e-01 2.9364988207817078e-01</leafValues></_>
        <_>
          <internalNodes>
            0 -1 292 -690821449 -1259057590 -576766011 792202743
            -50742180 -356320129 -298193093 -1952733353</internalNodes>
          <leafValues>
            -1.6862867772579193e-01 3.3710268139839172e-01</leafValues></_>
        <_>
          <internalNodes>
            0 -1 387 -285569825 1499360959 2122207084 -84108625
            -146819060 -136860034 -356729448 -1690637638</internalNodes>
          <leafValues>
            -1.9969888031482697e-01 2.7906268835067749e-01</leafValues></_>
        <_>
          <internalNodes>
            0 -1 85 -907491753 -626436489 -1427178497 782712495 -4548138
            -176261299 1878416717 -13370180</internalNodes>
          <leafValues>
            -1.8865571916103363e-01 2.9987186193466187e-01</leafValues></_>
        <_>
          <internalNodes>
            0 -1 343 178936413 243593594 -41981969 113201838 972726197
            -1481983173 -2102961747 -1342180950</internalNodes>
          <leafValues>
            -2.8336292505264282e-01 2.0747832953929901e-01</leafValues></_>
        <_>
          <internalNodes>
            0 -1 111 -497590297 954074964 -117777766 2040142791
            1485413856 728651627 1939042743 2002623471</internalNodes>
          <leafValues>
            -2.5654309988021851e-01 2.2970952093601227e-01</leafValues></_>
        <_>
          <internalNodes>
            0 -1 346 540021112 -862445496 -94684448 -1436452568
            -340526860 -1355122006 1007277080 136322056</internalNodes>
          <leafValues>
            -4.7049239277839661e-01 1.2800471484661102e-01</leafValues></_>
        <_>
          <internalNodes>
            0 -1 41 -900224073 -1888702594 -268472711 1948715626
            -1037201921 -901300752 -947935788 -550111265</internalNodes>
          <leafValues>
            -1.9206728041172028e-01 3.1990852952003479e-01</leafValues></_>
        <_>
          <internalNodes>
            0 -1 178 1141014327 -1398770096 -915452586 -1157908
            -371435151 -1161971440 -1793977959 -1724890755</internalNodes>
          <leafValues>
            -2.9199483990669250e-01 2.0674890279769897e-01</leafValues></_>
        <_>
          <internalNodes>
            0 -1 45 -214974678 1901116672 2131873256 -1315915255
            779062216 -393692664 1087325900 -13870545</internalNodes>
          <leafValues>
            -2.4819336831569672e-01 2.2992527484893799e-01</leafValues></_>
        <_>
          <internalNodes>
            0 -1 395 -553649773 -203653126 -294339406 1882090166
            -4917693 -899123210 -271338310 -139202561</internalNodes>
          <leafValues>
            -1.5353305637836456e-01 3.9704710245132446e-01</leafValues></_>
        <_>
          <internalNodes>
            0 -1 0 2004263818 -117457269 1407180465 372251134 -412285190
            -1817398681 -1558645582 1937576803</internalNodes>
          <leafValues>
            -2.5787216424942017e-01 2.3175655305385590e-01</leafValues></_>
        <_>
          <internalNodes>
            0 -1 117 707076673 -243379714 -732245537 1077891446
            -647685304 -774426785 2129718197 -350734834</internalNodes>
          <leafValues>
            -3.2294380664825439e-01 1.7660175263881683e-01</leafValues></_>
        <_>
          <internalNodes>
            0 -1 295 -1464719579 -1304512161 -566803971 -604431051
            -2013347032 -1899324477 -893744197 -1356132963</internalNodes>
          <leafValues>
            -2.1841326355934143e-01 2.7019691467285156e-01</leafValues></_>
        <_>
          <internalNodes>
            0 -1 237 -149005629 987267285 990840671 687626208 -456234784
            -828452959 -681402566 -904333537</internalNodes>
          <leafValues>
            -2.3819144070148468e-01 2.5382825732231140e-01</leafValues></_></weakClassifiers></_>
    <!-- stage 13 -->
    <_>
      <maxWeakCount>31</maxWeakCount>
      <stageThreshold>-1.6683784723281860e+00</stageThreshold>
      <weakClassifiers>
        <_>
          <internalNodes>
            0 -1 39 -67375373 -539234310 -1082455173 -875986390
            -347869445 -310645949 -406879537 -134233350</internalNodes>
          <leafValues>
            -4.9737325310707092e-01 3.9118457585573196e-02</leafValues></_>
        <_>
          <internalNodes>
            0 -1 328 135285777 522724282 2136626429 1030019572
            -1615922727 -878138915 533601436 525992440</internalNodes>
          <leafValues>
            -3.6047613620758057e-01 1.3561403751373291e-01</leafValues></_>
        <_>
          <internalNodes>
            0 -1 127 -1120202255 -295246896 -1613064455 -1308336
            -1416970767 -1345807954 105468113 -537128879</internalNodes>
          <leafValues>
            -3.0589082837104797e-01 1.7653712630271912e-01</leafValues></_>
        <_>
          <internalNodes>
            0 -1 37 1269804835 -269568850 -426006492 -689921376
            1110948900 1279613826 592924914 -673713193</internalNodes>
          <leafValues>
            -2.6882642507553101e-01 1.9960948824882507e-01</leafValues></_>
        <_>
          <internalNodes>
            0 -1 252 -83625701 -620063240 268389679 498810207 1043726331
            -1349517523 2146919787 -288370716</internalNodes>
          <leafValues>
            -1.4049774408340454e-01 3.4905004501342773e-01</leafValues></_>
        <_>
          <internalNodes>
            0 -1 274 1263478914 145722927 -823701794 465288351 677687173
            493751966 -595558259 976858238</internalNodes>
          <leafValues>
            -4.6598517894744873e-01 1.2676085531711578e-01</leafValues></_>
        <_>
          <internalNodes>
            0 -1 59 -286858514 2009852811 1854926511 -263609217
            1901527312 1044266797 -136330273 -412094742</internalNodes>
          <leafValues>
            -1.9003467261791229e-01 2.8336921334266663e-01</leafValues></_>
        <_>
          <internalNodes>
            0 -1 248 -616571657 -763423049 1874468469 1035545599
            -1965829900 -115399 804923642 -1083212707</internalNodes>
          <leafValues>
            -1.4186798036098480e-01 3.7624984979629517e-01</leafValues></_>
        <_>
          <internalNodes>
            0 -1 205 1512574512 1845836515 1098955633 -478090423
            1049177343 2014077350 1033311723 1070021643</internalNodes>
          <leafValues>
            -5.9258091449737549e-01 1.0109010338783264e-01</leafValues></_>
        <_>
          <internalNodes>
            0 -1 220 270030193 -826658953 -537691394 -552268165
            -1905001036 -1367720074 -1627787553 -844446198</internalNodes>
          <leafValues>
            -2.0756566524505615e-01 2.6185074448585510e-01</leafValues></_>
        <_>
          <internalNodes>
            0 -1 91 1178083328 -789887232 21760990 -788855290 2130932304
            2069579859 860731901 1395604111</internalNodes>
          <leafValues>
            -3.2680952548980713e-01 1.6111975908279419e-01</leafValues></_>
        <_>
          <internalNodes>
            0 -1 403 -1591040478 753577484 -934561517 -72925412 69448741
            123527175 1041665 -1887442275</internalNodes>
          <leafValues>
            -3.0733969807624817e-01 1.6952937841415405e-01</leafValues></_>
        <_>
          <internalNodes>
            0 -1 70 -743272047 -339569426 -13637637 -567015390
            -335499614 -847784216 413179641 -351382437</internalNodes>
          <leafValues>
            -2.0591558516025543e-01 2.5611969828605652e-01</leafValues></_>
        <_>
          <internalNodes>
            0 -1 118 -858144531 -237172985 -554737667 -206348313
            -8534620 -1334198433 -67244305 -2310193</internalNodes>
          <leafValues>
            -1.4558975398540497e-01 3.7449455261230469e-01</leafValues></_>
        <_>
          <internalNodes>
            0 -1 20 -238027093 -184827906 209495666 -408121690
            1408759479 -430446729 -780732526 -137390377</internalNodes>
          <leafValues>
            -1.6773438453674316e-01 3.1633949279785156e-01</leafValues></_>
        <_>
          <internalNodes>
            0 -1 266 -63944491 480049313 -1635581985 602199509
            2060578512 1873382945 -1120736294 -1962875563</internalNodes>
          <leafValues>
            -2.4214200675487518e-01 2.2679509222507477e-01</leafValues></_>
        <_>
          <internalNodes>
            0 -1 188 -293671217 184186879 -1074110532 -1289064969
            -831019078 -1476427905 -1543583754 -1252354574</internalNodes>
          <leafValues>
            -1.7790138721466064e-01 3.1060579419136047e-01</leafValues></_>
        <_>
          <internalNodes>
            0 -1 324 79320497 -861004176 496858484 712796924 689885640
            -1409576779 737411969 -822316812</internalNodes>
          <leafValues>
            -3.2299706339836121e-01 1.6462993621826172e-01</leafValues></_>
        <_>
          <internalNodes>
            0 -1 340 -40945903 -970767264 -1887202543 -631367922
            -1459670599 137096127 161100601 -1344291812</internalNodes>
          <leafValues>
            -2.3140372335910797e-01 2.3679846525192261e-01</leafValues></_>
        <_>
          <internalNodes>
            0 -1 135 -1977876479 -85039109 831398595 983053079
            -1832107968 -1220549097 -141001018 -1414081</internalNodes>
          <leafValues>
            -3.2857894897460938e-01 1.5992450714111328e-01</leafValues></_>
        <_>
          <internalNodes>
            0 -1 331 -2077352201 2130078310 -830210117 250356405
            -1753271811 -621254123 -1024381110 -921499275</internalNodes>
          <leafValues>
            -2.3294271528720856e-01 2.3129208385944366e-01</leafValues></_>
        <_>
          <internalNodes>
            0 -1 358 1137696806 1465828526 -330052034 306028273
            830736612 2030516511 -1105273123 -125769089</internalNodes>
          <leafValues>
            -2.5281980633735657e-01 2.1782550215721130e-01</leafValues></_>
        <_>
          <internalNodes>
            0 -1 67 1080156934 -1154537985 1829631609 -313031874
            -1828537403 265226819 -1300571154 106561572</internalNodes>
          <leafValues>
            -3.0317723751068115e-01 1.8602557480335236e-01</leafValues></_>
        <_>
          <internalNodes>
            0 -1 201 -815393163 -1699340948 1861517309 1608056176
            -1147498831 -1395671939 -1116060781 -912581417</internalNodes>
          <leafValues>
            -2.0628336071968079e-01 2.7105984091758728e-01</leafValues></_>
        <_>
          <internalNodes>
            0 -1 9 -2098540878 1408496567 -2125035266 -712204581
            -1037043787 -605087421 1000057823 -1749089167</internalNodes>
          <leafValues>
            -2.3208245635032654e-01 2.3584462702274323e-01</leafValues></_>
        <_>
          <internalNodes>
            0 -1 365 1914893058 269281866 -24707394 2005890396 816518935
            -1257531216 -1421715526 2113884557</internalNodes>
          <leafValues>
            -2.6390156149864197e-01 2.1330554783344269e-01</leafValues></_>
        <_>
          <internalNodes>
            0 -1 31 -1071722685 -933441406 1449497692 -976428412
            -1290089061 1116128369 -220895337 -737704508</internalNodes>
          <leafValues>
            -2.6931378245353699e-01 2.1498522162437439e-01</leafValues></_>
        <_>
          <internalNodes>
            0 -1 245 -1435349924 2071212187 577122028 447887442
            -1079375724 -794685437 -1574262614 -1150049829</internalNodes>
          <leafValues>
            -3.2344925403594971e-01 1.6973534226417542e-01</leafValues></_>
        <_>
          <internalNodes>
            0 -1 293 -454573492 -1864600426 336597779 1549030863
            755412888 -612359478 -1730893874 42077517</internalNodes>
          <leafValues>
            -5.1903885602951050e-01 1.1036761105060577e-01</leafValues></_>
        <_>
          <internalNodes>
            0 -1 69 2062708471 -174301184 -1361182457 532571300
            1270541299 1072050340 525859705 1702821946</internalNodes>
          <leafValues>
            -2.2887077927589417e-01 2.5682842731475830e-01</leafValues></_>
        <_>
          <internalNodes>
            0 -1 186 -434243806 -238345725 -192623694 -53085829
            923714106 -1007162690 129116123 1912407828</internalNodes>
          <leafValues>
            -3.3219215273857117e-01 1.6711907088756561e-01</leafValues></_></weakClassifiers></_>
    <!-- stage 14 -->
    <_>
      <maxWeakCount>33</maxWeakCount>
      <stageThreshold>-1.7752034664154053e+00</stageThreshold>
      <weakClassifiers>
        <_>
          <internalNodes>
            0 -1 65 1431757173 -536878345 -41027617 -131073 -5242885
            -1141208853 1069530063 -271596179</internalNodes>
          <leafValues>
            -4.9849474430084229e-01 -1.2820512987673283e-02</leafValues></_>
        <_>
          <internalNodes>
            0 -1 282 -1398877711 -236695300 -1944511745 870080501
            -1099232304 -873959399 -1359573574 -1363465798</internalNodes>
          <leafValues>
            -2.4693438410758972e-01 1.9821196794509888e-01</leafValues></_>
        <_>
          <internalNodes>
            0 -1 351 -909117150 -2040094162 568238304 9934930 718954994
            265253055 -2025209389 1475541471</internalNodes>
          <leafValues>
            -3.7448373436927795e-01 1.3375897705554962e-01</leafValues></_>
        <_>
          <internalNodes>
            0 -1 195 -364978827 1596772044 1051967295 1471904750
            -1885580916 -894468097 778776959 -1376030885</internalNodes>
          <leafValues>
            -1.4258816838264465e-01 3.0441179871559143e-01</leafValues></_>
        <_>
          <internalNodes>
            0 -1 100 1057494929 -1970906736 718568304 -1722128 674952118
            -1898542624 4455157 -579055339</internalNodes>
          <leafValues>
            -3.4011414647102356e-01 1.3123619556427002e-01</leafValues></_>
        <_>
          <internalNodes>
            0 -1 121 -128984536 -212465618 1636629444 755752750
            438976640 4733489 1003493101 2137201931</internalNodes>
          <leafValues>
            -2.6475271582603455e-01 1.8926769495010376e-01</leafValues></_>
        <_>
          <internalNodes>
            0 -1 234 917730487 510813258 1222604285 -878399008
            -1598841801 -1139540539 1996259950 -881728137</internalNodes>
          <leafValues>
            -1.8592928349971771e-01 2.6914206147193909e-01</leafValues></_>
        <_>
          <internalNodes>
            0 -1 291 1079832946 -79762979 1473527484 1865563955
            -280953121 -1399043042 -480784421 -2144205778</internalNodes>
          <leafValues>
            -2.2780340909957886e-01 2.2283028066158295e-01</leafValues></_>
        <_>
          <internalNodes>
            0 -1 224 -29819435 -20655288 -1584741411 1589924709
            -97747008 -1617474833 -1148178597 -1667363042</internalNodes>
          <leafValues>
            -2.2930544614791870e-01 2.1702754497528076e-01</leafValues></_>
        <_>
          <internalNodes>
            0 -1 56 -492838141 -334821815 -2071131042 1355474914
            -1056819888 -247107024 2012718059 -216275161</internalNodes>
          <leafValues>
            -2.4251295626163483e-01 2.0294073224067688e-01</leafValues></_>
        <_>
          <internalNodes>
            0 -1 361 -1896173136 -1081206540 423730332 -344522596
            635248660 693281281 23284212 -813961995</internalNodes>
          <leafValues>
            -2.7963256835937500e-01 1.7833371460437775e-01</leafValues></_>
        <_>
          <internalNodes>
            0 -1 122 -1624318956 -2080022700 1344162885 -1111698683
            1879632677 -125734432 -1341931738 -1988160510</internalNodes>
          <leafValues>
            -3.1730121374130249e-01 1.5697284042835236e-01</leafValues></_>
        <_>
          <internalNodes>
            0 -1 323 1282401834 40119969 -1134964071 270792550
            -490239831 1814699908 -598478936 704646568</internalNodes>
          <leafValues>
            -4.5015913248062134e-01 1.0511639714241028e-01</leafValues></_>
        <_>
          <internalNodes>
            0 -1 404 706781698 18294 -1516151280 -753618904 -1862822974
            243712800 -2021137657 1129222365</internalNodes>
          <leafValues>
            -3.7906721234321594e-01 1.2690936028957367e-01</leafValues></_>
        <_>
          <internalNodes>
            0 -1 379 -164120775 -248894822 -1612740067 -1073746786
            -2022982698 -428343301 -1939866321 -1629496341</internalNodes>
          <leafValues>
            -1.5616828203201294e-01 3.4551504254341125e-01</leafValues></_>
        <_>
          <internalNodes>
            0 -1 263 -1440566415 -25273730 -1375994119 -3150085
            -1075253744 -20275374 1589157403 -1885666945</internalNodes>
          <leafValues>
            -1.3291646540164948e-01 3.5258826613426208e-01</leafValues></_>
        <_>
          <internalNodes>
            0 -1 309 136385621 -1903426436 -1520583523 770191894
            -1362560908 -1968315349 1744764511 -1610958577</internalNodes>
          <leafValues>
            -2.9959774017333984e-01 1.6986155509948730e-01</leafValues></_>
        <_>
          <internalNodes>
            0 -1 158 -71640361 1069157965 451435933 -45067 -18709352
            -1614807041 -1342853761 -537198595</internalNodes>
          <leafValues>
            -1.3595138490200043e-01 4.0450534224510193e-01</leafValues></_>
        <_>
          <internalNodes>
            0 -1 0 -299851712 -1285259222 1988319641 1483185399
            -759315718 -1799757371 -1213558429 1716999506</internalNodes>
          <leafValues>
            -3.2095617055892944e-01 1.6813915967941284e-01</leafValues></_>
        <_>
          <internalNodes>
            0 -1 34 65453831 -1309692388 -293809093 -22149096 1022881092
            -1394297236 1718437837 -973157302</internalNodes>
          <leafValues>
            -2.0305941998958588e-01 2.5354868173599243e-01</leafValues></_>
        <_>
          <internalNodes>
            0 -1 107 -88347922 317469322 1359763762 2044384729 262966667
            86934252 1398756275 2109986711</internalNodes>
          <leafValues>
            -2.5860053300857544e-01 1.9466292858123779e-01</leafValues></_>
        <_>
          <internalNodes>
            0 -1 125 490810754 -1811792397 -1069536749 -536333286
            1560820527 2017523675 1032630243 2053836462</internalNodes>
          <leafValues>
            -4.3224966526031494e-01 1.2933398783206940e-01</leafValues></_>
        <_>
          <internalNodes>
            0 -1 388 1291324668 2103208592 -1275063459 341326994
            -137060711 785807928 -1347770130 -1106591822</internalNodes>
          <leafValues>
            -2.9549047350883484e-01 1.8029971420764923e-01</leafValues></_>
        <_>
          <internalNodes>
            0 -1 257 73430993 -1372445634 -63439455 1600582324
            -1440146568 -360511468 -1953674428 -1722331663</internalNodes>
          <leafValues>
            -2.8450965881347656e-01 1.7864179611206055e-01</leafValues></_>
        <_>
          <internalNodes>
            0 -1 306 -99024943 -762563142 901735247 207839132 2143123444
            -12648453 2013228495 -3277618</internalNodes>
          <leafValues>
            -1.6078273952007294e-01 3.3855539560317993e-01</leafValues></_>
        <_>
          <internalNodes>
            0 -1 167 106894663 -1376959114 1211004893 1651648880
            -907065340 1340864556 -362080141 -810845912</internalNodes>
          <leafValues>
            -3.1399035453796387e-01 1.7407912015914917e-01</leafValues></_>
        <_>
          <internalNodes>
            0 -1 66 1343457139 -612454871 2130181933 2137259764
            -134812695 -1904391132 2139095034 -1623206084</internalNodes>
          <leafValues>
            -1.6150054335594177e-01 3.4937751293182373e-01</leafValues></_>
        <_>
          <internalNodes>
            0 -1 384 -145833802 -637596515 -33025 -751358733 -1225264076
            -831095212 -289638971 -475357217</internalNodes>
          <leafValues>
            -1.4983919262886047e-01 3.3324089646339417e-01</leafValues></_>
        <_>
          <internalNodes>
            0 -1 92 -341734809 1892420585 -1195461121 -265076865
            -134227989 2101245947 1065168618 -684053107</internalNodes>
          <leafValues>
            -1.9306728243827820e-01 2.7730926871299744e-01</leafValues></_>
        <_>
          <internalNodes>
            0 -1 320 -37770435 -159470739 -3 1409120189 -889217256
            1515089068 1811604447 -73689847</internalNodes>
          <leafValues>
            -1.4269168674945831e-01 3.9451420307159424e-01</leafValues></_>
        <_>
          <internalNodes>
            0 -1 170 1517487511 -1904334545 2143240191 1439779238
            -1497690728 1593556735 1073512382 -344237606</internalNodes>
          <leafValues>
            -2.0889425277709961e-01 2.6291802525520325e-01</leafValues></_>
        <_>
          <internalNodes>
            0 -1 25 -75856366 -1023031750 855983624 560797851 398885097
            -1198813654 127992018 49400826</internalNodes>
          <leafValues>
            -2.4056048691272736e-01 2.2972144186496735e-01</leafValues></_>
        <_>
          <internalNodes>
            0 -1 354 1117577248 -191456293 2105290584 1533471464
            1818221624 -1502461763 703907676 -2012738382</internalNodes>
          <leafValues>
            -3.1570145487785339e-01 1.6843149065971375e-01</leafValues></_></weakClassifiers></_>
    <!-- stage 15 -->
    <_>
      <maxWeakCount>33</maxWeakCount>
      <stageThreshold>-1.6519445180892944e+00</stageThreshold>
      <weakClassifiers>
        <_>
          <internalNodes>
            0 -1 203 -565004911 -168504355 -614738371 -536946691
            -618607623 -1966413429 -1398035557 -1899031055</internalNodes>
          <leafValues>
            -5.6905275583267212e-01 -1.9068934023380280e-01</leafValues></_>
        <_>
          <internalNodes>
            0 -1 52 -891321305 -915741958 -489936264 -793326870
            523714576 170510376 -472988978 -135008561</internalNodes>
          <leafValues>
            -2.8530183434486389e-01 1.6085430979728699e-01</leafValues></_>
        <_>
          <internalNodes>
            0 -1 253 137436277 717753806 536303103 777049055 -1631956748
            -872687175 2089890405 -1639299250</internalNodes>
          <leafValues>
            -3.2975560426712036e-01 1.4503231644630432e-01</leafValues></_>
        <_>
          <internalNodes>
            0 -1 215 -776219757 -761111752 -704711683 419233277
            -1686382639 -1901633703 352269681 -539230337</internalNodes>
          <leafValues>
            -1.2038751691579819e-01 3.7433260679244995e-01</leafValues></_>
        <_>
          <internalNodes>
            0 -1 8 -2077849902 1404469238 -370049 -176134 -2049266243
            -545273114 1237317599 -269003515</internalNodes>
          <leafValues>
            -1.9260784983634949e-01 2.5742816925048828e-01</leafValues></_>
        <_>
          <internalNodes>
            0 -1 202 1910606269 157877239 -670187478 2072433929
            989858553 1781428425 536880065 1392792049</internalNodes>
          <leafValues>
            -3.5810604691505432e-01 1.4307886362075806e-01</leafValues></_>
        <_>
          <internalNodes>
            0 -1 129 707302704 1984564716 2082429659 2138195284
            -1425115758 -1022373828 1096291523 1565086996</internalNodes>
          <leafValues>
            -3.8692528009414673e-01 1.4365801215171814e-01</leafValues></_>
        <_>
          <internalNodes>
            0 -1 377 -895318778 1763344445 579481825 1938470660
            327298580 441124038 2076948479 -408428579</internalNodes>
          <leafValues>
            -2.4167330563068390e-01 2.1084158122539520e-01</leafValues></_>
        <_>
          <internalNodes>
            0 -1 14 -403188821 -273761346 1825158910 -1414651154
            -212484108 1215610869 1960306065 1433909187</internalNodes>
          <leafValues>
            -2.0551010966300964e-01 2.5525152683258057e-01</leafValues></_>
        <_>
          <internalNodes>
            0 -1 143 640825187 -1599859712 -38660618 -208394375
            715682112 162510008 1029705141 -1926233035</internalNodes>
          <leafValues>
            -3.6638271808624268e-01 1.3374243676662445e-01</leafValues></_>
        <_>
          <internalNodes>
            0 -1 334 -1961237248 472793711 1594021976 -1156690373
            814961441 679727116 -274476645 -14702337</internalNodes>
          <leafValues>
            -2.2934468090534210e-01 2.1948643028736115e-01</leafValues></_>
        <_>
          <internalNodes>
            0 -1 258 -1066243329 -1057325897 -672370986 927492786
            1282378756 -1359303620 -719429126 -885301969</internalNodes>
          <leafValues>
            -1.8312673270702362e-01 2.7391168475151062e-01</leafValues></_>
        <_>
          <internalNodes>
            0 -1 368 675286748 1022376335 -2135021093 1558975604
            -50415520 -1145321840 -393701472 976235144</internalNodes>
          <leafValues>
            -4.7412902116775513e-01 1.0457698255777359e-01</leafValues></_>
        <_>
          <internalNodes>
            0 -1 76 -139492589 -139019624 -16815309 -6714822 -1628774469
            -1363634316 -826300785 -537953957</internalNodes>
          <leafValues>
            -1.3936607539653778e-01 3.7658426165580750e-01</leafValues></_>
        <_>
          <internalNodes>
            0 -1 64 -900995570 -764508659 -1608385796 1179616206
            1393976444 1968840728 -113537077 638061211</internalNodes>
          <leafValues>
            -3.3526796102523804e-01 1.4622399210929871e-01</leafValues></_>
        <_>
          <internalNodes>
            0 -1 244 -75510530 1652194926 -1304794324 987933695
            -285750644 -160006283 -471154997 -14166019</internalNodes>
          <leafValues>
            -1.3125289976596832e-01 3.6864379048347473e-01</leafValues></_>
        <_>
          <internalNodes>
            0 -1 134 378545750 838876402 64110030 -358225335 182457684
            -886900645 998854495 -1132278</internalNodes>
          <leafValues>
            -3.4722748398780823e-01 1.4318405091762543e-01</leafValues></_>
        <_>
          <internalNodes>
            0 -1 191 -218112171 -1140979944 -1078035204 -1359013122
            -944434083 -1891696641 -1402257421 -1213091975</internalNodes>
          <leafValues>
            -1.7034117877483368e-01 3.0188098549842834e-01</leafValues></_>
        <_>
          <internalNodes>
            0 -1 385 69214259 -1241402570 372626207 1036295068 437755814
            -482688955 455861142 508277916</internalNodes>
          <leafValues>
            -3.4535944461822510e-01 1.4435902237892151e-01</leafValues></_>
        <_>
          <internalNodes>
            0 -1 400 -387254499 -1469914062 -1092648963 1516345267
            -805503041 -1103102372 -1426541710 -886050742</internalNodes>
          <leafValues>
            -1.6364116966724396e-01 3.2001167535781860e-01</leafValues></_>
        <_>
          <internalNodes>
            0 -1 179 -1510515535 -18719511 -1342253145 -3220370
            -1103390736 -1141981249 -2032894087 -586464131</internalNodes>
          <leafValues>
            -1.9947826862335205e-01 2.5753805041313171e-01</leafValues></_>
        <_>
          <internalNodes>
            0 -1 280 -622362485 443183779 1776460990 596499678 554681297
            48759034 1120545967 -158364980</internalNodes>
          <leafValues>
            -2.6813387870788574e-01 1.9441954791545868e-01</leafValues></_>
        <_>
          <internalNodes>
            0 -1 304 -541068815 -331208670 -1678021836 234514878
            -1631612740 -34162697 523699899 -805306881</internalNodes>
          <leafValues>
            -1.5352098643779755e-01 3.4893363714218140e-01</leafValues></_>
        <_>
          <internalNodes>
            0 -1 88 -856104333 1342074870 2012966911 425148149 -73425736
            -1343389699 -24611011 -1083605955</internalNodes>
          <leafValues>
            -1.7114922404289246e-01 2.9955574870109558e-01</leafValues></_>
        <_>
          <internalNodes>
            0 -1 57 -216726460 1433683748 -1952774295 1611243910
            1901684340 143132931 -87223380 1732763795</internalNodes>
          <leafValues>
            -2.9848337173461914e-01 1.8270932137966156e-01</leafValues></_>
        <_>
          <internalNodes>
            0 -1 373 -51395465 -541448641 796621054 2032779070 50030476
            -872677385 -461529222 841154398</internalNodes>
          <leafValues>
            -1.9758912920951843e-01 2.7553743124008179e-01</leafValues></_>
        <_>
          <internalNodes>
            0 -1 123 -1390333167 -88656 365472241 1978710754 -1685345052
            -1399216945 333387504 -545306276</internalNodes>
          <leafValues>
            -2.4104171991348267e-01 2.1809937059879303e-01</leafValues></_>
        <_>
          <internalNodes>
            0 -1 36 -1034630032 -1521957126 701890841 1614353178
            2062001277 -350244352 214795719 1106299610</internalNodes>
          <leafValues>
            -2.6296612620353699e-01 2.0745298266410828e-01</leafValues></_>
        <_>
          <internalNodes>
            0 -1 397 -857841074 1280095990 205969566 275657582
            -114513400 -1813108720 -536696184 673251295</internalNodes>
          <leafValues>
            -3.4632331132888794e-01 1.5257635712623596e-01</leafValues></_>
        <_>
          <internalNodes>
            0 -1 270 1319291805 1593456487 -335567745 -691322967
            -340013440 -137396313 -547693173 -81014391</internalNodes>
          <leafValues>
            -1.5943108499050140e-01 3.4488815069198608e-01</leafValues></_>
        <_>
          <internalNodes>
            0 -1 95 -1198215689 -1511637088 -17027501 796190645
            1353039331 2079752164 -40355852 -1071684133</internalNodes>
          <leafValues>
            -2.1888372302055359e-01 2.5292119383811951e-01</leafValues></_>
        <_>
          <internalNodes>
            0 -1 81 1768105474 2136315521 -2062613216 -1248791488
            1281304322 1617703240 1118307725 2108193550</internalNodes>
          <leafValues>
            -5.3603827953338623e-01 9.4964168965816498e-02</leafValues></_>
        <_>
          <internalNodes>
            0 -1 255 1461915731 716080117 -1758938721 238557917
            -1367997796 -2465702 -408403478 -81252769</internalNodes>
          <leafValues>
            -2.4594485759735107e-01 2.2422288358211517e-01</leafValues></_></weakClassifiers></_>
    <!-- stage 16 -->
    <_>
      <maxWeakCount>33</maxWeakCount>
      <stageThreshold>-1.6666823625564575e+00</stageThreshold>
      <weakClassifiers>
        <_>
          <internalNodes>
            0 -1 53 -487068833 -40467 1219988471 1623689790 1466432283
            -610942429 1992817555 -448272437</internalNodes>
          <leafValues>
            -5.0465840101242065e-01 -4.4014085084199905e-02</leafValues></_>
        <_>
          <internalNodes>
            0 -1 71 -116470849 -7482541 -1390328807 -22937834 -597126446
            -173089038 1560404647 -851092457</internalNodes>
          <leafValues>
            -2.7801319956779480e-01 1.7427094280719757e-01</leafValues></_>
        <_>
          <internalNodes>
            0 -1 199 16496 -537241458 457964147 1604211837 -1087653635
            -1352118887 800964539 -1961227160</internalNodes>
          <leafValues>
            -2.5402382016181946e-01 1.8313942849636078e-01</leafValues></_>
        <_>
          <internalNodes>
            0 -1 338 -1617380936 -1467087856 320696080 -544667184
            530528237 736479298 265435455 -1645532438</internalNodes>
          <leafValues>
            -2.6118648052215576e-01 1.7359404265880585e-01</leafValues></_>
        <_>
          <internalNodes>
            0 -1 2 -399538454 -849877100 -2076137058 -1218856268
            -614476295 155427549 123593680 1165313344</internalNodes>
          <leafValues>
            -2.6963061094284058e-01 1.8802937865257263e-01</leafValues></_>
        <_>
          <internalNodes>
            0 -1 198 -730165053 -248891344 2030013915 -2029069062
            -2073656188 -1692654125 -1275807785 -80765799</internalNodes>
          <leafValues>
            -1.5897092223167419e-01 3.0473756790161133e-01</leafValues></_>
        <_>
          <internalNodes>
            0 -1 230 -836363021 -838058958 -554262793 1852000318
            -52892039 -271008430 -1224887301 -865389469</internalNodes>
          <leafValues>
            -1.9735866785049438e-01 2.5431406497955322e-01</leafValues></_>
        <_>
          <internalNodes>
            0 -1 247 -1976542000 1005728639 135936126 953843550
            -1950345008 -79470257 -1457910536 -1086638148</internalNodes>
          <leafValues>
            -3.2251328229904175e-01 1.4866162836551666e-01</leafValues></_>
        <_>
