<?xml version="1.0"?>
<opencv_storage>
<stage13>
  <maxWeakCount>31</maxWeakCount>
  <stageThreshold>-1.6683784723281860e+00</stageThreshold>
  <weakClassifiers>
    <_>
      <internalNodes>
        0 -1 205 -67375373 -539234310 -1082455173 -875986390 -347869445
        -310645949 -406879537 -134233350</internalNodes>
      <leafValues>
        -4.9737325310707092e-01 3.9118457585573196e-02</leafValues></_>
    <_>
      <internalNodes>
        0 -1 3211 135285777 522724282 2136626429 1030019572 -1615922727
        -878138915 533601436 525992440</internalNodes>
      <leafValues>
        -3.6047613620758057e-01 1.3561403751373291e-01</leafValues></_>
    <_>
      <internalNodes>
        0 -1 1279 -1120202255 -295246896 -1613064455 -1308336
        -1416970767 -1345807954 105468113 -537128879</internalNodes>
      <leafValues>
        -3.0589082837104797e-01 1.7653712630271912e-01</leafValues></_>
    <_>
      <internalNodes>
        0 -1 198 1269804835 -269568850 -426006492 -689921376 1110948900
        1279613826 592924914 -673713193</internalNodes>
      <leafValues>
        -2.6882642507553101e-01 1.9960948824882507e-01</leafValues></_>
    <_>
      <internalNodes>
        0 -1 2562 -83625701 -620063240 268389679 498810207 1043726331
        -1349517523 2146919787 -288370716</internalNodes>
      <leafValues>
        -1.4049774408340454e-01 3.4905004501342773e-01</leafValues></_>
    <_>
      <internalNodes>
        0 -1 2760 1263478914 145722927 -823701794 465288351 677687173
        493751966 -595558259 976858238</internalNodes>
      <leafValues>
        -4.6598517894744873e-01 1.2676085531711578e-01</leafValues></_>
    <_>
      <internalNodes>
        0 -1 349 -286858514 2009852811 1854926511 -263609217 1901527312
        1044266797 -136330273 -412094742</internalNodes>
      <leafValues>
        -1.9003467261791229e-01 2.8336921334266663e-01</leafValues></_>
    <_>
      <internalNodes>
        0 -1 2549 -616571657 -763423049 1874468469 1035545599
        -1965829900 -115399 804923642 -1083212707</internalNodes>
      <leafValues>
        -1.4186798036098480e-01 3.7624984979629517e-01</leafValues></_>
    <_>
      <internalNodes>
        0 -1 2233 1512574512 1845836515 1098955633 -478090423 1049177343
        2014077350 1033311723 1070021643</internalNodes>
      <leafValues>
        -5.9258091449737549e-01 1.0109010338783264e-01</leafValues></_>
    <_>
      <internalNodes>
        0 -1 2343 270030193 -826658953 -537691394 -552268165 -1905001036
        -1367720074 -1627787553 -844446198</internalNodes>
      <leafValues>
        -2.0756566524505615e-01 2.6185074448585510e-01</leafValues></_>
    <_>
      <internalNodes>
        0 -1 750 1178083328 -789887232 21760990 -788855290 2130932304
        2069579859 860731901 1395604111</internalNodes>
      <leafValues>
        -3.2680952548980713e-01 1.6111975908279419e-01</leafValues></_>
    <_>
      <internalNodes>
        0 -1 3964 -1591040478 753577484 -934561517 -72925412 69448741
        123527175 1041665 -1887442275</internalNodes>
      <leafValues>
        -3.0733969807624817e-01 1.6952937841415405e-01</leafValues></_>
    <_>
      <internalNodes>
        0 -1 493 -743272047 -339569426 -13637637 -567015390 -335499614
        -847784216 413179641 -351382437</internalNodes>
      <leafValues>
        -2.0591558516025543e-01 2.5611969828605652e-01</leafValues></_>
    <_>
      <internalNodes>
        0 -1 1122 -858144531 -237172985 -554737667 -206348313 -8534620
        -1334198433 -67244305 -2310193</internalNodes>
      <leafValues>
        -1.4558975398540497e-01 3.7449455261230469e-01</leafValues></_>
    <_>
      <internalNodes>
        0 -1 72 -238027093 -184827906 209495666 -408121690 1408759479
        -430446729 -780732526 -137390377</internalNodes>
      <leafValues>
        -1.6773438453674316e-01 3.1633949279785156e-01</leafValues></_>
    <_>
      <internalNodes>
        0 -1 2723 -63944491 480049313 -1635581985 602199509 2060578512
        1873382945 -1120736294 -1962875563</internalNodes>
      <leafValues>
        -2.4214200675487518e-01 2.2679509222507477e-01</leafValues></_>
    <_>
      <internalNodes>
        0 -1 2004 -293671217 184186879 -1074110532 -1289064969
        -831019078 -1476427905 -1543583754 -1252354574</internalNodes>
      <leafValues>
        -1.7790138721466064e-01 3.1060579419136047e-01</leafValues></_>
    <_>
      <internalNodes>
        0 -1 3194 79320497 -861004176 496858484 712796924 689885640
        -1409576779 737411969 -822316812</internalNodes>
      <leafValues>
        -3.2299706339836121e-01 1.6462993621826172e-01</leafValues></_>
    <_>
      <internalNodes>
        0 -1 3385 -40945903 -970767264 -1887202543 -631367922
        -1459670599 137096127 161100601 -1344291812</internalNodes>
      <leafValues>
        -2.3140372335910797e-01 2.3679846525192261e-01</leafValues></_>
    <_>
      <internalNodes>
        0 -1 1424 -1977876479 -85039109 831398595 983053079 -1832107968
        -1220549097 -141001018 -1414081</internalNodes>
      <leafValues>
        -3.2857894897460938e-01 1.5992450714111328e-01</leafValues></_>
    <_>
      <internalNodes>
        0 -1 3272 -2077352201 2130078310 -830210117 250356405
        -1753271811 -621254123 -1024381110 -921499275</internalNodes>
      <leafValues>
        -2.3294271528720856e-01 2.3129208385944366e-01</leafValues></_>
    <_>
      <internalNodes>
        0 -1 3614 1137696806 1465828526 -330052034 306028273 830736612
        2030516511 -1105273123 -125769089</internalNodes>
      <leafValues>
        -2.5281980633735657e-01 2.1782550215721130e-01</leafValues></_>
    <_>
      <internalNodes>
        0 -1 408 1080156934 -1154537985 1829631609 -313031874
        -1828537403 265226819 -1300571154 106561572</internalNodes>
      <leafValues>
        -3.0317723751068115e-01 1.8602557480335236e-01</leafValues></_>
    <_>
      <internalNodes>
        0 -1 2196 -815393163 -1699340948 1861517309 1608056176
        -1147498831 -1395671939 -1116060781 -912581417</internalNodes>
      <leafValues>
        -2.0628336071968079e-01 2.7105984091758728e-01</leafValues></_>
    <_>
      <internalNodes>
        0 -1 13 -2098540878 1408496567 -2125035266 -712204581
        -1037043787 -605087421 1000057823 -1749089167</internalNodes>
      <leafValues>
        -2.3208245635032654e-01 2.3584462702274323e-01</leafValues></_>
    <_>
      <internalNodes>
        0 -1 3651 1914893058 269281866 -24707394 2005890396 816518935
        -1257531216 -1421715526 2113884557</internalNodes>
      <leafValues>
        -2.6390156149864197e-01 2.1330554783344269e-01</leafValues></_>
    <_>
      <internalNodes>
        0 -1 168 -1071722685 -933441406 1449497692 -976428412
        -1290089061 1116128369 -220895337 -737704508</internalNodes>
      <leafValues>
        -2.6931378245353699e-01 2.1498522162437439e-01</leafValues></_>
    <_>
      <internalNodes>
        0 -1 2535 -1435349924 2071212187 577122028 447887442 -1079375724
        -794685437 -1574262614 -1150049829</internalNodes>
      <leafValues>
        -3.2344925403594971e-01 1.6973534226417542e-01</leafValues></_>
    <_>
      <internalNodes>
        0 -1 2916 -454573492 -1864600426 336597779 1549030863 755412888
        -612359478 -1730893874 42077517</internalNodes>
      <leafValues>
        -5.1903885602951050e-01 1.1036761105060577e-01</leafValues></_>
    <_>
      <internalNodes>
        0 -1 469 2062708471 -174301184 -1361182457 532571300 1270541299
        1072050340 525859705 1702821946</internalNodes>
      <leafValues>
        -2.2887077927589417e-01 2.5682842731475830e-01</leafValues></_>
    <_>
      <internalNodes>
        0 -1 1973 -434243806 -238345725 -192623694 -53085829 923714106
        -1007162690 129116123 1912407828</internalNodes>
      <leafValues>
        -3.3219215273857117e-01 1.6711907088756561e-01</leafValues></_></weakClassifiers></stage13>
</opencv_storage>
