<?xml version="1.0"?>
<opencv_storage>
<stage17>
  <maxWeakCount>34</maxWeakCount>
  <stageThreshold>-1.5777229070663452e+00</stageThreshold>
  <weakClassifiers>
    <_>
      <internalNodes>
        0 -1 3011 -2011490443 -1374267152 1741387347 708808188 529219581
        -1883505445 1025144758 -339859111</internalNodes>
      <leafValues>
        -6.2237429618835449e-01 -2.3650875687599182e-01</leafValues></_>
    <_>
      <internalNodes>
        0 -1 1674 -1436884061 1918519387 -672402630 2110444756
        -1440563466 -343218575 -1923664905 -571226731</internalNodes>
      <leafValues>
        -2.3641261458396912e-01 1.9897089898586273e-01</leafValues></_>
    <_>
      <internalNodes>
        0 -1 138 805039875 -825978476 -1435463454 -287858108 833106568
        1195935552 1435657958 -740338957</internalNodes>
      <leafValues>
        -2.4744930863380432e-01 1.8401525914669037e-01</leafValues></_>
    <_>
      <internalNodes>
        0 -1 1498 1588911349 -254660944 -155566097 -275321485
        -1113375533 -56566560 741121279 -1941222021</internalNodes>
      <leafValues>
        -1.3501434028148651e-01 3.2106894254684448e-01</leafValues></_>
    <_>
      <internalNodes>
        0 -1 762 1448404245 -201577090 -1074357953 -741040919
        -1392707681 -113459779 -1098914065 -269497298</internalNodes>
      <leafValues>
        -1.5185353159904480e-01 3.4191295504570007e-01</leafValues></_>
    <_>
      <internalNodes>
        0 -1 2371 419657439 671326356 -2122297201 1213547990 -2126399716
        1175246417 285291983 991375287</internalNodes>
      <leafValues>
        -5.2784818410873413e-01 1.1835594475269318e-01</leafValues></_>
    <_>
      <internalNodes>
        0 -1 2065 170871925 582804438 2073679165 832009421 -1178970105
        -344235412 665335349 -300262081</internalNodes>
      <leafValues>
        -3.0864092707633972e-01 1.5100167691707611e-01</leafValues></_>
    <_>
      <internalNodes>
        0 -1 3107 -901734256 1862836689 610386055 336630031 -2126343730
        -1622694777 -1341713269 134913294</internalNodes>
      <leafValues>
        -3.8083419203758240e-01 1.2283673137426376e-01</leafValues></_>
    <_>
      <internalNodes>
        0 -1 3906 -1065302516 -236609857 -1501713807 -260725725
        124674166 -764217561 2013182461 -1025782130</internalNodes>
      <leafValues>
        -2.0502646267414093e-01 2.5235438346862793e-01</leafValues></_>
    <_>
      <internalNodes>
        0 -1 3754 -1904035936 -150429670 524228852 136097840 156681528
        736378883 195802175 -2136221169</internalNodes>
      <leafValues>
        -3.0103364586830139e-01 1.6719850897789001e-01</leafValues></_>
    <_>
      <internalNodes>
        0 -1 3151 -260587486 1484729151 -17858817 1533493037 -805848564
        1845133294 -5470580 -214250234</internalNodes>
      <leafValues>
        -1.7985004186630249e-01 2.7841261029243469e-01</leafValues></_>
    <_>
      <internalNodes>
        0 -1 2803 -70322189 -758360462 939520739 184475364 -1678861352
        767491572 1073585617 -805313157</internalNodes>
      <leafValues>
        -1.5511964261531830e-01 3.2690343260765076e-01</leafValues></_>
    <_>
      <internalNodes>
        0 -1 2227 -2145383376 -783504028 -1673928195 -379813464
        313169841 953212964 260059639 428343296</internalNodes>
      <leafValues>
        -4.7076830267906189e-01 1.1204721778631210e-01</leafValues></_>
    <_>
      <internalNodes>
        0 -1 3351 -156504050 166667286 -393651688 1915747728 -409341257
        51310088 -847190905 -284369458</internalNodes>
      <leafValues>
        -2.4638377130031586e-01 1.9461873173713684e-01</leafValues></_>
    <_>
      <internalNodes>
        0 -1 3127 -355053967 -1473163659 -1 -2015605371 -286855600
        -277164186 -4399843 -1418027685</internalNodes>
      <leafValues>
        -1.9312439858913422e-01 2.5466188788414001e-01</leafValues></_>
    <_>
      <internalNodes>
        0 -1 39 -101712385 -2094551891 801058751 -839938518 195801917
        -1889554582 400908798 -883440141</internalNodes>
      <leafValues>
        -1.2834797799587250e-01 3.7690237164497375e-01</leafValues></_>
    <_>
      <internalNodes>
        0 -1 296 2059066545 573188152 -2114432167 -27529377 -944785986
        -286556417 -1494615992 -423440527</internalNodes>
      <leafValues>
        -1.6141779720783234e-01 3.0355367064476013e-01</leafValues></_>
    <_>
      <internalNodes>
        0 -1 3525 33688320 170533520 1998442967 -1899213128 874414038
        -1410692926 1025361306 -1611808552</internalNodes>
      <leafValues>
        -3.6804020404815674e-01 1.3501416146755219e-01</leafValues></_>
    <_>
      <internalNodes>
        0 -1 2812 -939330523 -907360014 2130584949 -1139853505 515701876
        -76546053 2128436591 -1949373020</internalNodes>
      <leafValues>
        -2.0278193056583405e-01 2.4949315190315247e-01</leafValues></_>
    <_>
      <internalNodes>
        0 -1 750 -327982974 -1695611397 317735775 1383932719 1045107505
        1315635987 789130031 1431124106</internalNodes>
      <leafValues>
        -2.8523230552673340e-01 1.8001604080200195e-01</leafValues></_>
    <_>
      <internalNodes>
        0 -1 2311 103023633 923224030 -1433438765 -983813351 441975604
        -73444477 -4051789 -273003944</internalNodes>
      <leafValues>
        -3.8674685359001160e-01 1.2215971946716309e-01</leafValues></_>
    <_>
      <internalNodes>
        0 -1 1721 -1569303050 2071756799 979938870 805059902 -1741435691
        1961786740 -1451282796 -67404739</internalNodes>
      <leafValues>
        -2.2169695794582367e-01 2.2641181945800781e-01</leafValues></_>
    <_>
      <internalNodes>
        0 -1 3934 1759456286 1447311423 -838591400 282087183 -74499300
        281288746 2118300112 574798826</internalNodes>
      <leafValues>
        -3.5826838016510010e-01 1.4454109966754913e-01</leafValues></_>
    <_>
      <internalNodes>
        0 -1 2350 739010176 -144831614 -1446218531 -1586250859
        -100965382 -2001722181 1873255871 153273612</internalNodes>
      <leafValues>
        -3.1168818473815918e-01 1.6031326353549957e-01</leafValues></_>
    <_>
      <internalNodes>
        0 -1 1491 -558629645 -114541744 2126477277 -880920204 1928286065
        -1947959461 1300158409 -560243266</internalNodes>
      <leafValues>
        -1.5765155851840973e-01 3.3573108911514282e-01</leafValues></_>
    <_>
      <internalNodes>
        0 -1 8 44697096 -1498507378 1401623003 837399379 -581639755
        1746770588 29741301 1177355280</internalNodes>
      <leafValues>
        -4.2390426993370056e-01 1.2326917052268982e-01</leafValues></_>
    <_>
      <internalNodes>
        0 -1 141 -8671177 -135811466 -1074811811 -752317233 1181849467
        226110902 1465303784 -593771814</internalNodes>
      <leafValues>
        -1.4388503134250641e-01 3.7360289692878723e-01</leafValues></_>
    <_>
      <internalNodes>
        0 -1 3966 -844904953 -2118883857 -302154212 1300537402
        -1762140170 -1527820362 770155319 1609556479</internalNodes>
      <leafValues>
        -1.8927350640296936e-01 2.7040097117424011e-01</leafValues></_>
    <_>
      <internalNodes>
        0 -1 1680 -493359358 1703377129 1430353234 -335489903 121766401
        58483724 1005326869 1996703785</internalNodes>
      <leafValues>
        -5.8698081970214844e-01 7.9406589269638062e-02</leafValues></_>
    <_>
      <internalNodes>
        0 -1 67 180571770 -1584093533 -561640913 -1383916821 -653349439
        -2147206814 97059561 1142452080</internalNodes>
      <leafValues>
        -3.2176652550697327e-01 1.5550448000431061e-01</leafValues></_>
    <_>
      <internalNodes>
        0 -1 3849 -1006977603 -572637210 -1477280869 -1875510546
        -1384479399 -88819759 -569984048 -207898722</internalNodes>
      <leafValues>
        -1.4240443706512451e-01 3.5672336816787720e-01</leafValues></_>
    <_>
      <internalNodes>
        0 -1 2449 1749076224 -1946287916 -2046704211 -1079074476
        -1547122219 -81907859 161749496 168821760</internalNodes>
      <leafValues>
        -6.4481830596923828e-01 7.7360399067401886e-02</leafValues></_>
    <_>
      <internalNodes>
        0 -1 3581 -1430748117 2127072396 -1380995473 2074909935
        -84357194 -268632065 783947425 -341104937</internalNodes>
      <leafValues>
        -2.0861962437629700e-01 2.5003045797348022e-01</leafValues></_>
    <_>
      <internalNodes>
        0 -1 576 -1890926845 -1912027784 -729652973 -565271998 687584539
        176205090 62537938 -942206512</internalNodes>
      <leafValues>
        -3.0807816982269287e-01 1.6699647903442383e-01</leafValues></_></weakClassifiers></stage17>
</opencv_storage>
