<?xml version="1.0"?>
<opencv_storage>
<stage5>
  <maxWeakCount>18</maxWeakCount>
  <stageThreshold>-1.9151430130004883e+00</stageThreshold>
  <weakClassifiers>
    <_>
      <internalNodes>
        0 -1 1024 -67371009 465559541 -149830945 -203711543 222853631
        532635615 -91690294 -69482245</internalNodes>
      <leafValues>
        -6.3836532831192017e-01 -4.3196003884077072e-02</leafValues></_>
    <_>
      <internalNodes>
        0 -1 1934 -375390427 -158803 -976290817 -11435 718782383
        -338699345 66576351 459998469</internalNodes>
      <leafValues>
        -4.7557279467582703e-01 1.7546756565570831e-01</leafValues></_>
    <_>
      <internalNodes>
        0 -1 2423 -1408204847 -1075694084 -4761381 -8622220 -1423446344
        -16855570 -1347093827 -1950609392</internalNodes>
      <leafValues>
        -4.1496822237968445e-01 2.0892740786075592e-01</leafValues></_>
    <_>
      <internalNodes>
        0 -1 77 -290797338 -71662938 1874726601 1692831394 590558355
        -163697546 -147176870 -81531285</internalNodes>
      <leafValues>
        -2.3525823652744293e-01 3.7752196192741394e-01</leafValues></_>
    <_>
      <internalNodes>
        0 -1 2992 174739953 514481972 969233685 -1107346452 180895743
        -1376014613 1268726250 -1077937153</internalNodes>
      <leafValues>
        -4.1688281297683716e-01 2.1822632849216461e-01</leafValues></_>
    <_>
      <internalNodes>
        0 -1 2728 -352604497 303892615 -2078968483 502789149 -1329541447
        734897966 -189071427 9095151</internalNodes>
      <leafValues>
        -4.2560577392578125e-01 2.0012372732162476e-01</leafValues></_>
    <_>
      <internalNodes>
        0 -1 3402 746592732 -172353192 -704979467 -1107546404
        -1127305473 -1141348215 -348520451 -1917317656</internalNodes>
      <leafValues>
        -3.9964595437049866e-01 2.1014095842838287e-01</leafValues></_>
    <_>
      <internalNodes>
        0 -1 954 -1557397551 -293022986 -1188569212 -175179600 236251063
        -1753318926 1369109399 -538501648</internalNodes>
      <leafValues>
        -3.0325105786323547e-01 2.8283351659774780e-01</leafValues></_>
    <_>
      <internalNodes>
        0 -1 324 -414252509 1791870767 585761384 1623859842 1685526020
        386132779 1204961450 1447551927</internalNodes>
      <leafValues>
        -4.3668782711029053e-01 1.8140016496181488e-01</leafValues></_>
    <_>
      <internalNodes>
        0 -1 3008 405338513 -1146208088 121461005 464502206 973241789
        -1414598067 534478090 -1896976984</internalNodes>
      <leafValues>
        -3.2527762651443481e-01 2.6734605431556702e-01</leafValues></_>
    <_>
      <internalNodes>
        0 -1 2766 1652282146 449523543 1713781886 1071381599 1935118839
        1754030162 -477108259 1874421710</internalNodes>
      <leafValues>
        -3.7097293138504028e-01 2.2723494470119476e-01</leafValues></_>
    <_>
      <internalNodes>
        0 -1 1362 -487657782 718631174 1243150182 1377498832 103798402
        47706192 1155471170 1451095383</internalNodes>
      <leafValues>
        -4.4623291492462158e-01 1.8310585618019104e-01</leafValues></_>
    <_>
      <internalNodes>
        0 -1 2701 -657530255 521929704 1294834583 -8245827 788105676
        -68244260 -304577092 689064284</internalNodes>
      <leafValues>
        -4.8109737038612366e-01 1.6365610063076019e-01</leafValues></_>
    <_>
      <internalNodes>
        0 -1 738 -524106999 -253015718 -486672547 -227909639 -55966440
        -648845705 -524902 -7721333</internalNodes>
      <leafValues>
        -2.5671428442001343e-01 3.2050886750221252e-01</leafValues></_>
    <_>
      <internalNodes>
        0 -1 3589 -1191570323 -616640937 -287015341 293318111 -186855288
        -142930578 -355288342 -1702167109</internalNodes>
      <leafValues>
        -2.4568143486976624e-01 3.6040166020393372e-01</leafValues></_>
    <_>
      <internalNodes>
        0 -1 3967 -1977446624 -1994385680 -611463246 796650724 48276000
        -2062175985 -1187515644 1674417337</internalNodes>
      <leafValues>
        -4.3787738680839539e-01 1.8585206568241119e-01</leafValues></_>
    <_>
      <internalNodes>
        0 -1 3684 -1361164105 989209693 2054832127 912207935 -1182181372
        -484563748 -1628521812 -1204932645</internalNodes>
      <leafValues>
        -3.1210869550704956e-01 2.5903001427650452e-01</leafValues></_>
    <_>
      <internalNodes>
        0 -1 1319 -1464602823 -309406544 -1150058508 -421611788
        791666679 -878772259 -1759324761 -547401219</internalNodes>
      <leafValues>
        -2.6129308342933655e-01 3.0771842598915100e-01</leafValues></_></weakClassifiers></stage5>
</opencv_storage>
