<?xml version="1.0"?>
<opencv_storage>
<stage8>
  <maxWeakCount>24</maxWeakCount>
  <stageThreshold>-1.6340256929397583e+00</stageThreshold>
  <weakClassifiers>
    <_>
      <internalNodes>
        0 -1 1748 -602670637 1596778202 994762171 422552207 993124250
        -582222957 2066964351 -4202613</internalNodes>
      <leafValues>
        -5.2492821216583252e-01 9.4097517430782318e-03</leafValues></_>
    <_>
      <internalNodes>
        0 -1 967 -238289450 -612501721 -104267789 -538517641 -1986415705
        -369553745 1539930111 -820568301</internalNodes>
      <leafValues>
        -2.9390752315521240e-01 2.3116518557071686e-01</leafValues></_>
    <_>
      <internalNodes>
        0 -1 2817 -1465820075 -1431556868 804499431 174987257
        -1944074282 -1342178597 461796775 -1355936492</internalNodes>
      <leafValues>
        -3.1171229481697083e-01 2.0646731555461884e-01</leafValues></_>
    <_>
      <internalNodes>
        0 -1 172 -526728686 1464511106 -901886420 1619140726 246555171
        1745814023 1820459261 -503127893</internalNodes>
      <leafValues>
        -2.7834990620613098e-01 2.3091858625411987e-01</leafValues></_>
    <_>
      <internalNodes>
        0 -1 1501 361980209 1760626686 -1875764037 901191133 549391236
        -1734073449 1046428631 171908971</internalNodes>
      <leafValues>
        -6.5338027477264404e-01 1.3073752820491791e-01</leafValues></_>
    <_>
      <internalNodes>
        0 -1 1654 -1607291263 -95764256 1363670386 -779102636
        -1357203224 -1624060444 244389015 497487984</internalNodes>
      <leafValues>
        -3.9889618754386902e-01 1.4788472652435303e-01</leafValues></_>
    <_>
      <internalNodes>
        0 -1 3961 -2013220592 790156032 -2128701057 554205969 839890721
        237655303 205910325 3047696</internalNodes>
      <leafValues>
        -4.6920007467269897e-01 1.5701356530189514e-01</leafValues></_>
    <_>
      <internalNodes>
        0 -1 3876 -84145057 -17294293 -553845729 1059700702 -26569080
        -17362956 -424493382 -1145926469</internalNodes>
      <leafValues>
        -2.2966063022613525e-01 2.8643551468849182e-01</leafValues></_>
    <_>
      <internalNodes>
        0 -1 36 -43269120 -680985466 -291050496 -1535333168 -378570831
        -528084980 1914762194 2011403505</internalNodes>
      <leafValues>
        -3.3406338095664978e-01 1.9718599319458008e-01</leafValues></_>
    <_>
      <internalNodes>
        0 -1 1692 -8396050 2115333735 -209813962 997916207 -276846898
        773160803 -1256747842 -4726785</internalNodes>
      <leafValues>
        -1.8148563802242279e-01 3.5705521702766418e-01</leafValues></_>
    <_>
      <internalNodes>
        0 -1 2951 -354451424 1456322085 1879800983 -33555105 248161937
        197983942 -1396627468 801027770</internalNodes>
      <leafValues>
        -3.6947277188301086e-01 1.9080655276775360e-01</leafValues></_>
    <_>
      <internalNodes>
        0 -1 2306 137889045 1592007931 624366587 469711743 530191780
        -337907589 110783799 -1088786363</internalNodes>
      <leafValues>
        -4.4765934348106384e-01 1.5123507380485535e-01</leafValues></_>
    <_>
      <internalNodes>
        0 -1 516 758116273 -993212442 -1073774857 -1077614928
        -1627917065 66496506 1744430299 -671137345</internalNodes>
      <leafValues>
        -1.9996337592601776e-01 3.4215259552001953e-01</leafValues></_>
    <_>
      <internalNodes>
        0 -1 3628 -1430594148 -14634224 -1481074994 94350526 456545593
        171672418 1067407371 248961981</internalNodes>
      <leafValues>
        -3.1263870000839233e-01 2.1599124372005463e-01</leafValues></_>
    <_>
      <internalNodes>
        0 -1 1732 -628075451 1071599763 -1099169797 1004042805
        -1957804970 -348168230 -1411507553 -1412873946</internalNodes>
      <leafValues>
        -3.0132144689559937e-01 2.2339534759521484e-01</leafValues></_>
    <_>
      <internalNodes>
        0 -1 2607 -1903673648 -2109209348 1530712527 -574080036
        -1915948432 -609703259 -1090207747 -1622471176</internalNodes>
      <leafValues>
        -3.1124666333198547e-01 2.1681670844554901e-01</leafValues></_>
    <_>
      <internalNodes>
        0 -1 1708 -68365963 503279103 975708009 775061375 -1616001456
        1050619903 -1222471686 -134807557</internalNodes>
      <leafValues>
        -2.0114888250827789e-01 3.3112490177154541e-01</leafValues></_>
    <_>
      <internalNodes>
        0 -1 3144 -405289844 1318037135 -297575539 2098167753 -373253959
        1644396752 1652592601 145339562</internalNodes>
      <leafValues>
        -3.3818665146827698e-01 1.9289213418960571e-01</leafValues></_>
    <_>
      <internalNodes>
        0 -1 744 -1027176448 -531792149 -1071844193 1356692258
        1963274240 2053177355 -1109937172 1399470778</internalNodes>
      <leafValues>
        -3.6480250954627991e-01 1.8683789670467377e-01</leafValues></_>
    <_>
      <internalNodes>
        0 -1 3934 -855765922 2054556792 175657053 543096427 -24659172
        282257169 -1635482928 -1866814530</internalNodes>
      <leafValues>
        -3.5090154409408569e-01 1.8354393541812897e-01</leafValues></_>
    <_>
      <internalNodes>
        0 -1 2463 -1289712384 -17284716 1619515881 -279422244
        -1439902799 -121192215 145029115 212338704</internalNodes>
      <leafValues>
        -5.4851305484771729e-01 1.1328485608100891e-01</leafValues></_>
    <_>
      <internalNodes>
        0 -1 1116 -2105401270 -67484836 -2113519366 38945487 -503279720
        1496983650 -1412131896 1902755563</internalNodes>
      <leafValues>
        -3.3591064810752869e-01 1.9983556866645813e-01</leafValues></_>
    <_>
      <internalNodes>
        0 -1 169 -940591305 -470884370 -1931071950 -1259622869
        -1904232513 1124503158 87520752 -538454129</internalNodes>
      <leafValues>
        -1.7941334843635559e-01 3.8148933649063110e-01</leafValues></_>
    <_>
      <internalNodes>
        0 -1 2495 707176960 -772616127 -38364900 2011168405 603630105
        730513744 281524431 165281865</internalNodes>
      <leafValues>
        -4.0131178498268127e-01 1.6785192489624023e-01</leafValues></_></weakClassifiers></stage8>
</opencv_storage>
