<?xml version="1.0"?>
<opencv_storage>
<stage7>
  <maxWeakCount>21</maxWeakCount>
  <stageThreshold>-1.9245648384094238e+00</stageThreshold>
  <weakClassifiers>
    <_>
      <internalNodes>
        0 -1 2319 181405181 -1073774593 -1081115681 -44075777
        -1613792833 -1343569 -426049 -1140900881</internalNodes>
      <leafValues>
        -6.2508428096771240e-01 -7.1779742836952209e-02</leafValues></_>
    <_>
      <internalNodes>
        0 -1 2707 -21116193 1776092837 -186255911 2113748959 -1109613587
        1071508701 -8942603 1002383279</internalNodes>
      <leafValues>
        -5.2099984884262085e-01 1.4255824685096741e-01</leafValues></_>
    <_>
      <internalNodes>
        0 -1 3396 524531 -1381089537 -80413217 -1678010467 402005951
        -1614700547 -109077505 -1345667427</internalNodes>
      <leafValues>
        -3.5487851500511169e-01 2.3910120129585266e-01</leafValues></_>
    <_>
      <internalNodes>
        0 -1 2287 304365648 1063222902 723402701 173619867 790628448
        2145267579 -1346490770 -1351630881</internalNodes>
      <leafValues>
        -5.5753999948501587e-01 1.7451834678649902e-01</leafValues></_>
    <_>
      <internalNodes>
        0 -1 648 -66097375 -275876888 -1381427370 -226593312 -837850318
        1471116368 1174631440 -33599168</internalNodes>
      <leafValues>
        -4.0882778167724609e-01 1.9225119054317474e-01</leafValues></_>
    <_>
      <internalNodes>
        0 -1 1770 72619377 -243321603 -1179041857 -576885579 -1401116675
        -1615284887 -138451521 -1894890211</internalNodes>
      <leafValues>
        -2.5627073645591736e-01 3.1370913982391357e-01</leafValues></_>
    <_>
      <internalNodes>
        0 -1 2271 -495055864 707396181 -1536032230 978991964 -1743572908
        267556649 -1413717304 -1163215905</internalNodes>
      <leafValues>
        -4.0353089570999146e-01 1.8837320804595947e-01</leafValues></_>
    <_>
      <internalNodes>
        0 -1 246 -913838261 -842100758 -1497159630 -228028920 235929495
        1109123496 1710748628 -671103325</internalNodes>
      <leafValues>
        -2.7921235561370850e-01 2.7657812833786011e-01</leafValues></_>
    <_>
      <internalNodes>
        0 -1 1539 -1350471311 -1429144596 -169363971 -271888 91111412
        -1358972940 -1207986755 -1610677008</internalNodes>
      <leafValues>
        -2.9638388752937317e-01 2.5842797756195068e-01</leafValues></_>
    <_>
      <internalNodes>
        0 -1 3792 -1731591950 -121238914 -1891051233 1928864508
        -623345072 -91357060 -494076680 -1164434502</internalNodes>
      <leafValues>
        -3.5716158151626587e-01 2.1786855161190033e-01</leafValues></_>
    <_>
      <internalNodes>
        0 -1 1528 -56990539 -117258576 -1892913165 1301062769
        -1104546192 -5588958 -836186562 202070047</internalNodes>
      <leafValues>
        -2.5856798887252808e-01 2.8231739997863770e-01</leafValues></_>
    <_>
      <internalNodes>
        0 -1 2731 -1435978703 -201838618 -134217763 -536871556 -1143113
        -475334785 -1888309841 -878575351</internalNodes>
      <leafValues>
        -2.5420477986335754e-01 2.8314253687858582e-01</leafValues></_>
    <_>
      <internalNodes>
        0 -1 366 -933248470 -429703154 1511931919 -1024579554 1110265856
        1348888833 -303579800 1669008086</internalNodes>
      <leafValues>
        -4.0544810891151428e-01 1.8113568425178528e-01</leafValues></_>
    <_>
      <internalNodes>
        0 -1 70 251797276 234308303 771956047 195888775 -1459255818
        -1514780891 234691383 238749007</internalNodes>
      <leafValues>
        -6.6012203693389893e-01 1.1085774004459381e-01</leafValues></_>
    <_>
      <internalNodes>
        0 -1 3386 -1860119808 1965065884 775044885 -1482742316 736082239
        -1399071749 668931656 -1897165710</internalNodes>
      <leafValues>
        -3.3273532986640930e-01 2.1421100199222565e-01</leafValues></_>
    <_>
      <internalNodes>
        0 -1 3906 1079824512 -789282913 859610493 -260321285 -2066761394
        -630678924 2078325743 -761624870</internalNodes>
      <leafValues>
        -2.7813243865966797e-01 2.6792871952056885e-01</leafValues></_>
    <_>
      <internalNodes>
        0 -1 1666 -2137029118 572464903 -1077286563 2001274206 671027797
        192094579 1475765689 390231419</internalNodes>
      <leafValues>
        -5.4956167936325073e-01 1.3505113124847412e-01</leafValues></_>
    <_>
      <internalNodes>
        0 -1 2479 1648398080 -593563568 -175130147 -4326471 -1281312587
        -50586946 -443933285 -1109917691</internalNodes>
      <leafValues>
        -3.4566286206245422e-01 2.0983143150806427e-01</leafValues></_>
    <_>
      <internalNodes>
        0 -1 726 -1057488141 -1068036273 -267270149 1887314427
        -179042300 1951163141 -455818902 -142763010</internalNodes>
      <leafValues>
        -2.8624498844146729e-01 2.5892731547355652e-01</leafValues></_>
    <_>
      <internalNodes>
        0 -1 1070 -206646251 -1616023490 68771901 535134201 -257145464
        2130608103 717118748 -538263556</internalNodes>
      <leafValues>
        -2.5014707446098328e-01 3.0505815148353577e-01</leafValues></_>
    <_>
      <internalNodes>
        0 -1 3279 -933190524 -1137924574 -802889292 877137333 -520955226
        2024923899 -892289024 537429199</internalNodes>
      <leafValues>
        -5.6279432773590088e-01 1.4412093162536621e-01</leafValues></_></weakClassifiers></stage7>
</opencv_storage>
