<?xml version="1.0"?>
<opencv_storage>
<stage4>
  <maxWeakCount>17</maxWeakCount>
  <stageThreshold>-1.8830811977386475e+00</stageThreshold>
  <weakClassifiers>
    <_>
      <internalNodes>
        0 -1 2431 -69211169 -606500129 -125706753 -538443875 -308301825
        -68419861 -68173825 2147434239</internalNodes>
      <leafValues>
        -7.4533915519714355e-01 -4.8810005187988281e-02</leafValues></_>
    <_>
      <internalNodes>
        0 -1 1929 -1090455631 -202720328 -1623859201 -11808 -1648627201
        -877671972 -1760303137 -1092428</internalNodes>
      <leafValues>
        -3.5661134123802185e-01 3.0062729120254517e-01</leafValues></_>
    <_>
      <internalNodes>
        0 -1 3090 -588723027 -184768263 -784665498 1575000575 -119474001
        -56827535 -321328500 8945871</internalNodes>
      <leafValues>
        -5.2091968059539795e-01 1.9511972367763519e-01</leafValues></_>
    <_>
      <internalNodes>
        0 -1 288 -357594070 -892698204 -362410496 -1033378078 -313045756
        122391362 -1014292730 -134224946</internalNodes>
      <leafValues>
        -3.9081215858459473e-01 3.0947926640510559e-01</leafValues></_>
    <_>
      <internalNodes>
        0 -1 0 -362617718 -8654165 -218628423 -156161 -541203474
        1928181601 -675301389 -134777357</internalNodes>
      <leafValues>
        -2.8545033931732178e-01 3.5359433293342590e-01</leafValues></_>
    <_>
      <internalNodes>
        0 -1 2767 431430648 458063295 792669818 -1699520401 2077718493
        1055594947 -69435414 -3145773</internalNodes>
      <leafValues>
        -4.7356763482093811e-01 2.2141765058040619e-01</leafValues></_>
    <_>
      <internalNodes>
        0 -1 3203 488693264 1066048488 1073559997 530324604 -1079328837
        -1079574793 602541100 -1342203295</internalNodes>
      <leafValues>
        -3.9018154144287109e-01 2.4540950357913971e-01</leafValues></_>
    <_>
      <internalNodes>
        0 -1 1954 1752230656 -192692673 -107483137 -9192609 556770947
        2000603199 777251759 1270809875</internalNodes>
      <leafValues>
        -4.2233440279960632e-01 2.2524110972881317e-01</leafValues></_>
    <_>
      <internalNodes>
        0 -1 3939 -555088804 1551110102 -1690113094 841373079 -108085992
        -1337108279 -221709570 -96813073</internalNodes>
      <leafValues>
        -3.4188055992126465e-01 2.7961897850036621e-01</leafValues></_>
    <_>
      <internalNodes>
        0 -1 372 -706287478 -730947552 256355022 1123698158 2097893700
        269777523 -183038484 1735854011</internalNodes>
      <leafValues>
        -3.6993795633316040e-01 2.6004689931869507e-01</leafValues></_>
    <_>
      <internalNodes>
        0 -1 3213 -2010113032 -572774772 -707660321 1609055384
        -1145438210 -34199059 2138963966 -1358296856</internalNodes>
      <leafValues>
        -3.6316144466400146e-01 2.4209381639957428e-01</leafValues></_>
    <_>
      <internalNodes>
        0 -1 2956 1565825698 87993861 -849489767 530169625 472422586
        2145247442 -1001662133 1566281375</internalNodes>
      <leafValues>
        -3.7301939725875854e-01 2.4466370046138763e-01</leafValues></_>
    <_>
      <internalNodes>
        0 -1 2823 681580849 718166516 789400023 1795111321 -1993861355
        -40821 1002468091 -1412816880</internalNodes>
      <leafValues>
        -5.2696532011032104e-01 1.5912018716335297e-01</leafValues></_>
    <_>
      <internalNodes>
        0 -1 2512 -389924 954073111 -2075781356 973495049 516499112
        -1114281895 1072414346 -140518982</internalNodes>
      <leafValues>
        -3.7141054868698120e-01 2.3417192697525024e-01</leafValues></_>
    <_>
      <internalNodes>
        0 -1 1654 -1473647103 -1872039440 1607946995 -69475847
        -1382435180 -812990247 -1843167082 -1645275951</internalNodes>
      <leafValues>
        -3.1406578421592712e-01 3.0093550682067871e-01</leafValues></_>
    <_>
      <internalNodes>
        0 -1 1434 -529596408 -698457483 -1607349540 1914331545
        -953613876 -100504902 -56636471 -72729910</internalNodes>
      <leafValues>
        -3.3479887247085571e-01 2.7575290203094482e-01</leafValues></_>
    <_>
      <internalNodes>
        0 -1 306 -387267028 -431542669 -2071573126 -255401446 1060597784
        17973285 -1026568308 -202709897</internalNodes>
      <leafValues>
        -3.6167019605636597e-01 2.5461062788963318e-01</leafValues></_></weakClassifiers></stage4>
</opencv_storage>
