<?xml version="1.0"?>
<opencv_storage>
<stage10>
  <maxWeakCount>30</maxWeakCount>
  <stageThreshold>-1.7595657110214233e+00</stageThreshold>
  <weakClassifiers>
    <_>
      <internalNodes>
        0 -1 1 -298866962 -405279809 -1524654081 -136861989 -244318469
        -605046336 -239618089 -134748173</internalNodes>
      <leafValues>
        -5.4100120067596436e-01 1.2161632068455219e-02</leafValues></_>
    <_>
      <internalNodes>
        0 -1 270 -426794206 -477182494 -1402753534 -118616416
        -2106898665 1078153029 1370448196 -675035678</internalNodes>
      <leafValues>
        -4.3342328071594238e-01 1.3347969949245453e-01</leafValues></_>
    <_>
      <internalNodes>
        0 -1 1949 -1947549791 -605627976 -1615086595 -35867184
        -1967220289 -574436454 1060124663 -1083506671</internalNodes>
      <leafValues>
        -3.1082379817962646e-01 2.1273925900459290e-01</leafValues></_>
    <_>
      <internalNodes>
        0 -1 2769 -224403422 394213581 -328868707 531364637 -426903822
        750328421 -316542009 2145382316</internalNodes>
      <leafValues>
        -2.6715356111526489e-01 2.5288230180740356e-01</leafValues></_>
    <_>
      <internalNodes>
        0 -1 1788 1077961536 -609672238 -683597829 1932871022 -836421749
        -866631670 -1959543553 6308128</internalNodes>
      <leafValues>
        -3.4185296297073364e-01 1.9228588044643402e-01</leafValues></_>
    <_>
      <internalNodes>
        0 -1 2283 -262779820 819084159 -1495630146 710033382 -1151778572
        -1962785179 -1978777922 -1079088449</internalNodes>
      <leafValues>
        -3.2192668318748474e-01 1.9823528826236725e-01</leafValues></_>
    <_>
      <internalNodes>
        0 -1 2559 682249713 -1970780184 109401973 713311449 255480820
        -1928120230 524222816 -268469807</internalNodes>
      <leafValues>
        -3.4999161958694458e-01 1.8930771946907043e-01</leafValues></_>
    <_>
      <internalNodes>
        0 -1 3903 -1558012413 1770137344 -1610816427 -5965569
        -1648824425 179747579 938721191 -1076105569</internalNodes>
      <leafValues>
        -2.3055139183998108e-01 2.8281992673873901e-01</leafValues></_>
    <_>
      <internalNodes>
        0 -1 290 -487137072 2136960777 -1361262977 1615014884 1117873208
        1199759439 2021909503 1644210894</internalNodes>
      <leafValues>
        -3.1072756648063660e-01 2.2115057706832886e-01</leafValues></_>
    <_>
      <internalNodes>
        0 -1 3624 -1349852880 -1894906510 111104628 -1299232584 88027409
        663373825 119755473 -1074538638</internalNodes>
      <leafValues>
        -3.4247884154319763e-01 1.7808857560157776e-01</leafValues></_>
    <_>
      <internalNodes>
        0 -1 2924 -1770906505 -837679860 -1767926817 -1890196648
        -1169375663 -341083367 -660931589 -1960177643</internalNodes>
      <leafValues>
        -2.6944318413734436e-01 2.3856776952743530e-01</leafValues></_>
    <_>
      <internalNodes>
        0 -1 7 -1566931782 -2046904594 180571837 431471312 -1984069197
        -841471882 897574833 1291142464</internalNodes>
      <leafValues>
        -3.8771429657936096e-01 1.6488499939441681e-01</leafValues></_>
    <_>
      <internalNodes>
        0 -1 231 859746222 -201328908 1190494810 -1275151176 780136356
        -329777682 1274398364 2147480783</internalNodes>
      <leafValues>
        -2.2338768839836121e-01 2.7166685461997986e-01</leafValues></_>
    <_>
      <internalNodes>
        0 -1 1104 1650393093 -2084947973 -486746128 1915365067
        -287356643 -429197755 -101835032 -213958857</internalNodes>
      <leafValues>
        -3.0593112111091614e-01 2.1715757250785828e-01</leafValues></_>
    <_>
      <internalNodes>
        0 -1 1762 1600327795 -16341468 2079227639 1455929269 746373250
        -1423235210 -620916789 -1345598293</internalNodes>
      <leafValues>
        -1.9377373158931732e-01 3.2715722918510437e-01</leafValues></_>
    <_>
      <internalNodes>
        0 -1 1836 -227024909 -1414414 -49711 -176358864 662069606
        -877137960 1318976924 -819784359</internalNodes>
      <leafValues>
        -1.7614130675792694e-01 3.3146360516548157e-01</leafValues></_>
    <_>
      <internalNodes>
        0 -1 3725 1859651668 1403651174 -464024872 143557515 -891248518
        -590383877 605840010 190503</internalNodes>
      <leafValues>
        -4.8345133662223816e-01 1.2394815683364868e-01</leafValues></_>
    <_>
      <internalNodes>
        0 -1 531 -420819085 -290830382 -26413343 -537618906 -736133839
        -296779967 1432168221 -704682657</internalNodes>
      <leafValues>
        -2.2463981807231903e-01 2.7414521574974060e-01</leafValues></_>
    <_>
      <internalNodes>
        0 -1 624 1529849619 -83695830 -1931743367 -2404672 1129272354
        -1147214646 1596945856 -536882160</internalNodes>
      <leafValues>
        -2.5275334715843201e-01 2.3694573342800140e-01</leafValues></_>
    <_>
      <internalNodes>
        0 -1 75 -808732001 -1516074051 -1376841802 -2131849588 729068696
        762066869 1398480610 1162036439</internalNodes>
      <leafValues>
        -2.4086238443851471e-01 2.7461537718772888e-01</leafValues></_>
    <_>
      <internalNodes>
        0 -1 201 -274741551 -42237063 788123199 -492690262 673718931
        -26528653 37127863 -987577654</internalNodes>
      <leafValues>
        -1.9420424103736877e-01 3.0365231633186340e-01</leafValues></_>
    <_>
      <internalNodes>
        0 -1 3905 -969630942 -1215788396 -2087595437 999135946 926397366
        171284682 879206744 389002184</internalNodes>
      <leafValues>
        -2.8496217727661133e-01 2.2023507952690125e-01</leafValues></_>
    <_>
      <internalNodes>
        0 -1 2032 274813440 2774034 398014423 683630303 118108244
        -1673856642 231430123 -75771921</internalNodes>
      <leafValues>
        -4.3644946813583374e-01 1.3861210644245148e-01</leafValues></_>
    <_>
      <internalNodes>
        0 -1 1274 625557297 -1563797620 -1248723996 -556862508 941416629
        -202339920 -1220790319 -1894968016</internalNodes>
      <leafValues>
        -3.9386215806007385e-01 1.4885567128658295e-01</leafValues></_>
    <_>
      <internalNodes>
        0 -1 2008 2101009020 745682469 571476534 -1113911027 1060900400
        1502293048 -1960891465 -526033</internalNodes>
      <leafValues>
        -2.9429107904434204e-01 2.1573579311370850e-01</leafValues></_>
    <_>
      <internalNodes>
        0 -1 2467 -368645743 1893623924 -1937093291 254734700 1770580640
        -1681360387 1256102659 -888519507</internalNodes>
      <leafValues>
        -2.8150182962417603e-01 2.2812382876873016e-01</leafValues></_>
    <_>
      <internalNodes>
        0 -1 790 23146689 1574393765 37377383 298964839 -1307315773
        -782839674 236437383 7566999</internalNodes>
      <leafValues>
        -5.1392918825149536e-01 1.2871843576431274e-01</leafValues></_>
    <_>
      <internalNodes>
        0 -1 366 -824917440 -2094724733 -970782998 -1013505666
        1346981888 1885751617 -286282775 1701465082</internalNodes>
      <leafValues>
        -3.7225714325904846e-01 1.6821366548538208e-01</leafValues></_>
    <_>
      <internalNodes>
        0 -1 3476 -465173492 1660833303 -41787427 2027703381 -139579052
        735653851 -632628365 184682769</internalNodes>
      <leafValues>
        -4.4453692436218262e-01 1.3107503950595856e-01</leafValues></_>
    <_>
      <internalNodes>
        0 -1 2835 -1974854992 -154662666 357143373 -172382817
        -2021021349 -2111673892 -1112954373 -1147512582</internalNodes>
      <leafValues>
        -2.5168308615684509e-01 2.5393763184547424e-01</leafValues></_></weakClassifiers></stage10>
</opencv_storage>
