<?xml version="1.0"?>
<opencv_storage>
<stage16>
  <maxWeakCount>33</maxWeakCount>
  <stageThreshold>-1.6666823625564575e+00</stageThreshold>
  <weakClassifiers>
    <_>
      <internalNodes>
        0 -1 308 -487068833 -40467 1219988471 1623689790 1466432283
        -610942429 1992817555 -448272437</internalNodes>
      <leafValues>
        -5.0465840101242065e-01 -4.4014085084199905e-02</leafValues></_>
    <_>
      <internalNodes>
        0 -1 508 -116470849 -7482541 -1390328807 -22937834 -597126446
        -173089038 1560404647 -851092457</internalNodes>
      <leafValues>
        -2.7801319956779480e-01 1.7427094280719757e-01</leafValues></_>
    <_>
      <internalNodes>
        0 -1 2085 16496 -537241458 457964147 1604211837 -1087653635
        -1352118887 800964539 -1961227160</internalNodes>
      <leafValues>
        -2.5402382016181946e-01 1.8313942849636078e-01</leafValues></_>
    <_>
      <internalNodes>
        0 -1 3366 -1617380936 -1467087856 320696080 -544667184 530528237
        736479298 265435455 -1645532438</internalNodes>
      <leafValues>
        -2.6118648052215576e-01 1.7359404265880585e-01</leafValues></_>
    <_>
      <internalNodes>
        0 -1 2 -399538454 -849877100 -2076137058 -1218856268 -614476295
        155427549 123593680 1165313344</internalNodes>
      <leafValues>
        -2.6963061094284058e-01 1.8802937865257263e-01</leafValues></_>
    <_>
      <internalNodes>
        0 -1 2077 -730165053 -248891344 2030013915 -2029069062
        -2073656188 -1692654125 -1275807785 -80765799</internalNodes>
      <leafValues>
        -1.5897092223167419e-01 3.0473756790161133e-01</leafValues></_>
    <_>
      <internalNodes>
        0 -1 2433 -836363021 -838058958 -554262793 1852000318 -52892039
        -271008430 -1224887301 -865389469</internalNodes>
      <leafValues>
        -1.9735866785049438e-01 2.5431406497955322e-01</leafValues></_>
    <_>
      <internalNodes>
        0 -1 2547 -1976542000 1005728639 135936126 953843550 -1950345008
        -79470257 -1457910536 -1086638148</internalNodes>
      <leafValues>
        -3.2251328229904175e-01 1.4866162836551666e-01</leafValues></_>
    <_>
      <internalNodes>
        0 -1 2019 -67702521 -1532086409 -160538641 1069441009 -545325868
        -1107329051 -214765584 -1212484678</internalNodes>
      <leafValues>
        -1.4771841466426849e-01 3.2449615001678467e-01</leafValues></_>
    <_>
      <internalNodes>
        0 -1 2448 -1105585103 -220581258 1573388039 -39956746
        -1613059280 -824383460 -1909972429 -1995689675</internalNodes>
      <leafValues>
        -3.3290109038352966e-01 1.4896465837955475e-01</leafValues></_>
    <_>
      <internalNodes>
        0 -1 3779 -1318209752 1132243146 1895924057 399607029 196581810
        -2102984463 1058790586 435929528</internalNodes>
      <leafValues>
        -2.3914019763469696e-01 2.0355840027332306e-01</leafValues></_>
    <_>
      <internalNodes>
        0 -1 717 -130031127 -2728865 -503352815 993622087 -8804872
        -379781345 1299541417 -952412546</internalNodes>
      <leafValues>
        -1.4458978176116943e-01 3.3668926358222961e-01</leafValues></_>
    <_>
      <internalNodes>
        0 -1 1749 238419969 536741765 -720973473 1355303631 -614839984
        -45904741 -205762000 1858742332</internalNodes>
      <leafValues>
        -4.2206016182899475e-01 1.1010980606079102e-01</leafValues></_>
    <_>
      <internalNodes>
        0 -1 372 -809072608 -114425526 579282412 -720498450 1663771462
        806500275 -116991848 1729489851</internalNodes>
      <leafValues>
        -2.7349108457565308e-01 1.7273141443729401e-01</leafValues></_>
    <_>
      <internalNodes>
        0 -1 3947 -1629601771 1590235207 -1474424324 1445663839
        953070817 984220202 1798968220 -98902337</internalNodes>
      <leafValues>
        -2.1885326504707336e-01 2.1226173639297485e-01</leafValues></_>
    <_>
      <internalNodes>
        0 -1 201 -73427469 -307526918 1861770805 -134740341 1822654611
        1592770033 -415775299 -349509893</internalNodes>
      <leafValues>
        -1.4295440912246704e-01 3.6130401492118835e-01</leafValues></_>
    <_>
      <internalNodes>
        0 -1 1080 -2107965439 10834375 -532925198 -1244007482 1878721812
        319957185 -204445984 -1215234475</internalNodes>
      <leafValues>
        -3.4421798586845398e-01 1.5056596696376801e-01</leafValues></_>
    <_>
      <internalNodes>
        0 -1 2024 -81751023 -813699138 800872949 -1732931723 -1962193800
        -16912385 -1632084052 -51512156</internalNodes>
      <leafValues>
        -1.9245657324790955e-01 2.5827181339263916e-01</leafValues></_>
    <_>
      <internalNodes>
        0 -1 2074 260047105 -1882427303 967659745 1389498946 -1943829816
        993600927 -1853718609 2074820079</internalNodes>
      <leafValues>
        -2.8980651497840881e-01 1.7909044027328491e-01</leafValues></_>
    <_>
      <internalNodes>
        0 -1 2751 135209472 370944103 -144918449 -814246049 173705122
        184222795 885040089 1163007087</internalNodes>
      <leafValues>
        -3.7632444500923157e-01 1.3638527691364288e-01</leafValues></_>
    <_>
      <internalNodes>
        0 -1 1941 -4201361 -29362954 -84082882 534773236 1828630257
        -69011654 -1699028098 -880822405</internalNodes>
      <leafValues>
        -1.3202767074108124e-01 4.1387742757797241e-01</leafValues></_>
    <_>
      <internalNodes>
        0 -1 726 1075512577 1075202120 1682531515 1893290395 358418716
        2085646357 -115898166 -8629281</internalNodes>
      <leafValues>
        -2.9133778810501099e-01 1.8902580440044403e-01</leafValues></_>
    <_>
      <internalNodes>
        0 -1 119 1825186193 -2037458476 297444066 -825317230 136628705
        -1979445792 -1986205611 -874181889</internalNodes>
      <leafValues>
        -2.6455190777778625e-01 2.0273511111736298e-01</leafValues></_>
    <_>
      <internalNodes>
        0 -1 2271 -58728776 2054606838 779232426 456801151 -1705273400
        -1552433289 -1691307366 -1801715809</internalNodes>
      <leafValues>
        -1.5198206901550293e-01 3.3243876695632935e-01</leafValues></_>
    <_>
      <internalNodes>
        0 -1 1619 -230652160 -782644644 71455218 -980305052 2004926373
        1611971295 1896427829 22545424</internalNodes>
      <leafValues>
        -5.5912798643112183e-01 1.0114567726850510e-01</leafValues></_>
    <_>
      <internalNodes>
        0 -1 3968 -946359638 -914512909 -860966852 1928849878
        -1209555722 76496424 -1145585997 -606094497</internalNodes>
      <leafValues>
        -1.7180976271629333e-01 3.2280194759368896e-01</leafValues></_>
    <_>
      <internalNodes>
        0 -1 3736 -420543454 1395589975 -282067342 -350368393 -136423835
        -849608900 -554767242 -83170330</internalNodes>
      <leafValues>
        -1.8375265598297119e-01 2.6832824945449829e-01</leafValues></_>
    <_>
      <internalNodes>
        0 -1 600 -2027001311 -975404614 625953977 -798869484 781407250
        -1071463274 1932489136 -691154752</internalNodes>
      <leafValues>
        -3.2240641117095947e-01 1.5354456007480621e-01</leafValues></_>
    <_>
      <internalNodes>
        0 -1 3498 -67109454 -543194744 -286534480 -605059920 372380116
        209715069 -671137285 -343945217</internalNodes>
      <leafValues>
        -1.3131575286388397e-01 4.0041035413742065e-01</leafValues></_>
    <_>
      <internalNodes>
        0 -1 1788 71574336 -637927325 335749018 773131738 -1303832829
        1285166088 520857865 73425444</internalNodes>
      <leafValues>
        -4.5778062939643860e-01 1.1596456915140152e-01</leafValues></_>
    <_>
      <internalNodes>
        0 -1 10 -1880193074 -1583411685 -1865408211 -1863479015
        236897103 478814358 1364035992 1623736355</internalNodes>
      <leafValues>
        -2.9965412616729736e-01 1.7746870219707489e-01</leafValues></_>
    <_>
      <internalNodes>
        0 -1 2939 1607659150 1314726161 1481151699 -120542241 -135880264
        -1949469449 -69562971 1101660200</internalNodes>
      <leafValues>
        -3.6058238148689270e-01 1.5156783163547516e-01</leafValues></_>
    <_>
      <internalNodes>
        0 -1 1854 1065881937 -839844420 -1993336475 -362889064
        -542606863 -880112876 -1177719848 1334575420</internalNodes>
      <leafValues>
        -3.6506783962249756e-01 1.3962148129940033e-01</leafValues></_></weakClassifiers></stage16>
</opencv_storage>
