<?xml version="1.0"?>
<opencv_storage>
<stage15>
  <maxWeakCount>11</maxWeakCount>
  <stageThreshold>-1.5339430570602417e+00</stageThreshold>
  <weakClassifiers>
    <_>
      <internalNodes>
        0 -1 225 -1135218 -698103469 -1055795821 -519454710 -241507429
        -804218559 -251333637 -83886097</internalNodes>
      <leafValues>
        -5.3895688056945801e-01 4.4393801689147949e-01</leafValues></_>
    <_>
      <internalNodes>
        0 -1 385 773518129 -38481788 -1325821705 -606080107 974092665
        -90455936 1122718205 -654486049</internalNodes>
      <leafValues>
        -4.5689657330513000e-01 3.5667121410369873e-01</leafValues></_>
    <_>
      <internalNodes>
        0 -1 3629 -1365837825 -1177413921 146879261 130356430 433029515
        -1899118527 85000399 -70256626</internalNodes>
      <leafValues>
        -4.9089938402175903e-01 3.2762178778648376e-01</leafValues></_>
    <_>
      <internalNodes>
        0 -1 1989 -498415992 -1998687651 -435658620 -2082559771
        -1421614592 23073057 -1349914209 -1616000822</internalNodes>
      <leafValues>
        -4.0669283270835876e-01 3.7307128310203552e-01</leafValues></_>
    <_>
      <internalNodes>
        0 -1 1323 -1038223954 -254722754 289790065 1527897856 647800711
        -1343086430 219830103 1610563665</internalNodes>
      <leafValues>
        -6.0221529006958008e-01 2.1972170472145081e-01</leafValues></_>
    <_>
      <internalNodes>
        0 -1 3759 -94431947 2074899090 -2013159184 -33609659 -1599884812
        797087903 360912101 -1615904613</internalNodes>
      <leafValues>
        -3.7826246023178101e-01 3.8065984845161438e-01</leafValues></_>
    <_>
      <internalNodes>
        0 -1 3907 -36038904 840401609 690184395 52860999 -884804647
        -1188986238 -86787349 -1430602789</internalNodes>
      <leafValues>
        -4.7018662095069885e-01 3.1519636511802673e-01</leafValues></_>
    <_>
      <internalNodes>
        0 -1 1378 1933558516 134288653 -1937765830 395017615 76155608
        1854603264 -2125813601 -1412707639</internalNodes>
      <leafValues>
        -4.2956995964050293e-01 3.2817715406417847e-01</leafValues></_>
    <_>
      <internalNodes>
        0 -1 3131 -803773625 1880981513 -1870555693 333568379 423862777
        -774832000 -133399622 -1977876737</internalNodes>
      <leafValues>
        -3.3233377337455750e-01 4.2719465494155884e-01</leafValues></_>
    <_>
      <internalNodes>
        0 -1 1069 -487862665 -917634 712666425 2054389631 1006611860
        -32769 972531515 -2049</internalNodes>
      <leafValues>
        -3.1829997897148132e-01 4.5154029130935669e-01</leafValues></_>
    <_>
      <internalNodes>
        0 -1 2511 -218377590 -520355373 1936857721 368184317 -144005239
        2004813695 -16977987 -526410</internalNodes>
      <leafValues>
        -2.6853829622268677e-01 5.3452646732330322e-01</leafValues></_></weakClassifiers></stage15>
</opencv_storage>
