<?xml version="1.0"?>
<opencv_storage>
<stage11>
  <maxWeakCount>9</maxWeakCount>
  <stageThreshold>-1.2527179718017578e+00</stageThreshold>
  <weakClassifiers>
    <_>
      <internalNodes>
        0 -1 142 -20737 -939593729 -268488961 -268456274 -79699969
        -16383 -524289 -4097</internalNodes>
      <leafValues>
        -4.9817159771919250e-01 6.1375355720520020e-01</leafValues></_>
    <_>
      <internalNodes>
        0 -1 329 -480292865 2145322847 769805919 1863841743 -291812363
        -69268294 -350651785 -641</internalNodes>
      <leafValues>
        -4.2477375268936157e-01 4.0233767032623291e-01</leafValues></_>
    <_>
      <internalNodes>
        0 -1 1462 -1348436624 1700419856 -876089985 -339879887
        -1347830379 -660813127 -1343951666 -845194802</internalNodes>
      <leafValues>
        -4.5161288976669312e-01 3.3507508039474487e-01</leafValues></_>
    <_>
      <internalNodes>
        0 -1 3777 99163651 658947479 -1616917195 -1362740811 949958439
        1066042267 749374992 -1612716290</internalNodes>
      <leafValues>
        -7.5659364461898804e-01 1.9353722035884857e-01</leafValues></_>
    <_>
      <internalNodes>
        0 -1 1364 -33620654 2067410943 724709243 1065041663 -16798728
        1073741823 -1342197763 -1073741825</internalNodes>
      <leafValues>
        -3.2560247182846069e-01 4.9216255545616150e-01</leafValues></_>
    <_>
      <internalNodes>
        0 -1 3932 -238144491 -2117897317 -1785253802 278475409
        -1065123638 -796147648 -775082161 719003422</internalNodes>
      <leafValues>
        -6.7550611495971680e-01 2.4252147972583771e-01</leafValues></_>
    <_>
      <internalNodes>
        0 -1 6 -1366300118 -159197346 -146418697 -290526648 -1757458181
        -74456980 2125688947 -9456736</internalNodes>
      <leafValues>
        -5.2229064702987671e-01 2.8256899118423462e-01</leafValues></_>
    <_>
      <internalNodes>
        0 -1 1614 -1954316160 1401949492 1635307965 1475729724
        -2147311448 -1381977632 268539295 524779860</internalNodes>
      <leafValues>
        -5.8360445499420166e-01 2.7464544773101807e-01</leafValues></_>
    <_>
      <internalNodes>
        0 -1 1707 -780413730 -738246793 -549837592 2075277309 -252517176
        -8437803 -206397542 -549453825</internalNodes>
      <leafValues>
        -3.3064916729927063e-01 4.7586238384246826e-01</leafValues></_></weakClassifiers></stage11>
</opencv_storage>
