<?xml version="1.0"?>
<opencv_storage>
<stage4>
  <maxWeakCount>7</maxWeakCount>
  <stageThreshold>-1.8623011112213135e+00</stageThreshold>
  <weakClassifiers>
    <_>
      <internalNodes>
        0 -1 337 -268439825 -4097 -322982162 -67129682 -100665089
        -33554433 -553648161 -16777233</internalNodes>
      <leafValues>
        -5.0647950172424316e-01 7.3684209585189819e-01</leafValues></_>
    <_>
      <internalNodes>
        0 -1 3537 -158663169 -494246063 -203697269 -74782753 -70719693
        -14681425 -144246885 -1440559333</internalNodes>
      <leafValues>
        -5.6513816118240356e-01 4.5145598053932190e-01</leafValues></_>
    <_>
      <internalNodes>
        0 -1 2070 238751355 148812763 1113058239 -1996858369 2055954011
        -1149547557 2075094015 -335544325</internalNodes>
      <leafValues>
        -7.1547675132751465e-01 3.2709872722625732e-01</leafValues></_>
    <_>
      <internalNodes>
        0 -1 1011 -201610486 -224659189 -41302914 -579340289 570964872
        2136417678 -68472401 -65</internalNodes>
      <leafValues>
        -5.7003724575042725e-01 4.1047725081443787e-01</leafValues></_>
    <_>
      <internalNodes>
        0 -1 1154 -521603344 -3927887 -2063228323 -35874219 -914298144
        -5448449 -1375671620 -641863201</internalNodes>
      <leafValues>
        -4.7401365637779236e-01 4.1094797849655151e-01</leafValues></_>
    <_>
      <internalNodes>
        0 -1 293 -83931529 1097007169 137522060 793756895 2011912263
        1887662354 -40898562 -273158145</internalNodes>
      <leafValues>
        -5.1403486728668213e-01 3.9974823594093323e-01</leafValues></_>
    <_>
      <internalNodes>
        0 -1 1638 -972316118 -1300577104 1221582161 2146422333 51323051
        -1955904853 1171333575 1459442003</internalNodes>
      <leafValues>
        -5.7629060745239258e-01 3.4709972143173218e-01</leafValues></_></weakClassifiers></stage4>
</opencv_storage>
