<?xml version="1.0"?>
<opencv_storage>
<stage1>
  <maxWeakCount>5</maxWeakCount>
  <stageThreshold>-1.2344162464141846e+00</stageThreshold>
  <weakClassifiers>
    <_>
      <internalNodes>
        0 -1 826 -35651585 -111281485 -1056255717 -138414625 -71568405
        -15743845 -208274769 1065319423</internalNodes>
      <leafValues>
        -8.6772108078002930e-01 6.8069899082183838e-01</leafValues></_>
    <_>
      <internalNodes>
        0 -1 272 -339006802 -353926737 4292647 -278929334 -124845942
        588064907 -740861233 -525313</internalNodes>
      <leafValues>
        -7.1368366479873657e-01 5.6656628847122192e-01</leafValues></_>
    <_>
      <internalNodes>
        0 -1 3966 -1420840158 -1963614207 1246252 -540589957 -1551238638
        850067714 -104092796 -17478</internalNodes>
      <leafValues>
        -6.1530566215515137e-01 5.6980049610137939e-01</leafValues></_>
    <_>
      <internalNodes>
        0 -1 50 -545203248 -677979936 -250689185 -136785708 294712273
        -28606381 -75237161 -675851247</internalNodes>
      <leafValues>
        -6.7461991310119629e-01 4.6328088641166687e-01</leafValues></_>
    <_>
      <internalNodes>
        0 -1 2580 1050229 -1597456181 1486295903 -1830521637 -209372576
        -73815928 -1424299841 -6587393</internalNodes>
      <leafValues>
        -6.1640954017639160e-01 4.9901318550109863e-01</leafValues></_></weakClassifiers></stage1>
</opencv_storage>
