<?xml version="1.0"?>
<opencv_storage>
<stage6>
  <maxWeakCount>9</maxWeakCount>
  <stageThreshold>-1.3797194957733154e+00</stageThreshold>
  <weakClassifiers>
    <_>
      <internalNodes>
        0 -1 372 -73042 -289875873 -8196650 -285301842 -68185861
        -101463927 -70255633 -1025</internalNodes>
      <leafValues>
        -6.2106019258499146e-01 4.1228070855140686e-01</leafValues></_>
    <_>
      <internalNodes>
        0 -1 1097 786385887 2144291231 563108735 1071380303 -475395075
        -607493206 -1081132061 -34305</internalNodes>
      <leafValues>
        -6.0781180858612061e-01 3.8191297650337219e-01</leafValues></_>
    <_>
      <internalNodes>
        0 -1 3279 -705890889 -145325306 -801316961 1066038771 -485491809
        -541080663 -233837569 572565263</internalNodes>
      <leafValues>
        -6.9049000740051270e-01 2.9520741105079651e-01</leafValues></_>
    <_>
      <internalNodes>
        0 -1 384 616396145 -605368130 -550022319 -4275371 126515967
        -71720247 461460469 -303887</internalNodes>
      <leafValues>
        -4.8692882061004639e-01 4.0514326095581055e-01</leafValues></_>
    <_>
      <internalNodes>
        0 -1 1048 -75772336 997863767 -1568508878 504500315 -2164046
        570573359 -474502401 2145907615</internalNodes>
      <leafValues>
        -4.2228326201438904e-01 4.5272609591484070e-01</leafValues></_>
    <_>
      <internalNodes>
        0 -1 202 -712509478 -3689490 -678604302 2113634382 2070871027
        -1836937152 1430745271 -44576266</internalNodes>
      <leafValues>
        -4.5793151855468750e-01 4.0151956677436829e-01</leafValues></_>
    <_>
      <internalNodes>
        0 -1 3929 -635547428 -788628784 -1755134378 810168987 -32582958
        -631461789 -1700202056 -1170554886</internalNodes>
      <leafValues>
        -5.3594934940338135e-01 3.4027364850044250e-01</leafValues></_>
    <_>
      <internalNodes>
        0 -1 3647 1043087217 -1365358309 -531136681 -1365377828
        448733599 -1903935331 1787719959 -1427244867</internalNodes>
      <leafValues>
        -6.6019278764724731e-01 2.6477831602096558e-01</leafValues></_>
    <_>
      <internalNodes>
        0 -1 3492 -1045512192 -2120558180 135360776 495424664
        -1878080863 428016781 -1110707827 -68236913</internalNodes>
      <leafValues>
        -4.5106241106987000e-01 4.2672479152679443e-01</leafValues></_></weakClassifiers></stage6>
</opencv_storage>
