<?xml version="1.0"?>
<opencv_storage>
<stage16>
  <maxWeakCount>12</maxWeakCount>
  <stageThreshold>-1.3203144073486328e+00</stageThreshold>
  <weakClassifiers>
    <_>
      <internalNodes>
        0 -1 1158 1082062839 -65601 -129 -524293 -65 -1 -19018001 -2049</internalNodes>
      <leafValues>
        -4.1475826501846313e-01 6.7883211374282837e-01</leafValues></_>
    <_>
      <internalNodes>
        0 -1 2219 -67656719 -25415503 -704645153 -753921 -19288159
        -84237391 -1610776740 -615685383</internalNodes>
      <leafValues>
        -3.3465680480003357e-01 5.0462794303894043e-01</leafValues></_>
    <_>
      <internalNodes>
        0 -1 1320 -1459957793 -212821109 -805250081 -547751077
        -1558512696 -1455177664 62098617 462229928</internalNodes>
      <leafValues>
        -4.6628594398498535e-01 3.2284688949584961e-01</leafValues></_>
    <_>
      <internalNodes>
        0 -1 3756 -16796163 -617828642 -33685505 -537064236 1067295158
        -1107345410 536847865 -44803</internalNodes>
      <leafValues>
        -2.9083561897277832e-01 5.2247625589370728e-01</leafValues></_>
    <_>
      <internalNodes>
        0 -1 1445 1784442741 1408034319 -691347490 -23535269 -1154909355
        -104294375 -15234936 -4394273</internalNodes>
      <leafValues>
        -4.8838505148887634e-01 3.4592780470848083e-01</leafValues></_>
    <_>
      <internalNodes>
        0 -1 72 -1042570782 -530587260 1652861100 -421484884 -1282988383
        2036507804 810246192 -26347470</internalNodes>
      <leafValues>
        -5.0265979766845703e-01 2.9599580168724060e-01</leafValues></_>
    <_>
      <internalNodes>
        0 -1 411 -810296073 1645318919 -402500827 -1234906217
        -1316903291 -524974971 -1605556082 68646455</internalNodes>
      <leafValues>
        -5.9956985712051392e-01 2.2575843334197998e-01</leafValues></_>
    <_>
      <internalNodes>
        0 -1 3720 -67474218 -67170756 1844379623 1906912639 -73988
        -238637058 -285540354 -1416975078</internalNodes>
      <leafValues>
        -3.7224876880645752e-01 4.1268238425254822e-01</leafValues></_>
    <_>
      <internalNodes>
        0 -1 378 -1509875360 -157318952 842226685 -557829238 -74851694
        -393045887 809642986 -586295040</internalNodes>
      <leafValues>
        -4.9259853363037109e-01 3.1603738665580750e-01</leafValues></_>
    <_>
      <internalNodes>
        0 -1 2349 -1037910063 -1092837295 -586563139 616611929
        -322738120 -273149909 -493319621 729799427</internalNodes>
      <leafValues>
        -4.0071260929107666e-01 3.6903610825538635e-01</leafValues></_>
    <_>
      <internalNodes>
        0 -1 1047 -25214450 -1844284061 1559766103 305910037 -757937524
        678961276 321789438 -211436597</internalNodes>
      <leafValues>
        -4.3338394165039062e-01 3.1439256668090820e-01</leafValues></_>
    <_>
      <internalNodes>
        0 -1 223 1287791535 -1719553598 -863960001 -459365908
        -2004135709 1917403313 17851923 -1353513453</internalNodes>
      <leafValues>
        -4.8459148406982422e-01 3.0490723252296448e-01</leafValues></_></weakClassifiers></stage16>
</opencv_storage>
