<?xml version="1.0"?>
<opencv_storage>
<stage10>
  <maxWeakCount>10</maxWeakCount>
  <stageThreshold>-1.3118264675140381e+00</stageThreshold>
  <weakClassifiers>
    <_>
      <internalNodes>
        0 -1 325 -268456209 -347872301 -1067151378 -1421900114
        -472659201 -627496183 -69799233 -18518</internalNodes>
      <leafValues>
        -5.6634521484375000e-01 4.3741822242736816e-01</leafValues></_>
    <_>
      <internalNodes>
        0 -1 2365 -34604801 -540698209 -779823337 2135272465 -762974313
        -796330624 -586326593 1069492923</internalNodes>
      <leafValues>
        -7.7514666318893433e-01 2.0851851999759674e-01</leafValues></_>
    <_>
      <internalNodes>
        0 -1 251 1782575679 1512827467 -967388430 -548800438 859251515
        721564294 923210127 2139051759</internalNodes>
      <leafValues>
        -5.3721916675567627e-01 2.7480989694595337e-01</leafValues></_>
    <_>
      <internalNodes>
        0 -1 3880 -118765505 -679540553 -1367413253 1461918807
        -294121306 -555041026 -67973633 -100478470</internalNodes>
      <leafValues>
        -3.0822387337684631e-01 4.8823016881942749e-01</leafValues></_>
    <_>
      <internalNodes>
        0 -1 1675 -83962274 195704659 -1367703937 -1313326216
        -1744920610 -16842785 -1078083845 -73793</internalNodes>
      <leafValues>
        -3.0461186170578003e-01 4.9649518728256226e-01</leafValues></_>
    <_>
      <internalNodes>
        0 -1 3014 318553981 1046258430 -1626422819 -1617125968
        -1129555203 -542319477 1555000315 -1392522054</internalNodes>
      <leafValues>
        -5.3216332197189331e-01 2.7931764721870422e-01</leafValues></_>
    <_>
      <internalNodes>
        0 -1 1929 -576599632 -131924044 -18384011 2145377276 -743272198
        1499398143 523404731 -69500488</internalNodes>
      <leafValues>
        -3.3015510439872742e-01 4.6204170584678650e-01</leafValues></_>
    <_>
      <internalNodes>
        0 -1 108 -402149662 -429223594 -869612584 -355942204 1342648720
        -925440348 188166673 -143395626</internalNodes>
      <leafValues>
        -5.3390514850616455e-01 2.6794832944869995e-01</leafValues></_>
    <_>
      <internalNodes>
        0 -1 3504 -546251816 -138793808 1743723893 -135329560
        -1073761382 -1880096772 524064764 -29441</internalNodes>
      <leafValues>
        -2.8625261783599854e-01 5.5277687311172485e-01</leafValues></_>
    <_>
      <internalNodes>
        0 -1 3871 -548011939 -539161382 -1635353451 1918833277
        -804605812 -88997494 1873332735 -1329923361</internalNodes>
      <leafValues>
        -3.9253979921340942e-01 4.1690525412559509e-01</leafValues></_></weakClassifiers></stage10>
</opencv_storage>
