<?xml version="1.0"?>
<opencv_storage>
<stage17>
  <maxWeakCount>10</maxWeakCount>
  <stageThreshold>-1.2895476818084717e+00</stageThreshold>
  <weakClassifiers>
    <_>
      <internalNodes>
        0 -1 348 -823137682 -916783075 1078132782 -58615166 2031075007
        -1735800518 2077948127 -263025</internalNodes>
      <leafValues>
        -6.1189478635787964e-01 3.3806499838829041e-01</leafValues></_>
    <_>
      <internalNodes>
        0 -1 3219 -1594851339 -1679948329 -577416801 -1177157793
        -8791852 -4571039 -1112442405 -1363056269</internalNodes>
      <leafValues>
        -4.6458649635314941e-01 3.8796323537826538e-01</leafValues></_>
    <_>
      <internalNodes>
        0 -1 178 -739511301 -743554862 -1153289378 -146365550 990854563
        -788266352 1075012467 -11050762</internalNodes>
      <leafValues>
        -5.1465821266174316e-01 2.9834896326065063e-01</leafValues></_>
    <_>
      <internalNodes>
        0 -1 31 -2073624850 884490216 -73860 -571342985 159154140
        -1984266247 -858915380 -809535633</internalNodes>
      <leafValues>
        -3.8768643140792847e-01 4.1588273644447327e-01</leafValues></_>
    <_>
      <internalNodes>
        0 -1 670 -67119113 926633629 -1074889097 2007203767 -17047569
        1005944821 -1224890626 -134268929</internalNodes>
      <leafValues>
        -2.7003121376037598e-01 5.8049565553665161e-01</leafValues></_>
    <_>
      <internalNodes>
        0 -1 3900 752336699 -1471107004 -666259298 -1592486900 982361550
        -402537725 -1375615354 -1342182728</internalNodes>
      <leafValues>
        -5.7599002122879028e-01 2.7942755818367004e-01</leafValues></_>
    <_>
      <internalNodes>
        0 -1 3828 -5505616 -540094914 -1108869704 -536880004 804721717
        -1107460098 528351741 -1617959457</internalNodes>
      <leafValues>
        -3.0582493543624878e-01 4.9755787849426270e-01</leafValues></_>
    <_>
      <internalNodes>
        0 -1 762 36712753 -449061943 -687579753 -102771114 1032543162
        -124157815 -259184642 -854804172</internalNodes>
      <leafValues>
        -5.5163007974624634e-01 2.9132276773452759e-01</leafValues></_>
    <_>
      <internalNodes>
        0 -1 222 2009775611 -930451422 -2126020566 -540096300
        -1325173136 1628080293 610862672 -680017685</internalNodes>
      <leafValues>
        -4.2953360080718994e-01 3.3447808027267456e-01</leafValues></_>
    <_>
      <internalNodes>
        0 -1 811 -37498381 -1988095984 -1035794411 -1915471616
        -1315857835 -877983549 -1952284612 152559695</internalNodes>
      <leafValues>
        -3.6357447504997253e-01 3.8985159993171692e-01</leafValues></_></weakClassifiers></stage17>
</opencv_storage>
