<?xml version="1.0"?>
<opencv_storage>
<stage7>
  <maxWeakCount>7</maxWeakCount>
  <stageThreshold>-1.1571521759033203e+00</stageThreshold>
  <weakClassifiers>
    <_>
      <internalNodes>
        0 -1 3967 -1073762521 -2624513 -1718508754 -34078761 -575672705
        -1093937057 -152956 -1</internalNodes>
      <leafValues>
        -5.7877606153488159e-01 4.8384201526641846e-01</leafValues></_>
    <_>
      <internalNodes>
        0 -1 608 -271581201 -170731206 -12386569 -34612329 139265003
        -608205838 1618696051 -3189133</internalNodes>
      <leafValues>
        -5.3178107738494873e-01 4.2424523830413818e-01</leafValues></_>
    <_>
      <internalNodes>
        0 -1 2848 718288381 2113161183 -1 491383935 -17629963 -196745
        -18415873 -1081377697</internalNodes>
      <leafValues>
        -4.4247597455978394e-01 4.6685862541198730e-01</leafValues></_>
    <_>
      <internalNodes>
        0 -1 943 736038555 -1114313259 -181338659 -783752192 1052457983
        528991374 2144088047 -2117893</internalNodes>
      <leafValues>
        -7.1423268318176270e-01 2.8150016069412231e-01</leafValues></_>
    <_>
      <internalNodes>
        0 -1 168 -1355878494 -962414028 -838409664 -45554048 -1212940384
        -328047904 1508299602 -547888016</internalNodes>
      <leafValues>
        -6.2078243494033813e-01 3.0001473426818848e-01</leafValues></_>
    <_>
      <internalNodes>
        0 -1 3621 -1313022 1403760395 -1342198024 1945092093 -369365227
        200223607 -805312802 -218170529</internalNodes>
      <leafValues>
        -3.7981751561164856e-01 4.8650553822517395e-01</leafValues></_>
    <_>
      <internalNodes>
        0 -1 3906 -454163456 1544434010 -116210437 -1164795430
        -343172622 -1146556214 -1194009607 -286995334</internalNodes>
      <leafValues>
        -5.6216549873352051e-01 3.2359325885772705e-01</leafValues></_></weakClassifiers></stage7>
</opencv_storage>
