<?xml version="1.0"?>
<opencv_storage>
<stage5>
  <maxWeakCount>7</maxWeakCount>
  <stageThreshold>-9.8130536079406738e-01</stageThreshold>
  <weakClassifiers>
    <_>
      <internalNodes>
        0 -1 0 -294998354 -258 939523541 -609 -8411137 -16537 -10273
        -2099201</internalNodes>
      <leafValues>
        -5.5027526617050171e-01 6.4845860004425049e-01</leafValues></_>
    <_>
      <internalNodes>
        0 -1 2143 -1000344609 -715720289 -133047873 1603777239
        2014050559 -120661281 -119799873 1071595423</internalNodes>
      <leafValues>
        -6.9850057363510132e-01 3.2099831104278564e-01</leafValues></_>
    <_>
      <internalNodes>
        0 -1 3761 -1363165381 -1109931108 -1557822563 -1210064929
        227515310 -1281834741 730575418 -1073742913</internalNodes>
      <leafValues>
        -5.4205667972564697e-01 4.0833044052124023e-01</leafValues></_>
    <_>
      <internalNodes>
        0 -1 2259 -496836094 1083351382 -1341120422 -1836150061
        1616210949 101384198 -1442076209 -201593969</internalNodes>
      <leafValues>
        -4.8432794213294983e-01 4.4820663332939148e-01</leafValues></_>
    <_>
      <internalNodes>
        0 -1 2589 673190783 -68649095 -1 -49283 -268460100 -1073807493
        -8867873 -1415873201</internalNodes>
      <leafValues>
        -4.1783353686332703e-01 5.3580421209335327e-01</leafValues></_>
    <_>
      <internalNodes>
        0 -1 1634 -1416912085 -25635888 -2058717261 -537010699
        -1883780186 -292714416 62816479 -544260091</internalNodes>
      <leafValues>
        -4.6013808250427246e-01 4.5928090810775757e-01</leafValues></_>
    <_>
      <internalNodes>
        0 -1 339 -278975989 1323172543 8724958 1070547905 -652080285
        1403588891 -98878913 -4199725</internalNodes>
      <leafValues>
        -6.3051390647888184e-01 3.7137112021446228e-01</leafValues></_></weakClassifiers></stage5>
</opencv_storage>
