<?xml version="1.0"?>
<opencv_storage>
<stage18>
  <maxWeakCount>11</maxWeakCount>
  <stageThreshold>-1.2037515640258789e+00</stageThreshold>
  <weakClassifiers>
    <_>
      <internalNodes>
        0 -1 753 -143133697 -65537 -1157627905 -1073807361 -1074266127
        -67239945 -5 -67108881</internalNodes>
      <leafValues>
        -3.9539441466331482e-01 7.5041049718856812e-01</leafValues></_>
    <_>
      <internalNodes>
        0 -1 1024 974877555 517992647 1225312541 -586557821 732897530
        1502099592 -1073158005 -120992640</internalNodes>
      <leafValues>
        -6.2541586160659790e-01 2.6978769898414612e-01</leafValues></_>
    <_>
      <internalNodes>
        0 -1 3409 -1564208907 940966731 -217460705 924661595 -1339359303
        -351305721 -1290736693 -1660170793</internalNodes>
      <leafValues>
        -4.6324092149734497e-01 3.2539734244346619e-01</leafValues></_>
    <_>
      <internalNodes>
        0 -1 1658 -347479774 1882662324 1098933277 -784740332 67120906
        557514960 136467483 -169258660</internalNodes>
      <leafValues>
        -5.5705440044403076e-01 2.9440465569496155e-01</leafValues></_>
    <_>
      <internalNodes>
        0 -1 458 784061905 -170069124 -526597 -33755207 -34100771
        -89128961 -4089943 -554707553</internalNodes>
      <leafValues>
        -3.0714708566665649e-01 5.0538104772567749e-01</leafValues></_>
    <_>
      <internalNodes>
        0 -1 2735 35782656 2002074408 1175280991 -673032920 -8140900
        596650137 -343348306 1678057643</internalNodes>
      <leafValues>
        -5.3791284561157227e-01 2.8083416819572449e-01</leafValues></_>
    <_>
      <internalNodes>
        0 -1 3615 -481304464 -547642218 811671775 2131040703 -2130589310
        1219249028 -2147298878 1068549803</internalNodes>
      <leafValues>
        -3.7394148111343384e-01 3.9895439147949219e-01</leafValues></_>
    <_>
      <internalNodes>
        0 -1 3906 -185295604 1427853330 -268381350 -86191985 -472859058
        -1090353070 -456469815 -994424614</internalNodes>
      <leafValues>
        -4.3833383917808533e-01 3.3009728789329529e-01</leafValues></_>
    <_>
      <internalNodes>
        0 -1 3594 -86866657 1533905950 -8401027 -79730059 -318906515
        -335626370 783866619 -1224043621</internalNodes>
      <leafValues>
        -2.9935207962989807e-01 4.9994680285453796e-01</leafValues></_>
    <_>
      <internalNodes>
        0 -1 311 1847266862 141492608 1065792 626196498 1913366462
        -1152774070 -661950118 -68165437</internalNodes>
      <leafValues>
        -6.6941231489181519e-01 2.0727522671222687e-01</leafValues></_>
    <_>
      <internalNodes>
        0 -1 799 865129713 -2023991039 -985546500 -105197424 824436849
        -894564853 533194921 -821542640</internalNodes>
      <leafValues>
        -6.1314004659652710e-01 2.3039786517620087e-01</leafValues></_></weakClassifiers></stage18>
</opencv_storage>
