<?xml version="1.0"?>
<opencv_storage>
<stage12>
  <maxWeakCount>9</maxWeakCount>
  <stageThreshold>-1.1454929113388062e+00</stageThreshold>
  <weakClassifiers>
    <_>
      <internalNodes>
        0 -1 366 -285233490 -388770317 -1026112786 -489689398 -245629477
        -83107809 -54525953 -1053781</internalNodes>
      <leafValues>
        -6.5741765499114990e-01 4.1470927000045776e-01</leafValues></_>
    <_>
      <internalNodes>
        0 -1 1 -407900178 -25165826 -1342705793 -1179914 536330239
        -16809986 1040019371 -35691033</internalNodes>
      <leafValues>
        -3.8832435011863708e-01 4.6776384115219116e-01</leafValues></_>
    <_>
      <internalNodes>
        0 -1 224 1852518015 -678233610 -2129518437 -1505614614
        2118586491 1376402399 1762597875 -268472833</internalNodes>
      <leafValues>
        -5.2816379070281982e-01 3.1780984997749329e-01</leafValues></_>
    <_>
      <internalNodes>
        0 -1 2743 -153632177 23562889 -652743203 361725911 -207619109
        -292027908 -72789092 683473838</internalNodes>
      <leafValues>
        -5.2160364389419556e-01 2.9551830887794495e-01</leafValues></_>
    <_>
      <internalNodes>
        0 -1 2008 -615005004 -8301780 273549507 755572753 -335607808
        -162830693 -1624625222 -7364693</internalNodes>
      <leafValues>
        -3.9632493257522583e-01 4.0588414669036865e-01</leafValues></_>
    <_>
      <internalNodes>
        0 -1 2337 11605 -1568270228 1599699965 -1654875815 -1094992903
        -4634498 730369529 260586685</internalNodes>
      <leafValues>
        -6.0768020153045654e-01 2.3387373983860016e-01</leafValues></_>
    <_>
      <internalNodes>
        0 -1 1002 -1560283861 -957959392 1602216755 -672288260 191022001
        -1354301520 1196930263 -545533705</internalNodes>
      <leafValues>
        -3.4395793080329895e-01 4.4623240828514099e-01</leafValues></_>
    <_>
      <internalNodes>
        0 -1 3392 664795924 -1101299670 -1185693288 -1998796595
        -124785839 -1968651903 -1500849776 -270546437</internalNodes>
      <leafValues>
        -5.6904149055480957e-01 3.0434483289718628e-01</leafValues></_>
    <_>
      <internalNodes>
        0 -1 62 -773992065 -568818414 -2130047489 -86245200 -1635538780
        -557084275 988121757 -841657889</internalNodes>
      <leafValues>
        -3.8405418395996094e-01 4.0987062454223633e-01</leafValues></_></weakClassifiers></stage12>
</opencv_storage>
