<?xml version="1.0"?>
<opencv_storage>
<stage13>
  <maxWeakCount>10</maxWeakCount>
  <stageThreshold>-1.3651852607727051e+00</stageThreshold>
  <weakClassifiers>
    <_>
      <internalNodes>
        0 -1 3968 -270010388 -16393 -276824068 -262145 -524291 -8193
        -134217732 -9</internalNodes>
      <leafValues>
        -5.1399117708206177e-01 5.4855644702911377e-01</leafValues></_>
    <_>
      <internalNodes>
        0 -1 368 -807407825 -293001377 1196618175 -95530210 -7390377
        -70518085 -204772949 -67371025</internalNodes>
      <leafValues>
        -4.9311530590057373e-01 3.5214492678642273e-01</leafValues></_>
    <_>
      <internalNodes>
        0 -1 45 -83434256 -539192108 1373194653 -293222706 -620387408
        -610146037 -649251435 -579353273</internalNodes>
      <leafValues>
        -4.3589785695075989e-01 3.5975477099418640e-01</leafValues></_>
    <_>
      <internalNodes>
        0 -1 3340 -923153332 -923071017 -1104167361 -617762945
        -2030074113 124514302 2147483579 -73140229</internalNodes>
      <leafValues>
        -3.6675181984901428e-01 4.2226502299308777e-01</leafValues></_>
    <_>
      <internalNodes>
        0 -1 2320 215971423 249184795 1669924287 1859847449 848134107
        -107260228 1911047128 -1098187938</internalNodes>
      <leafValues>
        -5.2845788002014160e-01 3.0381619930267334e-01</leafValues></_>
    <_>
      <internalNodes>
        0 -1 2271 -587477304 1121472763 1178736668 858714122 -181457656
        103419982 -1702186358 -79758177</internalNodes>
      <leafValues>
        -4.7937482595443726e-01 3.2412496209144592e-01</leafValues></_>
    <_>
      <internalNodes>
        0 -1 768 105414485 -949753122 -1719543489 -9186503 1219182453
        -1381169522 1526749048 -838250179</internalNodes>
      <leafValues>
        -4.5080894231796265e-01 3.6258593201637268e-01</leafValues></_>
    <_>
      <internalNodes>
        0 -1 2547 -730688652 -187620804 -805149857 -181857724
        -1692880680 -378847231 984492248 -1146480273</internalNodes>
      <leafValues>
        -4.0036082267761230e-01 3.7968504428863525e-01</leafValues></_>
    <_>
      <internalNodes>
        0 -1 2650 -25299595 -192607598 1695090456 208685619 -1207240559
        -1129873224 -1408984808 -1474168089</internalNodes>
      <leafValues>
        -4.7677111625671387e-01 3.3106645941734314e-01</leafValues></_>
    <_>
      <internalNodes>
        0 -1 0 -990984246 -153369348 825514201 -124790307 -1865420896
        -658635639 -1082966040 -1621135024</internalNodes>
      <leafValues>
        -4.0995067358016968e-01 3.6403855681419373e-01</leafValues></_></weakClassifiers></stage13>
</opencv_storage>
