<?xml version="1.0"?>
<opencv_storage>
<stage14>
  <maxWeakCount>11</maxWeakCount>
  <stageThreshold>-1.5909634828567505e+00</stageThreshold>
  <weakClassifiers>
    <_>
      <internalNodes>
        0 -1 40 -67702802 -268435458 -269540642 -20818 -3145985
        -247336961 -8912897 -20529</internalNodes>
      <leafValues>
        -4.9940899014472961e-01 5.1670145988464355e-01</leafValues></_>
    <_>
      <internalNodes>
        0 -1 2241 1577040307 536608767 -1279077173 -36703348 -98587729
        2144038058 -234831126 -3495293</internalNodes>
      <leafValues>
        -3.9424636960029602e-01 4.0628260374069214e-01</leafValues></_>
    <_>
      <internalNodes>
        0 -1 2841 5461 -1613099556 2139608703 1063068765 -1210114608
        -1080036623 -19868166 -1472701447</internalNodes>
      <leafValues>
        -5.3531146049499512e-01 2.8312700986862183e-01</leafValues></_>
    <_>
      <internalNodes>
        0 -1 2050 -1082392705 -394517040 1745189207 553185393 244019952
        -1916856238 1041981556 -18934533</internalNodes>
      <leafValues>
        -3.9720153808593750e-01 3.5232797265052795e-01</leafValues></_>
    <_>
      <internalNodes>
        0 -1 751 -361796889 -166685187 1922360735 -86732301 -340952224
        -89604061 -300946462 -268446993</internalNodes>
      <leafValues>
        -3.7394386529922485e-01 3.7470856308937073e-01</leafValues></_>
    <_>
      <internalNodes>
        0 -1 1674 -487937504 775189522 -320673028 -2103139435
        -1886142545 236097149 415163135 -1614841161</internalNodes>
      <leafValues>
        -5.1551836729049683e-01 2.9640668630599976e-01</leafValues></_>
    <_>
      <internalNodes>
        0 -1 3534 -2131314095 -873025 -700329505 1052009214 -1089570574
        -1414379597 -122749985 -1472544001</internalNodes>
      <leafValues>
        -3.9343670010566711e-01 3.9237043261528015e-01</leafValues></_>
    <_>
      <internalNodes>
        0 -1 2535 -629481766 -37848326 -879352904 595361330 -285700644
        -9095306 -1156431938 -1078280277</internalNodes>
      <leafValues>
        -3.3872908353805542e-01 4.7009450197219849e-01</leafValues></_>
    <_>
      <internalNodes>
        0 -1 87 1900242214 -787842730 1359082744 1602307178 -1155516508
        -1324855221 1427513858 1592999942</internalNodes>
      <leafValues>
        -6.7647445201873779e-01 2.2338043153285980e-01</leafValues></_>
    <_>
      <internalNodes>
        0 -1 1319 -1913931897 -326582104 1360261315 -383786668
        -1089277701 -1685468788 51613947 -548535275</internalNodes>
      <leafValues>
        -4.0408435463905334e-01 3.5715135931968689e-01</leafValues></_>
    <_>
      <internalNodes>
        0 -1 3614 -546321085 1534037871 -939590017 1903034341 385872222
        317980531 -257 -1306461191</internalNodes>
      <leafValues>
        -3.5646644234657288e-01 4.1856938600540161e-01</leafValues></_></weakClassifiers></stage14>
</opencv_storage>
