<?xml version="1.0"?>
<opencv_storage>
<stage19>
  <maxWeakCount>9</maxWeakCount>
  <stageThreshold>-1.3357248306274414e+00</stageThreshold>
  <weakClassifiers>
    <_>
      <internalNodes>
        0 -1 376 -427825154 -268505089 -67176514 -335609857 930432885 -9
        -17 -1</internalNodes>
      <leafValues>
        -4.0197151899337769e-01 6.5500718355178833e-01</leafValues></_>
    <_>
      <internalNodes>
        0 -1 201 -76567089 804253695 -1343279425 -273707282 -268481153
        -32769 -20489 -67375113</internalNodes>
      <leafValues>
        -3.1575593352317810e-01 6.8021661043167114e-01</leafValues></_>
    <_>
      <internalNodes>
        0 -1 12 -1005694158 -868182142 218805069 -11761881 935428013
        -374169206 1049117527 -78035802</internalNodes>
      <leafValues>
        -5.0640958547592163e-01 4.0167194604873657e-01</leafValues></_>
    <_>
      <internalNodes>
        0 -1 651 -318249341 -2146942718 -783786927 -11943680 -1928614997
        8388872 1942320091 2139833287</internalNodes>
      <leafValues>
        -4.6140840649604797e-01 4.5228680968284607e-01</leafValues></_>
    <_>
      <internalNodes>
        0 -1 3420 -1902504835 782127583 361265631 -1840241385 -123576264
        -89546734 -1935694986 -1442780189</internalNodes>
      <leafValues>
        -5.9532749652862549e-01 3.0204799771308899e-01</leafValues></_>
    <_>
      <internalNodes>
        0 -1 3614 -791231738 1363218213 -654159111 326082951 -937918156
        1115833187 -226371399 2049104539</internalNodes>
      <leafValues>
        -4.8098683357238770e-01 3.9960166811943054e-01</leafValues></_>
    <_>
      <internalNodes>
        0 -1 1800 726677075 -1396129040 -754890337 -989560508
        -1542954949 -617411422 -629124513 -57700103</internalNodes>
      <leafValues>
        -4.5914226770401001e-01 4.4654998183250427e-01</leafValues></_>
    <_>
      <internalNodes>
        0 -1 1323 86304652 1981284610 184926711 -552562343 558992299
        -1948147558 1628389971 -79998893</internalNodes>
      <leafValues>
        -5.4651266336441040e-01 3.7030866742134094e-01</leafValues></_>
    <_>
      <internalNodes>
        0 -1 3351 -1034822974 -2141202111 -1718517547 -749738483
        1208070273 11569280 -658405207 -1458804578</internalNodes>
      <leafValues>
        -4.5009174942970276e-01 4.5508673787117004e-01</leafValues></_></weakClassifiers></stage19>
</opencv_storage>
