<?xml version="1.0"?>
<opencv_storage>
<stage18>
  <maxWeakCount>9</maxWeakCount>
  <stageThreshold>-8.0271017551422119e-01</stageThreshold>
  <weakClassifiers>
    <_>
      <internalNodes>
        0 -1 307 -880824658 -403198210 -402723162 -268439890 -591423493
        -16809985 -17563649 -67371074</internalNodes>
      <leafValues>
        -2.1929164230823517e-01 7.7166765928268433e-01</leafValues></_>
    <_>
      <internalNodes>
        0 -1 3932 -748736299 -2120022005 -671020681 395785367 -765210403
        -2147303289 -1010614691 804986670</internalNodes>
      <leafValues>
        -6.0418939590454102e-01 4.2860102653503418e-01</leafValues></_>
    <_>
      <internalNodes>
        0 -1 1129 -833533575 -16453385 302286171 -1635237757 -226287023
        -661126981 -1146922259 -604139861</internalNodes>
      <leafValues>
        -4.9186369776725769e-01 4.2605924606323242e-01</leafValues></_>
    <_>
      <internalNodes>
        0 -1 2101 -111944233 -216735284 -2013179837 567350739
        -1338823596 2046862404 -909439025 654795175</internalNodes>
      <leafValues>
        -7.3672592639923096e-01 2.3878663778305054e-01</leafValues></_>
    <_>
      <internalNodes>
        0 -1 31 37918462 -1668150472 156087071 -616345580 540416344
        -1407057880 13406413 -1880147921</internalNodes>
      <leafValues>
        -4.3239828944206238e-01 4.1969779133796692e-01</leafValues></_>
    <_>
      <internalNodes>
        0 -1 1969 -419984881 -692191531 1878489918 -537133896 577218355
        578230645 234864126 -906111618</internalNodes>
      <leafValues>
        -4.0690562129020691e-01 4.3214917182922363e-01</leafValues></_>
    <_>
      <internalNodes>
        0 -1 222 -981294638 -1847795578 128298 -571690788 -2013220557
        -2147302272 151072770 -649625453</internalNodes>
      <leafValues>
        -4.9023497104644775e-01 3.9943057298660278e-01</leafValues></_>
    <_>
      <internalNodes>
        0 -1 1339 -1940151254 -1039155198 -109045473 -678324032
        428517813 715229489 109118159 -573901671</internalNodes>
      <leafValues>
        -4.3867793679237366e-01 4.4857677817344666e-01</leafValues></_>
    <_>
      <internalNodes>
        0 -1 3630 -1938901576 -1710096208 -1736257083 1025346172
        436545828 -1163386782 462473413 456346833</internalNodes>
      <leafValues>
        -6.0457855463027954e-01 3.0263707041740417e-01</leafValues></_></weakClassifiers></stage18>
</opencv_storage>
