<?xml version="1.0"?>
<opencv_storage>
<stage15>
  <maxWeakCount>9</maxWeakCount>
  <stageThreshold>-1.0034637451171875e+00</stageThreshold>
  <weakClassifiers>
    <_>
      <internalNodes>
        0 -1 790 -610805265 1975639067 -1375731454 1431142802 403024007
        1614987280 -1601377653 41365267</internalNodes>
      <leafValues>
        -7.2062087059020996e-01 5.1981168985366821e-01</leafValues></_>
    <_>
      <internalNodes>
        0 -1 1933 -885951759 -193536040 -1074202903 -29819436
        -1154436711 -22003731 1584783359 -1626532735</internalNodes>
      <leafValues>
        -4.4648998975753784e-01 5.1187336444854736e-01</leafValues></_>
    <_>
      <internalNodes>
        0 -1 314 -489596327 1095775509 -2130616171 1099649290 -519438479
        -2012086112 -536731302 -1882204509</internalNodes>
      <leafValues>
        -4.4648596644401550e-01 4.6875154972076416e-01</leafValues></_>
    <_>
      <internalNodes>
        0 -1 433 -1527127309 -845103309 -129 2110029687 765919169
        -1346470152 -1074495618 -973613605</internalNodes>
      <leafValues>
        -4.1113078594207764e-01 5.0601679086685181e-01</leafValues></_>
    <_>
      <internalNodes>
        0 -1 3736 -420895742 1403519392 -872546369 -750426076
        -1841628526 410251352 -920208 -653525777</internalNodes>
      <leafValues>
        -3.4085083007812500e-01 5.7867407798767090e-01</leafValues></_>
    <_>
      <internalNodes>
        0 -1 175 -99632389 1879105800 285479739 -582791110 558738059
        176210048 201814955 1567838263</internalNodes>
      <leafValues>
        -5.1008129119873047e-01 4.0193518996238708e-01</leafValues></_>
    <_>
      <internalNodes>
        0 -1 3498 -238816638 -555042626 503189800 -541479774 390052268
        -1638957249 226041012 -673212481</internalNodes>
      <leafValues>
        -3.5162281990051270e-01 5.8792757987976074e-01</leafValues></_>
    <_>
      <internalNodes>
        0 -1 2883 1289166047 1376813459 33628443 941625859 -2147397628
        -1156349920 -1845479111 -1425954029</internalNodes>
      <leafValues>
        -4.5888194441795349e-01 4.7638472914695740e-01</leafValues></_>
    <_>
      <internalNodes>
        0 -1 2511 -487657344 -1057617680 855048746 66003965 -550309031
        2004035423 -1409867778 -940075106</internalNodes>
      <leafValues>
        -3.9890217781066895e-01 5.3025168180465698e-01</leafValues></_></weakClassifiers></stage15>
</opencv_storage>
