<?xml version="1.0"?>
<opencv_storage>
<stage14>
  <maxWeakCount>7</maxWeakCount>
  <stageThreshold>-1.2067784070968628e+00</stageThreshold>
  <weakClassifiers>
    <_>
      <internalNodes>
        0 -1 372 -856758610 1693122302 -1079070762 -486625282 1441770751
        -109051905 -8389137 -67109377</internalNodes>
      <leafValues>
        -3.7184116244316101e-01 7.4630022048950195e-01</leafValues></_>
    <_>
      <internalNodes>
        0 -1 3943 -771815406 -788967843 -336076 345512970 -134317484
        -654614788 -21311494 -99943914</internalNodes>
      <leafValues>
        -4.6302518248558044e-01 5.6214237213134766e-01</leafValues></_>
    <_>
      <internalNodes>
        0 -1 325 -1009317149 1100161121 4227108 -1610219516 1912819879
        -1996273647 -108991561 -254824274</internalNodes>
      <leafValues>
        -5.5957418680191040e-01 4.4258698821067810e-01</leafValues></_>
    <_>
      <internalNodes>
        0 -1 3498 -75435878 -1628783440 367530301 -537052000 758528361
        -1892712641 1467694293 -2122242</internalNodes>
      <leafValues>
        -3.9516010880470276e-01 5.6147575378417969e-01</leafValues></_>
    <_>
      <internalNodes>
        0 -1 929 1346356953 -1014436148 273976083 -540236448 -1727597574
        -1014364024 1392530103 -539798091</internalNodes>
      <leafValues>
        -5.0550758838653564e-01 4.3520331382751465e-01</leafValues></_>
    <_>
      <internalNodes>
        0 -1 2841 538066207 -1197997684 1360773261 488703632 1250323192
        -218067528 -96435509 -1389601091</internalNodes>
      <leafValues>
        -5.6387674808502197e-01 4.0347343683242798e-01</leafValues></_>
    <_>
      <internalNodes>
        0 -1 670 -84688137 2071670547 2059337710 993226743 -1078006274
        1027047413 -143219011 -167790593</internalNodes>
      <leafValues>
        -3.4031119942665100e-01 6.8902748823165894e-01</leafValues></_></weakClassifiers></stage14>
</opencv_storage>
