<?xml version="1.0"?>
<opencv_storage>
<stage16>
  <maxWeakCount>9</maxWeakCount>
  <stageThreshold>-6.3164985179901123e-01</stageThreshold>
  <weakClassifiers>
    <_>
      <internalNodes>
        0 -1 337 -805854482 -268472321 -318820612 -1094898002 -88082753
        -1 -16641 -218120273</internalNodes>
      <leafValues>
        -2.3616524040699005e-01 7.5888174772262573e-01</leafValues></_>
    <_>
      <internalNodes>
        0 -1 3571 -683227301 -586235630 360716663 -144297191 151093739
        -200081401 -805191573 -1448958145</internalNodes>
      <leafValues>
        -4.6588033437728882e-01 5.1753395795822144e-01</leafValues></_>
    <_>
      <internalNodes>
        0 -1 108 -301798454 -809069390 -1594121518 -472039156 8859811
        -804814832 271006369 -10491681</internalNodes>
      <leafValues>
        -4.2399767041206360e-01 4.7592878341674805e-01</leafValues></_>
    <_>
      <internalNodes>
        0 -1 1417 650604509 1569522197 -1610574625 1964574105 -515176043
        -794155378 -276295818 -1086627553</internalNodes>
      <leafValues>
        -6.1254513263702393e-01 3.3499598503112793e-01</leafValues></_>
    <_>
      <internalNodes>
        0 -1 1618 -1022253904 -791378806 806048337 -1687867376
        -1601532245 -1599960941 442807295 -611579599</internalNodes>
      <leafValues>
        -4.6164277195930481e-01 4.3535238504409790e-01</leafValues></_>
    <_>
      <internalNodes>
        0 -1 2019 -246382376 -1241362291 674513108 501879941 -1816018800
        -401602560 -1869022326 -1140716917</internalNodes>
      <leafValues>
        -4.5803156495094299e-01 4.6506002545356750e-01</leafValues></_>
    <_>
      <internalNodes>
        0 -1 1449 710345505 -619980580 -1878830755 -581324787 -246930454
        -1718943568 973670585 -1630600032</internalNodes>
      <leafValues>
        -5.2810180187225342e-01 3.8016039133071899e-01</leafValues></_>
    <_>
      <internalNodes>
        0 -1 3366 -1702846264 -2088720248 285754420 -237744120 558860954
        -1578493934 671104729 -1691418616</internalNodes>
      <leafValues>
        -5.1642030477523804e-01 3.7520816922187805e-01</leafValues></_>
    <_>
      <internalNodes>
        0 -1 1362 -1069069150 -766328737 -1206824352 -553315327
        1443029931 134252568 570669499 1963350696</internalNodes>
      <leafValues>
        -5.2567732334136963e-01 3.8364577293395996e-01</leafValues></_></weakClassifiers></stage16>
</opencv_storage>
