<?xml version="1.0"?>
<opencv_storage>
<stage7>
  <maxWeakCount>6</maxWeakCount>
  <stageThreshold>-1.0351012945175171e+00</stageThreshold>
  <weakClassifiers>
    <_>
      <internalNodes>
        0 -1 2580 2371445 1039974391 2147287039 -196612 -1107478588
        -196609 -1073775105 -327682</internalNodes>
      <leafValues>
        -4.5472061634063721e-01 7.5025486946105957e-01</leafValues></_>
    <_>
      <internalNodes>
        0 -1 3866 -587447073 2129792959 -17825797 -1866825926 -17147169
        -17924514 -51052578 -1164267654</internalNodes>
      <leafValues>
        -4.7486901283264160e-01 6.8620413541793823e-01</leafValues></_>
    <_>
      <internalNodes>
        0 -1 1160 -669986060 -711977471 -1055958761 1567624015
        -1790926156 -58618823 -1455386994 -57037889</internalNodes>
      <leafValues>
        -5.1859962940216064e-01 5.7840567827224731e-01</leafValues></_>
    <_>
      <internalNodes>
        0 -1 339 -427880689 -321297321 -1063728643 1004401621 -667811465
        -123784168 -1365695983 -5453</internalNodes>
      <leafValues>
        -6.1591500043869019e-01 4.8966169357299805e-01</leafValues></_>
    <_>
      <internalNodes>
        0 -1 3906 -322029304 -1193340066 -997665831 -1097688358
        -533603605 -1629056346 -1515524125 -1292965410</internalNodes>
      <leafValues>
        -5.3943878412246704e-01 5.1564848423004150e-01</leafValues></_>
    <_>
      <internalNodes>
        0 -1 2007 -784859614 -747087599 -1959772662 1964626587
        1851609344 556431386 2076242570 -72635734</internalNodes>
      <leafValues>
        -6.0204005241394043e-01 4.7143647074699402e-01</leafValues></_></weakClassifiers></stage7>
</opencv_storage>
