<?xml version="1.0"?>
<opencv_storage>
<stage9>
  <maxWeakCount>7</maxWeakCount>
  <stageThreshold>-6.0800504684448242e-01</stageThreshold>
  <weakClassifiers>
    <_>
      <internalNodes>
        0 -1 2653 -4417 -20481 -65 -1342197761 -17409 -17409 -1
        805288895</internalNodes>
      <leafValues>
        -5.4299753904342651e-01 6.5965235233306885e-01</leafValues></_>
    <_>
      <internalNodes>
        0 -1 359 1811075070 1053855961 496065019 475185309 1608129239
        1810536920 1519258249 -108005230</internalNodes>
      <leafValues>
        -5.5308198928833008e-01 5.6688368320465088e-01</leafValues></_>
    <_>
      <internalNodes>
        0 -1 200 -88102273 -407974786 -16896065 -269578514 -268470349
        2147417983 225910783 -906026641</internalNodes>
      <leafValues>
        -4.7125494480133057e-01 5.9100896120071411e-01</leafValues></_>
    <_>
      <internalNodes>
        0 -1 6 -2000285152 -18100127 -1786722859 -816807424 1265266917
        -343309883 950039025 -70573008</internalNodes>
      <leafValues>
        -6.1358726024627686e-01 4.3011033535003662e-01</leafValues></_>
    <_>
      <internalNodes>
        0 -1 1614 -2095411576 -776830846 -2130066337 -141983728
        -1574928198 -1633630079 -1861379590 -1082684988</internalNodes>
      <leafValues>
        -5.0893372297286987e-01 5.5764657258987427e-01</leafValues></_>
    <_>
      <internalNodes>
        0 -1 1989 -1569021428 -498925565 470959104 -1877286749
        -1576328944 394282 -1568095750 -406120245</internalNodes>
      <leafValues>
        -6.5653812885284424e-01 4.5966359972953796e-01</leafValues></_>
    <_>
      <internalNodes>
        0 -1 2098 1613261945 2096430822 -65537 2080210805 -277597060
        -1073881731 -1351156225 -1432494737</internalNodes>
      <leafValues>
        -4.5246312022209167e-01 6.3242709636688232e-01</leafValues></_></weakClassifiers></stage9>
</opencv_storage>
