<?xml version="1.0"?>
<opencv_storage>
<stage12>
  <maxWeakCount>6</maxWeakCount>
  <stageThreshold>-1.0767767429351807e+00</stageThreshold>
  <weakClassifiers>
    <_>
      <internalNodes>
        0 -1 3647 252981557 211038502 1764282845 -1417913384 -1228803587
        -1470754559 -238880279 -1410547284</internalNodes>
      <leafValues>
        -6.6463416814804077e-01 6.1262798309326172e-01</leafValues></_>
    <_>
      <internalNodes>
        0 -1 3408 -2009186313 -1074364547 -1 1073725421 -1403211
        -4325643 -29360129 -1153540098</internalNodes>
      <leafValues>
        -4.5769053697586060e-01 6.6583216190338135e-01</leafValues></_>
    <_>
      <internalNodes>
        0 -1 744 1853826567 1767491413 1220789395 -624623524 2034434914
        -133790719 -384749683 -68167035</internalNodes>
      <leafValues>
        -5.4168730974197388e-01 4.9649113416671753e-01</leafValues></_>
    <_>
      <internalNodes>
        0 -1 1638 -2027183072 2079477781 -66987685 -150609839 188352430
        984203713 994263791 -604564399</internalNodes>
      <leafValues>
        -5.1207464933395386e-01 4.9563390016555786e-01</leafValues></_>
    <_>
      <internalNodes>
        0 -1 3279 -719849561 1444168455 38229 998267223 -2004622039
        -1143727425 -262953993 731950927</internalNodes>
      <leafValues>
        -6.2016296386718750e-01 4.2612859606742859e-01</leafValues></_>
    <_>
      <internalNodes>
        0 -1 12 -468802703 -91795120 -1744806945 -539614892 54395255
        -1684535056 25780258 -1077999613</internalNodes>
      <leafValues>
        -5.6549775600433350e-01 4.5440661907196045e-01</leafValues></_></weakClassifiers></stage12>
</opencv_storage>
