<?xml version="1.0"?>
<opencv_storage>
<stage8>
  <maxWeakCount>6</maxWeakCount>
  <stageThreshold>-1.2923424243927002e+00</stageThreshold>
  <weakClassifiers>
    <_>
      <internalNodes>
        0 -1 1097 712978431 2063564671 737837055 1069252607 -687919115
        -32769 -49167 -33587205</internalNodes>
      <leafValues>
        -4.9134197831153870e-01 7.0038533210754395e-01</leafValues></_>
    <_>
      <internalNodes>
        0 -1 3968 -1899255036 572821671 -804171052 -64064386 -659952783
        -794650476 -225252812 -2097741</internalNodes>
      <leafValues>
        -6.0544204711914062e-01 5.3979921340942383e-01</leafValues></_>
    <_>
      <internalNodes>
        0 -1 608 -1055399954 1360052674 155251071 -140131951 197771649
        -558775166 1678386995 -2144413</internalNodes>
      <leafValues>
        -5.9618461132049561e-01 5.0224143266677856e-01</leafValues></_>
    <_>
      <internalNodes>
        0 -1 3219 615800819 469532543 -16793601 -1107509249 -197399
        -180231 -1090912517 -1206354434</internalNodes>
      <leafValues>
        -5.4511755704879761e-01 5.6971877813339233e-01</leafValues></_>
    <_>
      <internalNodes>
        0 -1 117 2089593791 -514301472 -1063533935 1073971834 1489314733
        1485095043 457143355 1179613499</internalNodes>
      <leafValues>
        -6.4696866273880005e-01 4.2797830700874329e-01</leafValues></_>
    <_>
      <internalNodes>
        0 -1 348 -430463958 -1060470630 -1606220798 143132678 558962710
        2021855809 948353753 -268971861</internalNodes>
      <leafValues>
        -6.2747567892074585e-01 4.4299256801605225e-01</leafValues></_></weakClassifiers></stage8>
</opencv_storage>
