<?xml version="1.0"?>
<opencv_storage>
<stage1>
  <maxWeakCount>4</maxWeakCount>
  <stageThreshold>-1.1590691804885864e+00</stageThreshold>
  <weakClassifiers>
    <_>
      <internalNodes>
        0 -1 997 440351483 1006600191 2147434463 -67142145 1065046207
        2080325631 -1 -1</internalNodes>
      <leafValues>
        -7.2203391790390015e-01 7.7494090795516968e-01</leafValues></_>
    <_>
      <internalNodes>
        0 -1 372 -865169880 1828616954 -5312562 -1560367106 -856715529
        2046787455 -1098924305 -923304577</internalNodes>
      <leafValues>
        -6.1192476749420166e-01 6.7632478475570679e-01</leafValues></_>
    <_>
      <internalNodes>
        0 -1 50 -721104752 -675229424 -1073671851 -721227644 553681024
        -879689718 -771710857 -798797567</internalNodes>
      <leafValues>
        -7.3992240428924561e-01 5.3214961290359497e-01</leafValues></_>
    <_>
      <internalNodes>
        0 -1 1050 -229486462 -799944367 514 1930641681 1610612864
        -1742536655 17039902 -1089517558</internalNodes>
      <leafValues>
        -5.8216291666030884e-01 6.2537026405334473e-01</leafValues></_></weakClassifiers></stage1>
</opencv_storage>
