<?xml version="1.0"?>
<opencv_storage>
<stage17>
  <maxWeakCount>10</maxWeakCount>
  <stageThreshold>-8.9645248651504517e-01</stageThreshold>
  <weakClassifiers>
    <_>
      <internalNodes>
        0 -1 37 -821825818 -268566786 -268455938 -270340370 536459263
        -65539 805269231 -16816434</internalNodes>
      <leafValues>
        -2.2723673284053802e-01 7.4093264341354370e-01</leafValues></_>
    <_>
      <internalNodes>
        0 -1 3779 -2139685072 -2138815991 -2059184867 -2985674
        -1610511127 -881684351 -527725840 -73412869</internalNodes>
      <leafValues>
        -4.8825958371162415e-01 4.6878403425216675e-01</leafValues></_>
    <_>
      <internalNodes>
        0 -1 943 1860899839 2082599176 -1073712887 -1056915197
        1330457579 134856712 -661706243 -552942720</internalNodes>
      <leafValues>
        -5.4193955659866333e-01 3.8018581271171570e-01</leafValues></_>
    <_>
      <internalNodes>
        0 -1 1634 -1384975607 1541462192 25744061 -171714403 -1610046752
        -1232437088 79939983 -574111728</internalNodes>
      <leafValues>
        -4.4018074870109558e-01 4.5910540223121643e-01</leafValues></_>
    <_>
      <internalNodes>
        0 -1 3912 -54390482 865800226 -2128543682 575542089 1342487086
        -1946115904 -61685366 -1696403538</internalNodes>
      <leafValues>
        -4.9519395828247070e-01 3.7891542911529541e-01</leafValues></_>
    <_>
      <internalNodes>
        0 -1 1048 -279192990 957370433 -2122169296 100794455 -25075007
        403194376 38487211 1810875055</internalNodes>
      <leafValues>
        -5.4614710807800293e-01 3.2125285267829895e-01</leafValues></_>
    <_>
      <internalNodes>
        0 -1 144 -447745133 -720458168 -2126511724 -53464824 -1488116805
        -92109163 1346966998 -602554299</internalNodes>
      <leafValues>
        -5.5403310060501099e-01 3.6591708660125732e-01</leafValues></_>
    <_>
      <internalNodes>
        0 -1 49 -2138901517 1237975056 -1064222689 -157390204 403841873
        -1157461476 419636235 -949190497</internalNodes>
      <leafValues>
        -4.3518593907356262e-01 4.6502223610877991e-01</leafValues></_>
    <_>
      <internalNodes>
        0 -1 3624 -575686046 -743489616 536843444 -541127492 -1208516875
        -1518649350 108336373 -7086865</internalNodes>
      <leafValues>
        -3.4349858760833740e-01 5.8822894096374512e-01</leafValues></_>
    <_>
      <internalNodes>
        0 -1 1707 1366545614 402620031 -29743896 -97357825 -789383394
        -1082769539 -491057480 -348525445</internalNodes>
      <leafValues>
        -4.3718674778938293e-01 4.5577830076217651e-01</leafValues></_></weakClassifiers></stage17>
</opencv_storage>
