<?xml version="1.0"?>
<opencv_storage>
<stage13>
  <maxWeakCount>7</maxWeakCount>
  <stageThreshold>-1.3376744985580444e+00</stageThreshold>
  <weakClassifiers>
    <_>
      <internalNodes>
        0 -1 3037 -2005888801 401626367 -3 529367039 -1090849033 -131075
        -1127088641 -1425288113</internalNodes>
      <leafValues>
        -2.2758620977401733e-01 7.6519173383712769e-01</leafValues></_>
    <_>
      <internalNodes>
        0 -1 1501 -116662283 277271331 -985624303 -259968875 1120191691
        209764368 -914300717 2144288671</internalNodes>
      <leafValues>
        -5.6499308347702026e-01 4.4038328528404236e-01</leafValues></_>
    <_>
      <internalNodes>
        0 -1 384 35074929 -838336309 -2147462689 2135855644 -1685514243
        -360021368 528692141 -67283952</internalNodes>
      <leafValues>
        -5.3282755613327026e-01 4.2372861504554749e-01</leafValues></_>
    <_>
      <internalNodes>
        0 -1 2318 64796028 500056268 1292194875 311742682 755114169
        -1345805944 285212811 -1350319893</internalNodes>
      <leafValues>
        -6.8313866853713989e-01 3.1434673070907593e-01</leafValues></_>
    <_>
      <internalNodes>
        0 -1 1364 -84166318 1044017151 993144634 1064976319 -687960326
        -67141633 -1073758210 -1</internalNodes>
      <leafValues>
        -3.9755663275718689e-01 5.7931065559387207e-01</leafValues></_>
    <_>
      <internalNodes>
        0 -1 1969 -2142993918 -1068392448 1360225555 1423593540
        -2007981137 412287138 537589995 -2132078583</internalNodes>
      <leafValues>
        -5.2060598134994507e-01 3.9941394329071045e-01</leafValues></_>
    <_>
      <internalNodes>
        0 -1 3602 -404355829 1743105812 2130706431 -673905380 901388129
        -1480706631 -67305489 -1416966449</internalNodes>
      <leafValues>
        -4.0912055969238281e-01 5.2024376392364502e-01</leafValues></_></weakClassifiers></stage13>
</opencv_storage>
