<?xml version="1.0"?>
<opencv_storage>
<stage11>
  <maxWeakCount>7</maxWeakCount>
  <stageThreshold>-1.0522694587707520e+00</stageThreshold>
  <weakClassifiers>
    <_>
      <internalNodes>
        0 -1 232 -1304767950 926613487 796573438 -4456449 594950755
        1073741823 947129390 2013252799</internalNodes>
      <leafValues>
        -5.0321751832962036e-01 6.2573099136352539e-01</leafValues></_>
    <_>
      <internalNodes>
        0 -1 3924 -587205432 2136223212 1610366476 2071412072 -2166859
        -25232012 -556073320 -79968294</internalNodes>
      <leafValues>
        -3.6220481991767883e-01 6.6422408819198608e-01</leafValues></_>
    <_>
      <internalNodes>
        0 -1 1177 -1995913904 -1005813104 -2126380899 -616267519
        -1115042940 -1199470456 1711851562 -849674081</internalNodes>
      <leafValues>
        -3.9927828311920166e-01 5.5357331037521362e-01</leafValues></_>
    <_>
      <internalNodes>
        0 -1 3621 -554966942 -714373212 1862250082 -781238531
        -1384388810 107965047 -302162211 -767380641</internalNodes>
      <leafValues>
        -4.0863084793090820e-01 5.8593434095382690e-01</leafValues></_>
    <_>
      <internalNodes>
        0 -1 2547 -704317904 -538429571 -687919107 -769119691
        -1099657064 -806521698 -1364686678 -1699013889</internalNodes>
      <leafValues>
        -3.4351700544357300e-01 7.0103102922439575e-01</leafValues></_>
    <_>
      <internalNodes>
        0 -1 81 1472524628 -729481200 119259 -736931626 -2147426048
        -2103214072 466962 13041987</internalNodes>
      <leafValues>
        -6.7917835712432861e-01 3.4419956803321838e-01</leafValues></_>
    <_>
      <internalNodes>
        0 -1 1377 -625216384 -244437442 782378528 2117500787 -1300260102
        -680036505 -1084145665 -1275856897</internalNodes>
      <leafValues>
        -4.0604940056800842e-01 5.5444228649139404e-01</leafValues></_></weakClassifiers></stage11>
</opencv_storage>
